<?xml version="1.0" encoding="UTF-8" standalone="yes"?>
<PMML xmlns="http://www.dmg.org/PMML-4_4" xmlns:data="http://jpmml.org/jpmml-model/InlineTable" version="4.4">
	<Header>
		<Application name="SkLearn2PMML package" version="0.123.1"/>
		<Timestamp>2025-11-16T20:59:50Z</Timestamp>
	</Header>
	<MiningBuildTask>
		<Extension name="repr">PMMLPipeline(steps=[('preprocessor', ColumnTransformer(transformers=[('num', StandardScaler(),
                                 ['idade', 'genero', 'peso', 'duracao',
                                  'perda_de_apetite', 'vomito', 'diarreia',
                                  'tosse', 'dificuldade_para_respirar',
                                  'dificuldade_para_locomover',
                                  'problemas_na_pele', 'secrecao_nasal',
                                  'secrecao_ocular', 'batimento_cardiaco',
                                  'agitacao', 'andar_em_circulos',
                                  'aumento_apetite',
                                  'cera_excessiva_nas_orelhas', 'coceira',
                                  'desidratacao', 'desmaio',
                                  'dificuldade_para_urinar', 'dor',
                                  'espamos_musculares', 'espirros', 'febre',
                                  'fraqueza', 'inchaco', 'lambedura',
                                  'letargia', ...]),
                                ('cat',
                                 OneHotEncoder(handle_unknown='ignore',
                                               sparse_output=False),
                                 ['tipo_do_animal', 'raca'])])),
       ('model', KNeighborsClassifier())])</Extension>
	</MiningBuildTask>
	<DataDictionary>
		<DataField name="classe_doenca" optype="categorical" dataType="string">
			<Value value="cardiovascular_hematologica"/>
			<Value value="cutanea"/>
			<Value value="gastrointestinal"/>
			<Value value="nenhuma"/>
			<Value value="neuro_musculoesqueletica"/>
			<Value value="respiratoria"/>
			<Value value="urogenital"/>
		</DataField>
		<DataField name="tipo_do_animal" optype="categorical" dataType="string">
			<Value value="cachorro"/>
			<Value value="gato"/>
		</DataField>
		<DataField name="raca" optype="categorical" dataType="string">
			<Value value="abissinio"/>
			<Value value="azul_russo"/>
			<Value value="beagle"/>
			<Value value="bengal"/>
			<Value value="border_collie"/>
			<Value value="boxer"/>
			<Value value="britanico"/>
			<Value value="british_shorthair"/>
			<Value value="buldogue"/>
			<Value value="buldogue_frances"/>
			<Value value="burmes"/>
			<Value value="cavalier_king_charles_spaniel"/>
			<Value value="chihuahua"/>
			<Value value="cocker_spaniel"/>
			<Value value="dachshund"/>
			<Value value="dachshund_(salsicha)"/>
			<Value value="dalmata"/>
			<Value value="doberman"/>
			<Value value="golden_retriever"/>
			<Value value="husky"/>
			<Value value="husky_siberiano"/>
			<Value value="labrador"/>
			<Value value="labrador_retriever"/>
			<Value value="maine_coon"/>
			<Value value="maltes"/>
			<Value value="manx"/>
			<Value value="pastor_alemao"/>
			<Value value="persa"/>
			<Value value="pit_bull"/>
			<Value value="poodle"/>
			<Value value="pug"/>
			<Value value="ragdoll"/>
			<Value value="rottweiler"/>
			<Value value="scottish_fold"/>
			<Value value="sem_raca_definida"/>
			<Value value="sem_raca_definida_(srd)"/>
			<Value value="shih_tzu"/>
			<Value value="siames"/>
			<Value value="siberiano"/>
			<Value value="sphynx"/>
			<Value value="yorkshire"/>
		</DataField>
		<DataField name="idade" optype="continuous" dataType="double"/>
		<DataField name="genero" optype="continuous" dataType="double"/>
		<DataField name="peso" optype="continuous" dataType="double"/>
		<DataField name="duracao" optype="continuous" dataType="double"/>
		<DataField name="perda_de_apetite" optype="continuous" dataType="double"/>
		<DataField name="vomito" optype="continuous" dataType="double"/>
		<DataField name="diarreia" optype="continuous" dataType="double"/>
		<DataField name="tosse" optype="continuous" dataType="double"/>
		<DataField name="dificuldade_para_respirar" optype="continuous" dataType="double"/>
		<DataField name="dificuldade_para_locomover" optype="continuous" dataType="double"/>
		<DataField name="problemas_na_pele" optype="continuous" dataType="double"/>
		<DataField name="secrecao_nasal" optype="continuous" dataType="double"/>
		<DataField name="secrecao_ocular" optype="continuous" dataType="double"/>
		<DataField name="batimento_cardiaco" optype="continuous" dataType="double"/>
		<DataField name="agitacao" optype="continuous" dataType="double"/>
		<DataField name="andar_em_circulos" optype="continuous" dataType="double"/>
		<DataField name="aumento_apetite" optype="continuous" dataType="double"/>
		<DataField name="cera_excessiva_nas_orelhas" optype="continuous" dataType="double"/>
		<DataField name="coceira" optype="continuous" dataType="double"/>
		<DataField name="desidratacao" optype="continuous" dataType="double"/>
		<DataField name="desmaio" optype="continuous" dataType="double"/>
		<DataField name="dificuldade_para_urinar" optype="continuous" dataType="double"/>
		<DataField name="dor" optype="continuous" dataType="double"/>
		<DataField name="espamos_musculares" optype="continuous" dataType="double"/>
		<DataField name="espirros" optype="continuous" dataType="double"/>
		<DataField name="febre" optype="continuous" dataType="double"/>
		<DataField name="fraqueza" optype="continuous" dataType="double"/>
		<DataField name="inchaco" optype="continuous" dataType="double"/>
		<DataField name="lambedura" optype="continuous" dataType="double"/>
		<DataField name="letargia" optype="continuous" dataType="double"/>
		<DataField name="lingua_azulada" optype="continuous" dataType="double"/>
		<DataField name="perda_de_pelos" optype="continuous" dataType="double"/>
		<DataField name="perda_de_peso" optype="continuous" dataType="double"/>
		<DataField name="ranger_de_dentes" optype="continuous" dataType="double"/>
		<DataField name="ronco" optype="continuous" dataType="double"/>
		<DataField name="salivacao" optype="continuous" dataType="double"/>
		<DataField name="suor_alterado" optype="continuous" dataType="double"/>
	</DataDictionary>
	<NearestNeighborModel functionName="classification" algorithmName="sklearn.neighbors._classification.KNeighborsClassifier" numberOfNeighbors="5">
		<MiningSchema>
			<MiningField name="classe_doenca" usageType="target"/>
			<MiningField name="aumento_apetite"/>
			<MiningField name="espamos_musculares"/>
			<MiningField name="ranger_de_dentes"/>
			<MiningField name="salivacao"/>
			<MiningField name="suor_alterado"/>
			<MiningField name="idade"/>
			<MiningField name="genero"/>
			<MiningField name="peso"/>
			<MiningField name="duracao"/>
			<MiningField name="perda_de_apetite"/>
			<MiningField name="vomito"/>
			<MiningField name="diarreia"/>
			<MiningField name="tosse"/>
			<MiningField name="dificuldade_para_respirar"/>
			<MiningField name="dificuldade_para_locomover"/>
			<MiningField name="problemas_na_pele"/>
			<MiningField name="secrecao_nasal"/>
			<MiningField name="secrecao_ocular"/>
			<MiningField name="batimento_cardiaco"/>
			<MiningField name="agitacao"/>
			<MiningField name="andar_em_circulos"/>
			<MiningField name="cera_excessiva_nas_orelhas"/>
			<MiningField name="coceira"/>
			<MiningField name="desidratacao"/>
			<MiningField name="desmaio"/>
			<MiningField name="dificuldade_para_urinar"/>
			<MiningField name="dor"/>
			<MiningField name="espirros"/>
			<MiningField name="febre"/>
			<MiningField name="fraqueza"/>
			<MiningField name="inchaco"/>
			<MiningField name="lambedura"/>
			<MiningField name="letargia"/>
			<MiningField name="lingua_azulada"/>
			<MiningField name="perda_de_pelos"/>
			<MiningField name="perda_de_peso"/>
			<MiningField name="ronco"/>
			<MiningField name="tipo_do_animal" invalidValueTreatment="asIs"/>
			<MiningField name="raca" invalidValueTreatment="asIs"/>
		</MiningSchema>
		<Output>
			<OutputField name="neighbor(1)" optype="categorical" dataType="string" feature="entityId"/>
			<OutputField name="neighbor(2)" optype="categorical" dataType="string" feature="entityId" rank="2"/>
			<OutputField name="neighbor(3)" optype="categorical" dataType="string" feature="entityId" rank="3"/>
			<OutputField name="neighbor(4)" optype="categorical" dataType="string" feature="entityId" rank="4"/>
			<OutputField name="neighbor(5)" optype="categorical" dataType="string" feature="entityId" rank="5"/>
		</Output>
		<LocalTransformations>
			<DerivedField name="standardScaler(idade)" optype="continuous" dataType="double">
				<Apply function="/">
					<Apply function="-">
						<FieldRef field="idade"/>
						<Constant dataType="double">5.0157657657657655</Constant>
					</Apply>
					<Constant dataType="double">2.487305445168879</Constant>
				</Apply>
			</DerivedField>
			<DerivedField name="standardScaler(genero)" optype="continuous" dataType="double">
				<Apply function="/">
					<Apply function="-">
						<FieldRef field="genero"/>
						<Constant dataType="double">0.5382882882882883</Constant>
					</Apply>
					<Constant dataType="double">0.49853185151999363</Constant>
				</Apply>
			</DerivedField>
			<DerivedField name="standardScaler(peso)" optype="continuous" dataType="double">
				<Apply function="/">
					<Apply function="-">
						<FieldRef field="peso"/>
						<Constant dataType="double">13.267567567567566</Constant>
					</Apply>
					<Constant dataType="double">10.612050452386343</Constant>
				</Apply>
			</DerivedField>
			<DerivedField name="standardScaler(duracao)" optype="continuous" dataType="double">
				<Apply function="/">
					<Apply function="-">
						<FieldRef field="duracao"/>
						<Constant dataType="double">8.204954954954955</Constant>
					</Apply>
					<Constant dataType="double">7.037279927767171</Constant>
				</Apply>
			</DerivedField>
			<DerivedField name="standardScaler(perda_de_apetite)" optype="continuous" dataType="double">
				<Apply function="/">
					<Apply function="-">
						<FieldRef field="perda_de_apetite"/>
						<Constant dataType="double">0.5157657657657657</Constant>
					</Apply>
					<Constant dataType="double">0.4997513788173266</Constant>
				</Apply>
			</DerivedField>
			<DerivedField name="standardScaler(vomito)" optype="continuous" dataType="double">
				<Apply function="/">
					<Apply function="-">
						<FieldRef field="vomito"/>
						<Constant dataType="double">0.3130630630630631</Constant>
					</Apply>
					<Constant dataType="double">0.4637397779020425</Constant>
				</Apply>
			</DerivedField>
			<DerivedField name="standardScaler(diarreia)" optype="continuous" dataType="double">
				<Apply function="/">
					<Apply function="-">
						<FieldRef field="diarreia"/>
						<Constant dataType="double">0.0945945945945946</Constant>
					</Apply>
					<Constant dataType="double">0.29265415983388804</Constant>
				</Apply>
			</DerivedField>
			<DerivedField name="standardScaler(tosse)" optype="continuous" dataType="double">
				<Apply function="/">
					<Apply function="-">
						<FieldRef field="tosse"/>
						<Constant dataType="double">0.20045045045045046</Constant>
					</Apply>
					<Constant dataType="double">0.40033744187205617</Constant>
				</Apply>
			</DerivedField>
			<DerivedField name="standardScaler(dificuldade_para_respirar)" optype="continuous" dataType="double">
				<Apply function="/">
					<Apply function="-">
						<FieldRef field="dificuldade_para_respirar"/>
						<Constant dataType="double">0.13063063063063063</Constant>
					</Apply>
					<Constant dataType="double">0.33699594800483046</Constant>
				</Apply>
			</DerivedField>
			<DerivedField name="standardScaler(dificuldade_para_locomover)" optype="continuous" dataType="double">
				<Apply function="/">
					<Apply function="-">
						<FieldRef field="dificuldade_para_locomover"/>
						<Constant dataType="double">0.18243243243243243</Constant>
					</Apply>
					<Constant dataType="double">0.3862005179038713</Constant>
				</Apply>
			</DerivedField>
			<DerivedField name="standardScaler(problemas_na_pele)" optype="continuous" dataType="double">
				<Apply function="/">
					<Apply function="-">
						<FieldRef field="problemas_na_pele"/>
						<Constant dataType="double">0.1891891891891892</Constant>
					</Apply>
					<Constant dataType="double">0.3916588309780929</Constant>
				</Apply>
			</DerivedField>
			<DerivedField name="standardScaler(secrecao_nasal)" optype="continuous" dataType="double">
				<Apply function="/">
					<Apply function="-">
						<FieldRef field="secrecao_nasal"/>
						<Constant dataType="double">0.13063063063063063</Constant>
					</Apply>
					<Constant dataType="double">0.33699594800483046</Constant>
				</Apply>
			</DerivedField>
			<DerivedField name="standardScaler(secrecao_ocular)" optype="continuous" dataType="double">
				<Apply function="/">
					<Apply function="-">
						<FieldRef field="secrecao_ocular"/>
						<Constant dataType="double">0.07432432432432433</Constant>
					</Apply>
					<Constant dataType="double">0.2622979586997523</Constant>
				</Apply>
			</DerivedField>
			<DerivedField name="standardScaler(batimento_cardiaco)" optype="continuous" dataType="double">
				<Apply function="/">
					<Apply function="-">
						<FieldRef field="batimento_cardiaco"/>
						<Constant dataType="double">138.71396396396398</Constant>
					</Apply>
					<Constant dataType="double">22.565853250777785</Constant>
				</Apply>
			</DerivedField>
			<DerivedField name="standardScaler(agitacao)" optype="continuous" dataType="double">
				<Apply function="/">
					<Apply function="-">
						<FieldRef field="agitacao"/>
						<Constant dataType="double">0.06531531531531531</Constant>
					</Apply>
					<Constant dataType="double">0.24708141350691726</Constant>
				</Apply>
			</DerivedField>
			<DerivedField name="standardScaler(andar_em_circulos)" optype="continuous" dataType="double">
				<Apply function="/">
					<Apply function="-">
						<FieldRef field="andar_em_circulos"/>
						<Constant dataType="double">0.015765765765765764</Constant>
					</Apply>
					<Constant dataType="double">0.12456807936058409</Constant>
				</Apply>
			</DerivedField>
			<DerivedField name="standardScaler(cera_excessiva_nas_orelhas)" optype="continuous" dataType="double">
				<Apply function="/">
					<Apply function="-">
						<FieldRef field="cera_excessiva_nas_orelhas"/>
						<Constant dataType="double">0.0022522522522522522</Constant>
					</Apply>
					<Constant dataType="double">0.04740442608074141</Constant>
				</Apply>
			</DerivedField>
			<DerivedField name="standardScaler(coceira)" optype="continuous" dataType="double">
				<Apply function="/">
					<Apply function="-">
						<FieldRef field="coceira"/>
						<Constant dataType="double">0.1036036036036036</Constant>
					</Apply>
					<Constant dataType="double">0.3047456265870783</Constant>
				</Apply>
			</DerivedField>
			<DerivedField name="standardScaler(desidratacao)" optype="continuous" dataType="double">
				<Apply function="/">
					<Apply function="-">
						<FieldRef field="desidratacao"/>
						<Constant dataType="double">0.060810810810810814</Constant>
					</Apply>
					<Constant dataType="double">0.23898296194361343</Constant>
				</Apply>
			</DerivedField>
			<DerivedField name="standardScaler(desmaio)" optype="continuous" dataType="double">
				<Apply function="/">
					<Apply function="-">
						<FieldRef field="desmaio"/>
						<Constant dataType="double">0.02027027027027027</Constant>
					</Apply>
					<Constant dataType="double">0.14092333523387982</Constant>
				</Apply>
			</DerivedField>
			<DerivedField name="standardScaler(dificuldade_para_urinar)" optype="continuous" dataType="double">
				<Apply function="/">
					<Apply function="-">
						<FieldRef field="dificuldade_para_urinar"/>
						<Constant dataType="double">0.02252252252252252</Constant>
					</Apply>
					<Constant dataType="double">0.14837539722523066</Constant>
				</Apply>
			</DerivedField>
			<DerivedField name="standardScaler(dor)" optype="continuous" dataType="double">
				<Apply function="/">
					<Apply function="-">
						<FieldRef field="dor"/>
						<Constant dataType="double">0.10585585585585586</Constant>
					</Apply>
					<Constant dataType="double">0.3076530410005403</Constant>
				</Apply>
			</DerivedField>
			<DerivedField name="standardScaler(espirros)" optype="continuous" dataType="double">
				<Apply function="/">
					<Apply function="-">
						<FieldRef field="espirros"/>
						<Constant dataType="double">0.060810810810810814</Constant>
					</Apply>
					<Constant dataType="double">0.23898296194361343</Constant>
				</Apply>
			</DerivedField>
			<DerivedField name="standardScaler(febre)" optype="continuous" dataType="double">
				<Apply function="/">
					<Apply function="-">
						<FieldRef field="febre"/>
						<Constant dataType="double">0.2747747747747748</Constant>
					</Apply>
					<Constant dataType="double">0.4464007145180735</Constant>
				</Apply>
			</DerivedField>
			<DerivedField name="standardScaler(fraqueza)" optype="continuous" dataType="double">
				<Apply function="/">
					<Apply function="-">
						<FieldRef field="fraqueza"/>
						<Constant dataType="double">0.04054054054054054</Constant>
					</Apply>
					<Constant dataType="double">0.19722323674765438</Constant>
				</Apply>
			</DerivedField>
			<DerivedField name="standardScaler(inchaco)" optype="continuous" dataType="double">
				<Apply function="/">
					<Apply function="-">
						<FieldRef field="inchaco"/>
						<Constant dataType="double">0.14189189189189189</Constant>
					</Apply>
					<Constant dataType="double">0.34893922523446913</Constant>
				</Apply>
			</DerivedField>
			<DerivedField name="standardScaler(lambedura)" optype="continuous" dataType="double">
				<Apply function="/">
					<Apply function="-">
						<FieldRef field="lambedura"/>
						<Constant dataType="double">0.018018018018018018</Constant>
					</Apply>
					<Constant dataType="double">0.13301642396606667</Constant>
				</Apply>
			</DerivedField>
			<DerivedField name="standardScaler(letargia)" optype="continuous" dataType="double">
				<Apply function="/">
					<Apply function="-">
						<FieldRef field="letargia"/>
						<Constant dataType="double">0.7117117117117117</Constant>
					</Apply>
					<Constant dataType="double">0.45296594918834354</Constant>
				</Apply>
			</DerivedField>
			<DerivedField name="standardScaler(lingua_azulada)" optype="continuous" dataType="double">
				<Apply function="/">
					<Apply function="-">
						<FieldRef field="lingua_azulada"/>
						<Constant dataType="double">0.0022522522522522522</Constant>
					</Apply>
					<Constant dataType="double">0.04740442608074141</Constant>
				</Apply>
			</DerivedField>
			<DerivedField name="standardScaler(perda_de_pelos)" optype="continuous" dataType="double">
				<Apply function="/">
					<Apply function="-">
						<FieldRef field="perda_de_pelos"/>
						<Constant dataType="double">0.05405405405405406</Constant>
					</Apply>
					<Constant dataType="double">0.2261243314956961</Constant>
				</Apply>
			</DerivedField>
			<DerivedField name="standardScaler(perda_de_peso)" optype="continuous" dataType="double">
				<Apply function="/">
					<Apply function="-">
						<FieldRef field="perda_de_peso"/>
						<Constant dataType="double">0.11711711711711711</Constant>
					</Apply>
					<Constant dataType="double">0.3215597891454909</Constant>
				</Apply>
			</DerivedField>
			<DerivedField name="standardScaler(ronco)" optype="continuous" dataType="double">
				<Apply function="/">
					<Apply function="-">
						<FieldRef field="ronco"/>
						<Constant dataType="double">0.024774774774774775</Constant>
					</Apply>
					<Constant dataType="double">0.15543804331512268</Constant>
				</Apply>
			</DerivedField>
			<DerivedField name="float(standardScaler(idade))" optype="continuous" dataType="float">
				<FieldRef field="standardScaler(idade)"/>
			</DerivedField>
			<DerivedField name="float(standardScaler(genero))" optype="continuous" dataType="float">
				<FieldRef field="standardScaler(genero)"/>
			</DerivedField>
			<DerivedField name="float(standardScaler(peso))" optype="continuous" dataType="float">
				<FieldRef field="standardScaler(peso)"/>
			</DerivedField>
			<DerivedField name="float(standardScaler(duracao))" optype="continuous" dataType="float">
				<FieldRef field="standardScaler(duracao)"/>
			</DerivedField>
			<DerivedField name="float(standardScaler(perda_de_apetite))" optype="continuous" dataType="float">
				<FieldRef field="standardScaler(perda_de_apetite)"/>
			</DerivedField>
			<DerivedField name="float(standardScaler(vomito))" optype="continuous" dataType="float">
				<FieldRef field="standardScaler(vomito)"/>
			</DerivedField>
			<DerivedField name="float(standardScaler(diarreia))" optype="continuous" dataType="float">
				<FieldRef field="standardScaler(diarreia)"/>
			</DerivedField>
			<DerivedField name="float(standardScaler(tosse))" optype="continuous" dataType="float">
				<FieldRef field="standardScaler(tosse)"/>
			</DerivedField>
			<DerivedField name="float(standardScaler(dificuldade_para_respirar))" optype="continuous" dataType="float">
				<FieldRef field="standardScaler(dificuldade_para_respirar)"/>
			</DerivedField>
			<DerivedField name="float(standardScaler(dificuldade_para_locomover))" optype="continuous" dataType="float">
				<FieldRef field="standardScaler(dificuldade_para_locomover)"/>
			</DerivedField>
			<DerivedField name="float(standardScaler(problemas_na_pele))" optype="continuous" dataType="float">
				<FieldRef field="standardScaler(problemas_na_pele)"/>
			</DerivedField>
			<DerivedField name="float(standardScaler(secrecao_nasal))" optype="continuous" dataType="float">
				<FieldRef field="standardScaler(secrecao_nasal)"/>
			</DerivedField>
			<DerivedField name="float(standardScaler(secrecao_ocular))" optype="continuous" dataType="float">
				<FieldRef field="standardScaler(secrecao_ocular)"/>
			</DerivedField>
			<DerivedField name="float(standardScaler(batimento_cardiaco))" optype="continuous" dataType="float">
				<FieldRef field="standardScaler(batimento_cardiaco)"/>
			</DerivedField>
			<DerivedField name="float(standardScaler(agitacao))" optype="continuous" dataType="float">
				<FieldRef field="standardScaler(agitacao)"/>
			</DerivedField>
			<DerivedField name="float(standardScaler(andar_em_circulos))" optype="continuous" dataType="float">
				<FieldRef field="standardScaler(andar_em_circulos)"/>
			</DerivedField>
			<DerivedField name="float(aumento_apetite)" optype="continuous" dataType="float">
				<FieldRef field="aumento_apetite"/>
			</DerivedField>
			<DerivedField name="float(standardScaler(cera_excessiva_nas_orelhas))" optype="continuous" dataType="float">
				<FieldRef field="standardScaler(cera_excessiva_nas_orelhas)"/>
			</DerivedField>
			<DerivedField name="float(standardScaler(coceira))" optype="continuous" dataType="float">
				<FieldRef field="standardScaler(coceira)"/>
			</DerivedField>
			<DerivedField name="float(standardScaler(desidratacao))" optype="continuous" dataType="float">
				<FieldRef field="standardScaler(desidratacao)"/>
			</DerivedField>
			<DerivedField name="float(standardScaler(desmaio))" optype="continuous" dataType="float">
				<FieldRef field="standardScaler(desmaio)"/>
			</DerivedField>
			<DerivedField name="float(standardScaler(dificuldade_para_urinar))" optype="continuous" dataType="float">
				<FieldRef field="standardScaler(dificuldade_para_urinar)"/>
			</DerivedField>
			<DerivedField name="float(standardScaler(dor))" optype="continuous" dataType="float">
				<FieldRef field="standardScaler(dor)"/>
			</DerivedField>
			<DerivedField name="float(espamos_musculares)" optype="continuous" dataType="float">
				<FieldRef field="espamos_musculares"/>
			</DerivedField>
			<DerivedField name="float(standardScaler(espirros))" optype="continuous" dataType="float">
				<FieldRef field="standardScaler(espirros)"/>
			</DerivedField>
			<DerivedField name="float(standardScaler(febre))" optype="continuous" dataType="float">
				<FieldRef field="standardScaler(febre)"/>
			</DerivedField>
			<DerivedField name="float(standardScaler(fraqueza))" optype="continuous" dataType="float">
				<FieldRef field="standardScaler(fraqueza)"/>
			</DerivedField>
			<DerivedField name="float(standardScaler(inchaco))" optype="continuous" dataType="float">
				<FieldRef field="standardScaler(inchaco)"/>
			</DerivedField>
			<DerivedField name="float(standardScaler(lambedura))" optype="continuous" dataType="float">
				<FieldRef field="standardScaler(lambedura)"/>
			</DerivedField>
			<DerivedField name="float(standardScaler(letargia))" optype="continuous" dataType="float">
				<FieldRef field="standardScaler(letargia)"/>
			</DerivedField>
			<DerivedField name="float(standardScaler(lingua_azulada))" optype="continuous" dataType="float">
				<FieldRef field="standardScaler(lingua_azulada)"/>
			</DerivedField>
			<DerivedField name="float(standardScaler(perda_de_pelos))" optype="continuous" dataType="float">
				<FieldRef field="standardScaler(perda_de_pelos)"/>
			</DerivedField>
			<DerivedField name="float(standardScaler(perda_de_peso))" optype="continuous" dataType="float">
				<FieldRef field="standardScaler(perda_de_peso)"/>
			</DerivedField>
			<DerivedField name="float(ranger_de_dentes)" optype="continuous" dataType="float">
				<FieldRef field="ranger_de_dentes"/>
			</DerivedField>
			<DerivedField name="float(standardScaler(ronco))" optype="continuous" dataType="float">
				<FieldRef field="standardScaler(ronco)"/>
			</DerivedField>
			<DerivedField name="float(salivacao)" optype="continuous" dataType="float">
				<FieldRef field="salivacao"/>
			</DerivedField>
			<DerivedField name="float(suor_alterado)" optype="continuous" dataType="float">
				<FieldRef field="suor_alterado"/>
			</DerivedField>
			<DerivedField name="tipo_do_animal=cachorro" optype="continuous" dataType="double">
				<NormDiscrete field="tipo_do_animal" value="cachorro"/>
			</DerivedField>
			<DerivedField name="float(tipo_do_animal=cachorro)" optype="continuous" dataType="float">
				<FieldRef field="tipo_do_animal=cachorro"/>
			</DerivedField>
			<DerivedField name="tipo_do_animal=gato" optype="continuous" dataType="double">
				<NormDiscrete field="tipo_do_animal" value="gato"/>
			</DerivedField>
			<DerivedField name="float(tipo_do_animal=gato)" optype="continuous" dataType="float">
				<FieldRef field="tipo_do_animal=gato"/>
			</DerivedField>
			<DerivedField name="raca=abissinio" optype="continuous" dataType="double">
				<NormDiscrete field="raca" value="abissinio"/>
			</DerivedField>
			<DerivedField name="float(raca=abissinio)" optype="continuous" dataType="float">
				<FieldRef field="raca=abissinio"/>
			</DerivedField>
			<DerivedField name="raca=azul_russo" optype="continuous" dataType="double">
				<NormDiscrete field="raca" value="azul_russo"/>
			</DerivedField>
			<DerivedField name="float(raca=azul_russo)" optype="continuous" dataType="float">
				<FieldRef field="raca=azul_russo"/>
			</DerivedField>
			<DerivedField name="raca=beagle" optype="continuous" dataType="double">
				<NormDiscrete field="raca" value="beagle"/>
			</DerivedField>
			<DerivedField name="float(raca=beagle)" optype="continuous" dataType="float">
				<FieldRef field="raca=beagle"/>
			</DerivedField>
			<DerivedField name="raca=bengal" optype="continuous" dataType="double">
				<NormDiscrete field="raca" value="bengal"/>
			</DerivedField>
			<DerivedField name="float(raca=bengal)" optype="continuous" dataType="float">
				<FieldRef field="raca=bengal"/>
			</DerivedField>
			<DerivedField name="raca=border_collie" optype="continuous" dataType="double">
				<NormDiscrete field="raca" value="border_collie"/>
			</DerivedField>
			<DerivedField name="float(raca=border_collie)" optype="continuous" dataType="float">
				<FieldRef field="raca=border_collie"/>
			</DerivedField>
			<DerivedField name="raca=boxer" optype="continuous" dataType="double">
				<NormDiscrete field="raca" value="boxer"/>
			</DerivedField>
			<DerivedField name="float(raca=boxer)" optype="continuous" dataType="float">
				<FieldRef field="raca=boxer"/>
			</DerivedField>
			<DerivedField name="raca=britanico" optype="continuous" dataType="double">
				<NormDiscrete field="raca" value="britanico"/>
			</DerivedField>
			<DerivedField name="float(raca=britanico)" optype="continuous" dataType="float">
				<FieldRef field="raca=britanico"/>
			</DerivedField>
			<DerivedField name="raca=british_shorthair" optype="continuous" dataType="double">
				<NormDiscrete field="raca" value="british_shorthair"/>
			</DerivedField>
			<DerivedField name="float(raca=british_shorthair)" optype="continuous" dataType="float">
				<FieldRef field="raca=british_shorthair"/>
			</DerivedField>
			<DerivedField name="raca=buldogue" optype="continuous" dataType="double">
				<NormDiscrete field="raca" value="buldogue"/>
			</DerivedField>
			<DerivedField name="float(raca=buldogue)" optype="continuous" dataType="float">
				<FieldRef field="raca=buldogue"/>
			</DerivedField>
			<DerivedField name="raca=buldogue_frances" optype="continuous" dataType="double">
				<NormDiscrete field="raca" value="buldogue_frances"/>
			</DerivedField>
			<DerivedField name="float(raca=buldogue_frances)" optype="continuous" dataType="float">
				<FieldRef field="raca=buldogue_frances"/>
			</DerivedField>
			<DerivedField name="raca=burmes" optype="continuous" dataType="double">
				<NormDiscrete field="raca" value="burmes"/>
			</DerivedField>
			<DerivedField name="float(raca=burmes)" optype="continuous" dataType="float">
				<FieldRef field="raca=burmes"/>
			</DerivedField>
			<DerivedField name="raca=cavalier_king_charles_spaniel" optype="continuous" dataType="double">
				<NormDiscrete field="raca" value="cavalier_king_charles_spaniel"/>
			</DerivedField>
			<DerivedField name="float(raca=cavalier_king_charles_spaniel)" optype="continuous" dataType="float">
				<FieldRef field="raca=cavalier_king_charles_spaniel"/>
			</DerivedField>
			<DerivedField name="raca=chihuahua" optype="continuous" dataType="double">
				<NormDiscrete field="raca" value="chihuahua"/>
			</DerivedField>
			<DerivedField name="float(raca=chihuahua)" optype="continuous" dataType="float">
				<FieldRef field="raca=chihuahua"/>
			</DerivedField>
			<DerivedField name="raca=cocker_spaniel" optype="continuous" dataType="double">
				<NormDiscrete field="raca" value="cocker_spaniel"/>
			</DerivedField>
			<DerivedField name="float(raca=cocker_spaniel)" optype="continuous" dataType="float">
				<FieldRef field="raca=cocker_spaniel"/>
			</DerivedField>
			<DerivedField name="raca=dachshund" optype="continuous" dataType="double">
				<NormDiscrete field="raca" value="dachshund"/>
			</DerivedField>
			<DerivedField name="float(raca=dachshund)" optype="continuous" dataType="float">
				<FieldRef field="raca=dachshund"/>
			</DerivedField>
			<DerivedField name="raca=dachshund_(salsicha)" optype="continuous" dataType="double">
				<NormDiscrete field="raca" value="dachshund_(salsicha)"/>
			</DerivedField>
			<DerivedField name="float(raca=dachshund_(salsicha))" optype="continuous" dataType="float">
				<FieldRef field="raca=dachshund_(salsicha)"/>
			</DerivedField>
			<DerivedField name="raca=dalmata" optype="continuous" dataType="double">
				<NormDiscrete field="raca" value="dalmata"/>
			</DerivedField>
			<DerivedField name="float(raca=dalmata)" optype="continuous" dataType="float">
				<FieldRef field="raca=dalmata"/>
			</DerivedField>
			<DerivedField name="raca=doberman" optype="continuous" dataType="double">
				<NormDiscrete field="raca" value="doberman"/>
			</DerivedField>
			<DerivedField name="float(raca=doberman)" optype="continuous" dataType="float">
				<FieldRef field="raca=doberman"/>
			</DerivedField>
			<DerivedField name="raca=golden_retriever" optype="continuous" dataType="double">
				<NormDiscrete field="raca" value="golden_retriever"/>
			</DerivedField>
			<DerivedField name="float(raca=golden_retriever)" optype="continuous" dataType="float">
				<FieldRef field="raca=golden_retriever"/>
			</DerivedField>
			<DerivedField name="raca=husky" optype="continuous" dataType="double">
				<NormDiscrete field="raca" value="husky"/>
			</DerivedField>
			<DerivedField name="float(raca=husky)" optype="continuous" dataType="float">
				<FieldRef field="raca=husky"/>
			</DerivedField>
			<DerivedField name="raca=husky_siberiano" optype="continuous" dataType="double">
				<NormDiscrete field="raca" value="husky_siberiano"/>
			</DerivedField>
			<DerivedField name="float(raca=husky_siberiano)" optype="continuous" dataType="float">
				<FieldRef field="raca=husky_siberiano"/>
			</DerivedField>
			<DerivedField name="raca=labrador" optype="continuous" dataType="double">
				<NormDiscrete field="raca" value="labrador"/>
			</DerivedField>
			<DerivedField name="float(raca=labrador)" optype="continuous" dataType="float">
				<FieldRef field="raca=labrador"/>
			</DerivedField>
			<DerivedField name="raca=labrador_retriever" optype="continuous" dataType="double">
				<NormDiscrete field="raca" value="labrador_retriever"/>
			</DerivedField>
			<DerivedField name="float(raca=labrador_retriever)" optype="continuous" dataType="float">
				<FieldRef field="raca=labrador_retriever"/>
			</DerivedField>
			<DerivedField name="raca=maine_coon" optype="continuous" dataType="double">
				<NormDiscrete field="raca" value="maine_coon"/>
			</DerivedField>
			<DerivedField name="float(raca=maine_coon)" optype="continuous" dataType="float">
				<FieldRef field="raca=maine_coon"/>
			</DerivedField>
			<DerivedField name="raca=maltes" optype="continuous" dataType="double">
				<NormDiscrete field="raca" value="maltes"/>
			</DerivedField>
			<DerivedField name="float(raca=maltes)" optype="continuous" dataType="float">
				<FieldRef field="raca=maltes"/>
			</DerivedField>
			<DerivedField name="raca=manx" optype="continuous" dataType="double">
				<NormDiscrete field="raca" value="manx"/>
			</DerivedField>
			<DerivedField name="float(raca=manx)" optype="continuous" dataType="float">
				<FieldRef field="raca=manx"/>
			</DerivedField>
			<DerivedField name="raca=pastor_alemao" optype="continuous" dataType="double">
				<NormDiscrete field="raca" value="pastor_alemao"/>
			</DerivedField>
			<DerivedField name="float(raca=pastor_alemao)" optype="continuous" dataType="float">
				<FieldRef field="raca=pastor_alemao"/>
			</DerivedField>
			<DerivedField name="raca=persa" optype="continuous" dataType="double">
				<NormDiscrete field="raca" value="persa"/>
			</DerivedField>
			<DerivedField name="float(raca=persa)" optype="continuous" dataType="float">
				<FieldRef field="raca=persa"/>
			</DerivedField>
			<DerivedField name="raca=pit_bull" optype="continuous" dataType="double">
				<NormDiscrete field="raca" value="pit_bull"/>
			</DerivedField>
			<DerivedField name="float(raca=pit_bull)" optype="continuous" dataType="float">
				<FieldRef field="raca=pit_bull"/>
			</DerivedField>
			<DerivedField name="raca=poodle" optype="continuous" dataType="double">
				<NormDiscrete field="raca" value="poodle"/>
			</DerivedField>
			<DerivedField name="float(raca=poodle)" optype="continuous" dataType="float">
				<FieldRef field="raca=poodle"/>
			</DerivedField>
			<DerivedField name="raca=pug" optype="continuous" dataType="double">
				<NormDiscrete field="raca" value="pug"/>
			</DerivedField>
			<DerivedField name="float(raca=pug)" optype="continuous" dataType="float">
				<FieldRef field="raca=pug"/>
			</DerivedField>
			<DerivedField name="raca=ragdoll" optype="continuous" dataType="double">
				<NormDiscrete field="raca" value="ragdoll"/>
			</DerivedField>
			<DerivedField name="float(raca=ragdoll)" optype="continuous" dataType="float">
				<FieldRef field="raca=ragdoll"/>
			</DerivedField>
			<DerivedField name="raca=rottweiler" optype="continuous" dataType="double">
				<NormDiscrete field="raca" value="rottweiler"/>
			</DerivedField>
			<DerivedField name="float(raca=rottweiler)" optype="continuous" dataType="float">
				<FieldRef field="raca=rottweiler"/>
			</DerivedField>
			<DerivedField name="raca=scottish_fold" optype="continuous" dataType="double">
				<NormDiscrete field="raca" value="scottish_fold"/>
			</DerivedField>
			<DerivedField name="float(raca=scottish_fold)" optype="continuous" dataType="float">
				<FieldRef field="raca=scottish_fold"/>
			</DerivedField>
			<DerivedField name="raca=sem_raca_definida" optype="continuous" dataType="double">
				<NormDiscrete field="raca" value="sem_raca_definida"/>
			</DerivedField>
			<DerivedField name="float(raca=sem_raca_definida)" optype="continuous" dataType="float">
				<FieldRef field="raca=sem_raca_definida"/>
			</DerivedField>
			<DerivedField name="raca=sem_raca_definida_(srd)" optype="continuous" dataType="double">
				<NormDiscrete field="raca" value="sem_raca_definida_(srd)"/>
			</DerivedField>
			<DerivedField name="float(raca=sem_raca_definida_(srd))" optype="continuous" dataType="float">
				<FieldRef field="raca=sem_raca_definida_(srd)"/>
			</DerivedField>
			<DerivedField name="raca=shih_tzu" optype="continuous" dataType="double">
				<NormDiscrete field="raca" value="shih_tzu"/>
			</DerivedField>
			<DerivedField name="float(raca=shih_tzu)" optype="continuous" dataType="float">
				<FieldRef field="raca=shih_tzu"/>
			</DerivedField>
			<DerivedField name="raca=siames" optype="continuous" dataType="double">
				<NormDiscrete field="raca" value="siames"/>
			</DerivedField>
			<DerivedField name="float(raca=siames)" optype="continuous" dataType="float">
				<FieldRef field="raca=siames"/>
			</DerivedField>
			<DerivedField name="raca=siberiano" optype="continuous" dataType="double">
				<NormDiscrete field="raca" value="siberiano"/>
			</DerivedField>
			<DerivedField name="float(raca=siberiano)" optype="continuous" dataType="float">
				<FieldRef field="raca=siberiano"/>
			</DerivedField>
			<DerivedField name="raca=sphynx" optype="continuous" dataType="double">
				<NormDiscrete field="raca" value="sphynx"/>
			</DerivedField>
			<DerivedField name="float(raca=sphynx)" optype="continuous" dataType="float">
				<FieldRef field="raca=sphynx"/>
			</DerivedField>
			<DerivedField name="raca=yorkshire" optype="continuous" dataType="double">
				<NormDiscrete field="raca" value="yorkshire"/>
			</DerivedField>
			<DerivedField name="float(raca=yorkshire)" optype="continuous" dataType="float">
				<FieldRef field="raca=yorkshire"/>
			</DerivedField>
		</LocalTransformations>
		<TrainingInstances isTransformed="true">
			<InstanceFields>
				<InstanceField field="classe_doenca" column="data:y"/>
				<InstanceField field="float(standardScaler(idade))" column="data:x1"/>
				<InstanceField field="float(standardScaler(genero))" column="data:x2"/>
				<InstanceField field="float(standardScaler(peso))" column="data:x3"/>
				<InstanceField field="float(standardScaler(duracao))" column="data:x4"/>
				<InstanceField field="float(standardScaler(perda_de_apetite))" column="data:x5"/>
				<InstanceField field="float(standardScaler(vomito))" column="data:x6"/>
				<InstanceField field="float(standardScaler(diarreia))" column="data:x7"/>
				<InstanceField field="float(standardScaler(tosse))" column="data:x8"/>
				<InstanceField field="float(standardScaler(dificuldade_para_respirar))" column="data:x9"/>
				<InstanceField field="float(standardScaler(dificuldade_para_locomover))" column="data:x10"/>
				<InstanceField field="float(standardScaler(problemas_na_pele))" column="data:x11"/>
				<InstanceField field="float(standardScaler(secrecao_nasal))" column="data:x12"/>
				<InstanceField field="float(standardScaler(secrecao_ocular))" column="data:x13"/>
				<InstanceField field="float(standardScaler(batimento_cardiaco))" column="data:x14"/>
				<InstanceField field="float(standardScaler(agitacao))" column="data:x15"/>
				<InstanceField field="float(standardScaler(andar_em_circulos))" column="data:x16"/>
				<InstanceField field="float(aumento_apetite)" column="data:x17"/>
				<InstanceField field="float(standardScaler(cera_excessiva_nas_orelhas))" column="data:x18"/>
				<InstanceField field="float(standardScaler(coceira))" column="data:x19"/>
				<InstanceField field="float(standardScaler(desidratacao))" column="data:x20"/>
				<InstanceField field="float(standardScaler(desmaio))" column="data:x21"/>
				<InstanceField field="float(standardScaler(dificuldade_para_urinar))" column="data:x22"/>
				<InstanceField field="float(standardScaler(dor))" column="data:x23"/>
				<InstanceField field="float(espamos_musculares)" column="data:x24"/>
				<InstanceField field="float(standardScaler(espirros))" column="data:x25"/>
				<InstanceField field="float(standardScaler(febre))" column="data:x26"/>
				<InstanceField field="float(standardScaler(fraqueza))" column="data:x27"/>
				<InstanceField field="float(standardScaler(inchaco))" column="data:x28"/>
				<InstanceField field="float(standardScaler(lambedura))" column="data:x29"/>
				<InstanceField field="float(standardScaler(letargia))" column="data:x30"/>
				<InstanceField field="float(standardScaler(lingua_azulada))" column="data:x31"/>
				<InstanceField field="float(standardScaler(perda_de_pelos))" column="data:x32"/>
				<InstanceField field="float(standardScaler(perda_de_peso))" column="data:x33"/>
				<InstanceField field="float(ranger_de_dentes)" column="data:x34"/>
				<InstanceField field="float(standardScaler(ronco))" column="data:x35"/>
				<InstanceField field="float(salivacao)" column="data:x36"/>
				<InstanceField field="float(suor_alterado)" column="data:x37"/>
				<InstanceField field="float(tipo_do_animal=cachorro)" column="data:x38"/>
				<InstanceField field="float(tipo_do_animal=gato)" column="data:x39"/>
				<InstanceField field="float(raca=abissinio)" column="data:x40"/>
				<InstanceField field="float(raca=azul_russo)" column="data:x41"/>
				<InstanceField field="float(raca=beagle)" column="data:x42"/>
				<InstanceField field="float(raca=bengal)" column="data:x43"/>
				<InstanceField field="float(raca=border_collie)" column="data:x44"/>
				<InstanceField field="float(raca=boxer)" column="data:x45"/>
				<InstanceField field="float(raca=britanico)" column="data:x46"/>
				<InstanceField field="float(raca=british_shorthair)" column="data:x47"/>
				<InstanceField field="float(raca=buldogue)" column="data:x48"/>
				<InstanceField field="float(raca=buldogue_frances)" column="data:x49"/>
				<InstanceField field="float(raca=burmes)" column="data:x50"/>
				<InstanceField field="float(raca=cavalier_king_charles_spaniel)" column="data:x51"/>
				<InstanceField field="float(raca=chihuahua)" column="data:x52"/>
				<InstanceField field="float(raca=cocker_spaniel)" column="data:x53"/>
				<InstanceField field="float(raca=dachshund)" column="data:x54"/>
				<InstanceField field="float(raca=dachshund_(salsicha))" column="data:x55"/>
				<InstanceField field="float(raca=dalmata)" column="data:x56"/>
				<InstanceField field="float(raca=doberman)" column="data:x57"/>
				<InstanceField field="float(raca=golden_retriever)" column="data:x58"/>
				<InstanceField field="float(raca=husky)" column="data:x59"/>
				<InstanceField field="float(raca=husky_siberiano)" column="data:x60"/>
				<InstanceField field="float(raca=labrador)" column="data:x61"/>
				<InstanceField field="float(raca=labrador_retriever)" column="data:x62"/>
				<InstanceField field="float(raca=maine_coon)" column="data:x63"/>
				<InstanceField field="float(raca=maltes)" column="data:x64"/>
				<InstanceField field="float(raca=manx)" column="data:x65"/>
				<InstanceField field="float(raca=pastor_alemao)" column="data:x66"/>
				<InstanceField field="float(raca=persa)" column="data:x67"/>
				<InstanceField field="float(raca=pit_bull)" column="data:x68"/>
				<InstanceField field="float(raca=poodle)" column="data:x69"/>
				<InstanceField field="float(raca=pug)" column="data:x70"/>
				<InstanceField field="float(raca=ragdoll)" column="data:x71"/>
				<InstanceField field="float(raca=rottweiler)" column="data:x72"/>
				<InstanceField field="float(raca=scottish_fold)" column="data:x73"/>
				<InstanceField field="float(raca=sem_raca_definida)" column="data:x74"/>
				<InstanceField field="float(raca=sem_raca_definida_(srd))" column="data:x75"/>
				<InstanceField field="float(raca=shih_tzu)" column="data:x76"/>
				<InstanceField field="float(raca=siames)" column="data:x77"/>
				<InstanceField field="float(raca=siberiano)" column="data:x78"/>
				<InstanceField field="float(raca=sphynx)" column="data:x79"/>
				<InstanceField field="float(raca=yorkshire)" column="data:x80"/>
			</InstanceFields>
			<InlineTable>
				<row>
					<data:y>cutanea</data:y>
					<data:x1>-0.810421482283573</data:x1>
					<data:x2>0.9261428538697787</data:x2>
					<data:x3>-0.7790735263333043</data:x3>
					<data:x4>0.25507654427135845</data:x4>
					<data:x5>0.9689502715934191</data:x5>
					<data:x6>1.4812982833705526</data:x6>
					<data:x7>-0.3232299675777271</data:x7>
					<data:x8>-0.5007037301160365</data:x8>
					<data:x9>-0.38763264485529714</data:x9>
					<data:x10>-0.47237749297333015</data:x10>
					<data:x11>2.0701966780270626</data:x11>
					<data:x12>-0.38763264485529714</data:x12>
					<data:x13>-0.2833583787413383</data:x13>
					<data:x14>0.7217115105308365</data:x14>
					<data:x15>-0.2643473436074007</data:x15>
					<data:x16>-0.12656344905285888</data:x16>
					<data:x17>0.0</data:x17>
					<data:x18>-0.04751143381455799</data:x18>
					<data:x19>-0.33996748292628837</data:x19>
					<data:x20>-0.2544566789039913</data:x20>
					<data:x21>-0.14383899044561524</data:x21>
					<data:x22>-0.15179418517972906</data:x22>
					<data:x23>-0.3440754413205035</data:x23>
					<data:x24>0.0</data:x24>
					<data:x25>-0.2544566789039913</data:x25>
					<data:x26>-0.6155339044907598</data:x26>
					<data:x27>-0.2055566129482595</data:x27>
					<data:x28>-0.4066378372811135</data:x28>
					<data:x29>-0.13545709229571928</data:x29>
					<data:x30>0.6364458273405842</data:x30>
					<data:x31>-0.04751143381455799</data:x31>
					<data:x32>-0.23904572186687872</data:x32>
					<data:x33>-0.36421567954234185</data:x33>
					<data:x34>0.0</data:x34>
					<data:x35>-0.1593868157780935</data:x35>
					<data:x36>0.0</data:x36>
					<data:x37>0.0</data:x37>
					<data:x38>0.0</data:x38>
					<data:x39>1.0</data:x39>
					<data:x40>0.0</data:x40>
					<data:x41>0.0</data:x41>
					<data:x42>0.0</data:x42>
					<data:x43>0.0</data:x43>
					<data:x44>0.0</data:x44>
					<data:x45>0.0</data:x45>
					<data:x46>0.0</data:x46>
					<data:x47>0.0</data:x47>
					<data:x48>0.0</data:x48>
					<data:x49>0.0</data:x49>
					<data:x50>0.0</data:x50>
					<data:x51>0.0</data:x51>
					<data:x52>0.0</data:x52>
					<data:x53>0.0</data:x53>
					<data:x54>0.0</data:x54>
					<data:x55>0.0</data:x55>
					<data:x56>0.0</data:x56>
					<data:x57>0.0</data:x57>
					<data:x58>0.0</data:x58>
					<data:x59>0.0</data:x59>
					<data:x60>0.0</data:x60>
					<data:x61>0.0</data:x61>
					<data:x62>0.0</data:x62>
					<data:x63>0.0</data:x63>
					<data:x64>0.0</data:x64>
					<data:x65>0.0</data:x65>
					<data:x66>0.0</data:x66>
					<data:x67>0.0</data:x67>
					<data:x68>0.0</data:x68>
					<data:x69>0.0</data:x69>
					<data:x70>0.0</data:x70>
					<data:x71>1.0</data:x71>
					<data:x72>0.0</data:x72>
					<data:x73>0.0</data:x73>
					<data:x74>0.0</data:x74>
					<data:x75>0.0</data:x75>
					<data:x76>0.0</data:x76>
					<data:x77>0.0</data:x77>
					<data:x78>0.0</data:x78>
					<data:x79>0.0</data:x79>
					<data:x80>0.0</data:x80>
				</row>
				<row>
					<data:y>respiratoria</data:y>
					<data:x1>-0.006338492040206607</data:x1>
					<data:x2>0.9261428538697787</data:x2>
					<data:x3>-0.5811852850907487</data:x3>
					<data:x4>-0.739625964631254</data:x4>
					<data:x5>0.9689502715934191</data:x5>
					<data:x6>-0.6750834799623175</data:x6>
					<data:x7>-0.3232299675777271</data:x7>
					<data:x8>1.9971890358561004</data:x8>
					<data:x9>-0.38763264485529714</data:x9>
					<data:x10>-0.47237749297333015</data:x10>
					<data:x11>-0.483045891539648</data:x11>
					<data:x12>-0.38763264485529714</data:x12>
					<data:x13>-0.2833583787413383</data:x13>
					<data:x14>0.2785640749400584</data:x14>
					<data:x15>-0.2643473436074007</data:x15>
					<data:x16>-0.12656344905285888</data:x16>
					<data:x17>0.0</data:x17>
					<data:x18>-0.04751143381455799</data:x18>
					<data:x19>-0.33996748292628837</data:x19>
					<data:x20>-0.2544566789039913</data:x20>
					<data:x21>-0.14383899044561524</data:x21>
					<data:x22>-0.15179418517972906</data:x22>
					<data:x23>-0.3440754413205035</data:x23>
					<data:x24>0.0</data:x24>
					<data:x25>-0.2544566789039913</data:x25>
					<data:x26>1.6246058790657756</data:x26>
					<data:x27>-0.2055566129482595</data:x27>
					<data:x28>-0.4066378372811135</data:x28>
					<data:x29>-0.13545709229571928</data:x29>
					<data:x30>0.6364458273405842</data:x30>
					<data:x31>-0.04751143381455799</data:x31>
					<data:x32>-0.23904572186687872</data:x32>
					<data:x33>-0.36421567954234185</data:x33>
					<data:x34>0.0</data:x34>
					<data:x35>-0.1593868157780935</data:x35>
					<data:x36>0.0</data:x36>
					<data:x37>0.0</data:x37>
					<data:x38>0.0</data:x38>
					<data:x39>1.0</data:x39>
					<data:x40>0.0</data:x40>
					<data:x41>0.0</data:x41>
					<data:x42>0.0</data:x42>
					<data:x43>0.0</data:x43>
					<data:x44>0.0</data:x44>
					<data:x45>0.0</data:x45>
					<data:x46>0.0</data:x46>
					<data:x47>0.0</data:x47>
					<data:x48>0.0</data:x48>
					<data:x49>0.0</data:x49>
					<data:x50>0.0</data:x50>
					<data:x51>0.0</data:x51>
					<data:x52>0.0</data:x52>
					<data:x53>0.0</data:x53>
					<data:x54>0.0</data:x54>
					<data:x55>0.0</data:x55>
					<data:x56>0.0</data:x56>
					<data:x57>0.0</data:x57>
					<data:x58>0.0</data:x58>
					<data:x59>0.0</data:x59>
					<data:x60>0.0</data:x60>
					<data:x61>0.0</data:x61>
					<data:x62>0.0</data:x62>
					<data:x63>1.0</data:x63>
					<data:x64>0.0</data:x64>
					<data:x65>0.0</data:x65>
					<data:x66>0.0</data:x66>
					<data:x67>0.0</data:x67>
					<data:x68>0.0</data:x68>
					<data:x69>0.0</data:x69>
					<data:x70>0.0</data:x70>
					<data:x71>0.0</data:x71>
					<data:x72>0.0</data:x72>
					<data:x73>0.0</data:x73>
					<data:x74>0.0</data:x74>
					<data:x75>0.0</data:x75>
					<data:x76>0.0</data:x76>
					<data:x77>0.0</data:x77>
					<data:x78>0.0</data:x78>
					<data:x79>0.0</data:x79>
					<data:x80>0.0</data:x80>
				</row>
				<row>
					<data:y>respiratoria</data:y>
					<data:x1>-0.4083799871618898</data:x1>
					<data:x2>0.9261428538697787</data:x2>
					<data:x3>-0.9581152684099022</data:x3>
					<data:x4>-0.739625964631254</data:x4>
					<data:x5>-1.032044707883223</data:x5>
					<data:x6>-0.6750834799623175</data:x6>
					<data:x7>-0.3232299675777271</data:x7>
					<data:x8>-0.5007037301160365</data:x8>
					<data:x9>-0.38763264485529714</data:x9>
					<data:x10>-0.47237749297333015</data:x10>
					<data:x11>-0.483045891539648</data:x11>
					<data:x12>2.579762084726633</data:x12>
					<data:x13>3.529099807960304</data:x13>
					<data:x14>0.18993458782190276</data:x14>
					<data:x15>-0.2643473436074007</data:x15>
					<data:x16>-0.12656344905285888</data:x16>
					<data:x17>0.0</data:x17>
					<data:x18>-0.04751143381455799</data:x18>
					<data:x19>-0.33996748292628837</data:x19>
					<data:x20>-0.2544566789039913</data:x20>
					<data:x21>-0.14383899044561524</data:x21>
					<data:x22>-0.15179418517972906</data:x22>
					<data:x23>-0.3440754413205035</data:x23>
					<data:x24>0.0</data:x24>
					<data:x25>3.929942040850532</data:x25>
					<data:x26>-0.6155339044907598</data:x26>
					<data:x27>-0.2055566129482595</data:x27>
					<data:x28>-0.4066378372811135</data:x28>
					<data:x29>-0.13545709229571928</data:x29>
					<data:x30>0.6364458273405842</data:x30>
					<data:x31>-0.04751143381455799</data:x31>
					<data:x32>-0.23904572186687872</data:x32>
					<data:x33>-0.36421567954234185</data:x33>
					<data:x34>0.0</data:x34>
					<data:x35>-0.1593868157780935</data:x35>
					<data:x36>0.0</data:x36>
					<data:x37>0.0</data:x37>
					<data:x38>0.0</data:x38>
					<data:x39>1.0</data:x39>
					<data:x40>0.0</data:x40>
					<data:x41>0.0</data:x41>
					<data:x42>0.0</data:x42>
					<data:x43>0.0</data:x43>
					<data:x44>0.0</data:x44>
					<data:x45>0.0</data:x45>
					<data:x46>0.0</data:x46>
					<data:x47>0.0</data:x47>
					<data:x48>0.0</data:x48>
					<data:x49>0.0</data:x49>
					<data:x50>0.0</data:x50>
					<data:x51>0.0</data:x51>
					<data:x52>0.0</data:x52>
					<data:x53>0.0</data:x53>
					<data:x54>0.0</data:x54>
					<data:x55>0.0</data:x55>
					<data:x56>0.0</data:x56>
					<data:x57>0.0</data:x57>
					<data:x58>0.0</data:x58>
					<data:x59>0.0</data:x59>
					<data:x60>0.0</data:x60>
					<data:x61>0.0</data:x61>
					<data:x62>0.0</data:x62>
					<data:x63>0.0</data:x63>
					<data:x64>0.0</data:x64>
					<data:x65>0.0</data:x65>
					<data:x66>0.0</data:x66>
					<data:x67>0.0</data:x67>
					<data:x68>0.0</data:x68>
					<data:x69>0.0</data:x69>
					<data:x70>0.0</data:x70>
					<data:x71>0.0</data:x71>
					<data:x72>0.0</data:x72>
					<data:x73>1.0</data:x73>
					<data:x74>0.0</data:x74>
					<data:x75>0.0</data:x75>
					<data:x76>0.0</data:x76>
					<data:x77>0.0</data:x77>
					<data:x78>0.0</data:x78>
					<data:x79>0.0</data:x79>
					<data:x80>0.0</data:x80>
				</row>
				<row>
					<data:y>gastrointestinal</data:y>
					<data:x1>-1.6145044725269393</data:x1>
					<data:x2>0.9261428538697787</data:x2>
					<data:x3>-0.11944605552478565</data:x3>
					<data:x4>-0.8817263230459128</data:x4>
					<data:x5>-1.032044707883223</data:x5>
					<data:x6>1.4812982833705526</data:x6>
					<data:x7>3.0937725468153876</data:x7>
					<data:x8>-0.5007037301160365</data:x8>
					<data:x9>-0.38763264485529714</data:x9>
					<data:x10>-0.47237749297333015</data:x10>
					<data:x11>-0.483045891539648</data:x11>
					<data:x12>-0.38763264485529714</data:x12>
					<data:x13>-0.2833583787413383</data:x13>
					<data:x14>-0.16458336065071974</data:x14>
					<data:x15>-0.2643473436074007</data:x15>
					<data:x16>-0.12656344905285888</data:x16>
					<data:x17>0.0</data:x17>
					<data:x18>-0.04751143381455799</data:x18>
					<data:x19>-0.33996748292628837</data:x19>
					<data:x20>3.929942040850532</data:x20>
					<data:x21>-0.14383899044561524</data:x21>
					<data:x22>-0.15179418517972906</data:x22>
					<data:x23>-0.3440754413205035</data:x23>
					<data:x24>0.0</data:x24>
					<data:x25>-0.2544566789039913</data:x25>
					<data:x26>-0.6155339044907598</data:x26>
					<data:x27>-0.2055566129482595</data:x27>
					<data:x28>-0.4066378372811135</data:x28>
					<data:x29>-0.13545709229571928</data:x29>
					<data:x30>0.6364458273405842</data:x30>
					<data:x31>-0.04751143381455799</data:x31>
					<data:x32>-0.23904572186687872</data:x32>
					<data:x33>-0.36421567954234185</data:x33>
					<data:x34>0.0</data:x34>
					<data:x35>-0.1593868157780935</data:x35>
					<data:x36>0.0</data:x36>
					<data:x37>0.0</data:x37>
					<data:x38>1.0</data:x38>
					<data:x39>0.0</data:x39>
					<data:x40>0.0</data:x40>
					<data:x41>0.0</data:x41>
					<data:x42>0.0</data:x42>
					<data:x43>0.0</data:x43>
					<data:x44>0.0</data:x44>
					<data:x45>0.0</data:x45>
					<data:x46>0.0</data:x46>
					<data:x47>0.0</data:x47>
					<data:x48>0.0</data:x48>
					<data:x49>0.0</data:x49>
					<data:x50>0.0</data:x50>
					<data:x51>0.0</data:x51>
					<data:x52>0.0</data:x52>
					<data:x53>0.0</data:x53>
					<data:x54>0.0</data:x54>
					<data:x55>0.0</data:x55>
					<data:x56>0.0</data:x56>
					<data:x57>0.0</data:x57>
					<data:x58>0.0</data:x58>
					<data:x59>0.0</data:x59>
					<data:x60>0.0</data:x60>
					<data:x61>0.0</data:x61>
					<data:x62>0.0</data:x62>
					<data:x63>0.0</data:x63>
					<data:x64>0.0</data:x64>
					<data:x65>0.0</data:x65>
					<data:x66>0.0</data:x66>
					<data:x67>0.0</data:x67>
					<data:x68>0.0</data:x68>
					<data:x69>0.0</data:x69>
					<data:x70>0.0</data:x70>
					<data:x71>0.0</data:x71>
					<data:x72>0.0</data:x72>
					<data:x73>0.0</data:x73>
					<data:x74>0.0</data:x74>
					<data:x75>1.0</data:x75>
					<data:x76>0.0</data:x76>
					<data:x77>0.0</data:x77>
					<data:x78>0.0</data:x78>
					<data:x79>0.0</data:x79>
					<data:x80>0.0</data:x80>
				</row>
				<row>
					<data:y>urogenital</data:y>
					<data:x1>-0.810421482283573</data:x1>
					<data:x2>-1.0797470345115958</data:x2>
					<data:x3>1.576738869411405</data:x3>
					<data:x4>-0.4554252478019361</data:x4>
					<data:x5>0.9689502715934191</data:x5>
					<data:x6>1.4812982833705526</data:x6>
					<data:x7>-0.3232299675777271</data:x7>
					<data:x8>-0.5007037301160365</data:x8>
					<data:x9>-0.38763264485529714</data:x9>
					<data:x10>-0.47237749297333015</data:x10>
					<data:x11>-0.483045891539648</data:x11>
					<data:x12>-0.38763264485529714</data:x12>
					<data:x13>-0.2833583787413383</data:x13>
					<data:x14>-0.829304514036887</data:x14>
					<data:x15>-0.2643473436074007</data:x15>
					<data:x16>-0.12656344905285888</data:x16>
					<data:x17>0.0</data:x17>
					<data:x18>-0.04751143381455799</data:x18>
					<data:x19>-0.33996748292628837</data:x19>
					<data:x20>-0.2544566789039913</data:x20>
					<data:x21>-0.14383899044561524</data:x21>
					<data:x22>-0.15179418517972906</data:x22>
					<data:x23>-0.3440754413205035</data:x23>
					<data:x24>0.0</data:x24>
					<data:x25>-0.2544566789039913</data:x25>
					<data:x26>1.6246058790657756</data:x26>
					<data:x27>-0.2055566129482595</data:x27>
					<data:x28>-0.4066378372811135</data:x28>
					<data:x29>-0.13545709229571928</data:x29>
					<data:x30>0.6364458273405842</data:x30>
					<data:x31>-0.04751143381455799</data:x31>
					<data:x32>-0.23904572186687872</data:x32>
					<data:x33>-0.36421567954234185</data:x33>
					<data:x34>0.0</data:x34>
					<data:x35>-0.1593868157780935</data:x35>
					<data:x36>0.0</data:x36>
					<data:x37>0.0</data:x37>
					<data:x38>1.0</data:x38>
					<data:x39>0.0</data:x39>
					<data:x40>0.0</data:x40>
					<data:x41>0.0</data:x41>
					<data:x42>0.0</data:x42>
					<data:x43>0.0</data:x43>
					<data:x44>0.0</data:x44>
					<data:x45>0.0</data:x45>
					<data:x46>0.0</data:x46>
					<data:x47>0.0</data:x47>
					<data:x48>0.0</data:x48>
					<data:x49>0.0</data:x49>
					<data:x50>0.0</data:x50>
					<data:x51>0.0</data:x51>
					<data:x52>0.0</data:x52>
					<data:x53>0.0</data:x53>
					<data:x54>0.0</data:x54>
					<data:x55>0.0</data:x55>
					<data:x56>0.0</data:x56>
					<data:x57>0.0</data:x57>
					<data:x58>0.0</data:x58>
					<data:x59>0.0</data:x59>
					<data:x60>0.0</data:x60>
					<data:x61>0.0</data:x61>
					<data:x62>0.0</data:x62>
					<data:x63>0.0</data:x63>
					<data:x64>0.0</data:x64>
					<data:x65>0.0</data:x65>
					<data:x66>0.0</data:x66>
					<data:x67>0.0</data:x67>
					<data:x68>0.0</data:x68>
					<data:x69>0.0</data:x69>
					<data:x70>0.0</data:x70>
					<data:x71>0.0</data:x71>
					<data:x72>1.0</data:x72>
					<data:x73>0.0</data:x73>
					<data:x74>0.0</data:x74>
					<data:x75>0.0</data:x75>
					<data:x76>0.0</data:x76>
					<data:x77>0.0</data:x77>
					<data:x78>0.0</data:x78>
					<data:x79>0.0</data:x79>
					<data:x80>0.0</data:x80>
				</row>
				<row>
					<data:y>cutanea</data:y>
					<data:x1>0.7977444982031597</data:x1>
					<data:x2>0.9261428538697787</data:x2>
					<data:x3>-0.7602270271673466</data:x3>
					<data:x4>0.25507654427135845</data:x4>
					<data:x5>-1.032044707883223</data:x5>
					<data:x6>-0.6750834799623175</data:x6>
					<data:x7>-0.3232299675777271</data:x7>
					<data:x8>-0.5007037301160365</data:x8>
					<data:x9>-0.38763264485529714</data:x9>
					<data:x10>-0.47237749297333015</data:x10>
					<data:x11>2.0701966780270626</data:x11>
					<data:x12>-0.38763264485529714</data:x12>
					<data:x13>-0.2833583787413383</data:x13>
					<data:x14>0.2785640749400584</data:x14>
					<data:x15>-0.2643473436074007</data:x15>
					<data:x16>-0.12656344905285888</data:x16>
					<data:x17>0.0</data:x17>
					<data:x18>-0.04751143381455799</data:x18>
					<data:x19>2.941457787057886</data:x19>
					<data:x20>-0.2544566789039913</data:x20>
					<data:x21>-0.14383899044561524</data:x21>
					<data:x22>-0.15179418517972906</data:x22>
					<data:x23>-0.3440754413205035</data:x23>
					<data:x24>0.0</data:x24>
					<data:x25>-0.2544566789039913</data:x25>
					<data:x26>-0.6155339044907598</data:x26>
					<data:x27>-0.2055566129482595</data:x27>
					<data:x28>-0.4066378372811135</data:x28>
					<data:x29>-0.13545709229571928</data:x29>
					<data:x30>0.6364458273405842</data:x30>
					<data:x31>-0.04751143381455799</data:x31>
					<data:x32>4.183300132670378</data:x32>
					<data:x33>-0.36421567954234185</data:x33>
					<data:x34>0.0</data:x34>
					<data:x35>-0.1593868157780935</data:x35>
					<data:x36>0.0</data:x36>
					<data:x37>0.0</data:x37>
					<data:x38>0.0</data:x38>
					<data:x39>1.0</data:x39>
					<data:x40>0.0</data:x40>
					<data:x41>0.0</data:x41>
					<data:x42>0.0</data:x42>
					<data:x43>0.0</data:x43>
					<data:x44>0.0</data:x44>
					<data:x45>0.0</data:x45>
					<data:x46>0.0</data:x46>
					<data:x47>0.0</data:x47>
					<data:x48>0.0</data:x48>
					<data:x49>0.0</data:x49>
					<data:x50>0.0</data:x50>
					<data:x51>0.0</data:x51>
					<data:x52>0.0</data:x52>
					<data:x53>0.0</data:x53>
					<data:x54>0.0</data:x54>
					<data:x55>0.0</data:x55>
					<data:x56>0.0</data:x56>
					<data:x57>0.0</data:x57>
					<data:x58>0.0</data:x58>
					<data:x59>0.0</data:x59>
					<data:x60>0.0</data:x60>
					<data:x61>0.0</data:x61>
					<data:x62>0.0</data:x62>
					<data:x63>0.0</data:x63>
					<data:x64>0.0</data:x64>
					<data:x65>0.0</data:x65>
					<data:x66>0.0</data:x66>
					<data:x67>0.0</data:x67>
					<data:x68>0.0</data:x68>
					<data:x69>0.0</data:x69>
					<data:x70>0.0</data:x70>
					<data:x71>0.0</data:x71>
					<data:x72>0.0</data:x72>
					<data:x73>0.0</data:x73>
					<data:x74>0.0</data:x74>
					<data:x75>1.0</data:x75>
					<data:x76>0.0</data:x76>
					<data:x77>0.0</data:x77>
					<data:x78>0.0</data:x78>
					<data:x79>0.0</data:x79>
					<data:x80>0.0</data:x80>
				</row>
				<row>
					<data:y>cardiovascular_hematologica</data:y>
					<data:x1>0.3957030030814766</data:x1>
					<data:x2>0.9261428538697787</data:x2>
					<data:x3>0.8228789027730982</data:x3>
					<data:x4>-0.17122453097261828</data:x4>
					<data:x5>-1.032044707883223</data:x5>
					<data:x6>-0.6750834799623175</data:x6>
					<data:x7>-0.3232299675777271</data:x7>
					<data:x8>-0.5007037301160365</data:x8>
					<data:x9>-0.38763264485529714</data:x9>
					<data:x10>2.116950987028628</data:x10>
					<data:x11>2.0701966780270626</data:x11>
					<data:x12>-0.38763264485529714</data:x12>
					<data:x13>-0.2833583787413383</data:x13>
					<data:x14>-1.2724519496276652</data:x14>
					<data:x15>-0.2643473436074007</data:x15>
					<data:x16>-0.12656344905285888</data:x16>
					<data:x17>0.0</data:x17>
					<data:x18>-0.04751143381455799</data:x18>
					<data:x19>-0.33996748292628837</data:x19>
					<data:x20>-0.2544566789039913</data:x20>
					<data:x21>-0.14383899044561524</data:x21>
					<data:x22>-0.15179418517972906</data:x22>
					<data:x23>-0.3440754413205035</data:x23>
					<data:x24>0.0</data:x24>
					<data:x25>-0.2544566789039913</data:x25>
					<data:x26>1.6246058790657756</data:x26>
					<data:x27>-0.2055566129482595</data:x27>
					<data:x28>-0.4066378372811135</data:x28>
					<data:x29>-0.13545709229571928</data:x29>
					<data:x30>0.6364458273405842</data:x30>
					<data:x31>-0.04751143381455799</data:x31>
					<data:x32>-0.23904572186687872</data:x32>
					<data:x33>-0.36421567954234185</data:x33>
					<data:x34>0.0</data:x34>
					<data:x35>-0.1593868157780935</data:x35>
					<data:x36>0.0</data:x36>
					<data:x37>0.0</data:x37>
					<data:x38>1.0</data:x38>
					<data:x39>0.0</data:x39>
					<data:x40>0.0</data:x40>
					<data:x41>0.0</data:x41>
					<data:x42>0.0</data:x42>
					<data:x43>0.0</data:x43>
					<data:x44>0.0</data:x44>
					<data:x45>0.0</data:x45>
					<data:x46>0.0</data:x46>
					<data:x47>0.0</data:x47>
					<data:x48>0.0</data:x48>
					<data:x49>0.0</data:x49>
					<data:x50>0.0</data:x50>
					<data:x51>0.0</data:x51>
					<data:x52>0.0</data:x52>
					<data:x53>0.0</data:x53>
					<data:x54>0.0</data:x54>
					<data:x55>0.0</data:x55>
					<data:x56>0.0</data:x56>
					<data:x57>0.0</data:x57>
					<data:x58>0.0</data:x58>
					<data:x59>0.0</data:x59>
					<data:x60>0.0</data:x60>
					<data:x61>0.0</data:x61>
					<data:x62>0.0</data:x62>
					<data:x63>0.0</data:x63>
					<data:x64>0.0</data:x64>
					<data:x65>0.0</data:x65>
					<data:x66>0.0</data:x66>
					<data:x67>0.0</data:x67>
					<data:x68>0.0</data:x68>
					<data:x69>0.0</data:x69>
					<data:x70>0.0</data:x70>
					<data:x71>0.0</data:x71>
					<data:x72>0.0</data:x72>
					<data:x73>0.0</data:x73>
					<data:x74>0.0</data:x74>
					<data:x75>1.0</data:x75>
					<data:x76>0.0</data:x76>
					<data:x77>0.0</data:x77>
					<data:x78>0.0</data:x78>
					<data:x79>0.0</data:x79>
					<data:x80>0.0</data:x80>
				</row>
				<row>
					<data:y>gastrointestinal</data:y>
					<data:x1>-1.6145044725269393</data:x1>
					<data:x2>0.9261428538697787</data:x2>
					<data:x3>-0.3079110471843624</data:x3>
					<data:x4>-0.8817263230459128</data:x4>
					<data:x5>0.9689502715934191</data:x5>
					<data:x6>1.4812982833705526</data:x6>
					<data:x7>3.0937725468153876</data:x7>
					<data:x8>-0.5007037301160365</data:x8>
					<data:x9>-0.38763264485529714</data:x9>
					<data:x10>-0.47237749297333015</data:x10>
					<data:x11>-0.483045891539648</data:x11>
					<data:x12>-0.38763264485529714</data:x12>
					<data:x13>-0.2833583787413383</data:x13>
					<data:x14>-0.3861570784461088</data:x14>
					<data:x15>-0.2643473436074007</data:x15>
					<data:x16>-0.12656344905285888</data:x16>
					<data:x17>0.0</data:x17>
					<data:x18>-0.04751143381455799</data:x18>
					<data:x19>-0.33996748292628837</data:x19>
					<data:x20>-0.2544566789039913</data:x20>
					<data:x21>-0.14383899044561524</data:x21>
					<data:x22>-0.15179418517972906</data:x22>
					<data:x23>-0.3440754413205035</data:x23>
					<data:x24>0.0</data:x24>
					<data:x25>-0.2544566789039913</data:x25>
					<data:x26>-0.6155339044907598</data:x26>
					<data:x27>-0.2055566129482595</data:x27>
					<data:x28>-0.4066378372811135</data:x28>
					<data:x29>-0.13545709229571928</data:x29>
					<data:x30>0.6364458273405842</data:x30>
					<data:x31>-0.04751143381455799</data:x31>
					<data:x32>-0.23904572186687872</data:x32>
					<data:x33>-0.36421567954234185</data:x33>
					<data:x34>0.0</data:x34>
					<data:x35>-0.1593868157780935</data:x35>
					<data:x36>0.0</data:x36>
					<data:x37>0.0</data:x37>
					<data:x38>1.0</data:x38>
					<data:x39>0.0</data:x39>
					<data:x40>0.0</data:x40>
					<data:x41>0.0</data:x41>
					<data:x42>1.0</data:x42>
					<data:x43>0.0</data:x43>
					<data:x44>0.0</data:x44>
					<data:x45>0.0</data:x45>
					<data:x46>0.0</data:x46>
					<data:x47>0.0</data:x47>
					<data:x48>0.0</data:x48>
					<data:x49>0.0</data:x49>
					<data:x50>0.0</data:x50>
					<data:x51>0.0</data:x51>
					<data:x52>0.0</data:x52>
					<data:x53>0.0</data:x53>
					<data:x54>0.0</data:x54>
					<data:x55>0.0</data:x55>
					<data:x56>0.0</data:x56>
					<data:x57>0.0</data:x57>
					<data:x58>0.0</data:x58>
					<data:x59>0.0</data:x59>
					<data:x60>0.0</data:x60>
					<data:x61>0.0</data:x61>
					<data:x62>0.0</data:x62>
					<data:x63>0.0</data:x63>
					<data:x64>0.0</data:x64>
					<data:x65>0.0</data:x65>
					<data:x66>0.0</data:x66>
					<data:x67>0.0</data:x67>
					<data:x68>0.0</data:x68>
					<data:x69>0.0</data:x69>
					<data:x70>0.0</data:x70>
					<data:x71>0.0</data:x71>
					<data:x72>0.0</data:x72>
					<data:x73>0.0</data:x73>
					<data:x74>0.0</data:x74>
					<data:x75>0.0</data:x75>
					<data:x76>0.0</data:x76>
					<data:x77>0.0</data:x77>
					<data:x78>0.0</data:x78>
					<data:x79>0.0</data:x79>
					<data:x80>0.0</data:x80>
				</row>
				<row>
					<data:y>respiratoria</data:y>
					<data:x1>1.6018274884465262</data:x1>
					<data:x2>-1.0797470345115958</data:x2>
					<data:x3>0.4459489194539446</data:x3>
					<data:x4>-0.17122453097261828</data:x4>
					<data:x5>0.9689502715934191</data:x5>
					<data:x6>-0.6750834799623175</data:x6>
					<data:x7>-0.3232299675777271</data:x7>
					<data:x8>1.9971890358561004</data:x8>
					<data:x9>2.579762084726633</data:x9>
					<data:x10>-0.47237749297333015</data:x10>
					<data:x11>-0.483045891539648</data:x11>
					<data:x12>-0.38763264485529714</data:x12>
					<data:x13>-0.2833583787413383</data:x13>
					<data:x14>-0.9179340011550425</data:x14>
					<data:x15>-0.2643473436074007</data:x15>
					<data:x16>-0.12656344905285888</data:x16>
					<data:x17>0.0</data:x17>
					<data:x18>-0.04751143381455799</data:x18>
					<data:x19>-0.33996748292628837</data:x19>
					<data:x20>-0.2544566789039913</data:x20>
					<data:x21>-0.14383899044561524</data:x21>
					<data:x22>-0.15179418517972906</data:x22>
					<data:x23>-0.3440754413205035</data:x23>
					<data:x24>0.0</data:x24>
					<data:x25>-0.2544566789039913</data:x25>
					<data:x26>-0.6155339044907598</data:x26>
					<data:x27>-0.2055566129482595</data:x27>
					<data:x28>-0.4066378372811135</data:x28>
					<data:x29>-0.13545709229571928</data:x29>
					<data:x30>0.6364458273405842</data:x30>
					<data:x31>-0.04751143381455799</data:x31>
					<data:x32>-0.23904572186687872</data:x32>
					<data:x33>-0.36421567954234185</data:x33>
					<data:x34>0.0</data:x34>
					<data:x35>-0.1593868157780935</data:x35>
					<data:x36>0.0</data:x36>
					<data:x37>0.0</data:x37>
					<data:x38>1.0</data:x38>
					<data:x39>0.0</data:x39>
					<data:x40>0.0</data:x40>
					<data:x41>0.0</data:x41>
					<data:x42>0.0</data:x42>
					<data:x43>0.0</data:x43>
					<data:x44>0.0</data:x44>
					<data:x45>0.0</data:x45>
					<data:x46>0.0</data:x46>
					<data:x47>0.0</data:x47>
					<data:x48>0.0</data:x48>
					<data:x49>0.0</data:x49>
					<data:x50>0.0</data:x50>
					<data:x51>0.0</data:x51>
					<data:x52>0.0</data:x52>
					<data:x53>0.0</data:x53>
					<data:x54>0.0</data:x54>
					<data:x55>0.0</data:x55>
					<data:x56>0.0</data:x56>
					<data:x57>0.0</data:x57>
					<data:x58>0.0</data:x58>
					<data:x59>0.0</data:x59>
					<data:x60>0.0</data:x60>
					<data:x61>0.0</data:x61>
					<data:x62>0.0</data:x62>
					<data:x63>0.0</data:x63>
					<data:x64>0.0</data:x64>
					<data:x65>0.0</data:x65>
					<data:x66>0.0</data:x66>
					<data:x67>0.0</data:x67>
					<data:x68>0.0</data:x68>
					<data:x69>0.0</data:x69>
					<data:x70>0.0</data:x70>
					<data:x71>0.0</data:x71>
					<data:x72>0.0</data:x72>
					<data:x73>0.0</data:x73>
					<data:x74>0.0</data:x74>
					<data:x75>1.0</data:x75>
					<data:x76>0.0</data:x76>
					<data:x77>0.0</data:x77>
					<data:x78>0.0</data:x78>
					<data:x79>0.0</data:x79>
					<data:x80>0.0</data:x80>
				</row>
				<row>
					<data:y>cutanea</data:y>
					<data:x1>-0.810421482283573</data:x1>
					<data:x2>0.9261428538697787</data:x2>
					<data:x3>-0.7790735263333043</data:x3>
					<data:x4>0.25507654427135845</data:x4>
					<data:x5>0.9689502715934191</data:x5>
					<data:x6>1.4812982833705526</data:x6>
					<data:x7>-0.3232299675777271</data:x7>
					<data:x8>-0.5007037301160365</data:x8>
					<data:x9>-0.38763264485529714</data:x9>
					<data:x10>-0.47237749297333015</data:x10>
					<data:x11>2.0701966780270626</data:x11>
					<data:x12>-0.38763264485529714</data:x12>
					<data:x13>-0.2833583787413383</data:x13>
					<data:x14>0.7217115105308365</data:x14>
					<data:x15>-0.2643473436074007</data:x15>
					<data:x16>-0.12656344905285888</data:x16>
					<data:x17>0.0</data:x17>
					<data:x18>-0.04751143381455799</data:x18>
					<data:x19>-0.33996748292628837</data:x19>
					<data:x20>-0.2544566789039913</data:x20>
					<data:x21>-0.14383899044561524</data:x21>
					<data:x22>-0.15179418517972906</data:x22>
					<data:x23>-0.3440754413205035</data:x23>
					<data:x24>0.0</data:x24>
					<data:x25>-0.2544566789039913</data:x25>
					<data:x26>-0.6155339044907598</data:x26>
					<data:x27>-0.2055566129482595</data:x27>
					<data:x28>-0.4066378372811135</data:x28>
					<data:x29>-0.13545709229571928</data:x29>
					<data:x30>0.6364458273405842</data:x30>
					<data:x31>-0.04751143381455799</data:x31>
					<data:x32>-0.23904572186687872</data:x32>
					<data:x33>-0.36421567954234185</data:x33>
					<data:x34>0.0</data:x34>
					<data:x35>-0.1593868157780935</data:x35>
					<data:x36>0.0</data:x36>
					<data:x37>0.0</data:x37>
					<data:x38>0.0</data:x38>
					<data:x39>1.0</data:x39>
					<data:x40>0.0</data:x40>
					<data:x41>0.0</data:x41>
					<data:x42>0.0</data:x42>
					<data:x43>0.0</data:x43>
					<data:x44>0.0</data:x44>
					<data:x45>0.0</data:x45>
					<data:x46>0.0</data:x46>
					<data:x47>0.0</data:x47>
					<data:x48>0.0</data:x48>
					<data:x49>0.0</data:x49>
					<data:x50>0.0</data:x50>
					<data:x51>0.0</data:x51>
					<data:x52>0.0</data:x52>
					<data:x53>0.0</data:x53>
					<data:x54>0.0</data:x54>
					<data:x55>0.0</data:x55>
					<data:x56>0.0</data:x56>
					<data:x57>0.0</data:x57>
					<data:x58>0.0</data:x58>
					<data:x59>0.0</data:x59>
					<data:x60>0.0</data:x60>
					<data:x61>0.0</data:x61>
					<data:x62>0.0</data:x62>
					<data:x63>0.0</data:x63>
					<data:x64>0.0</data:x64>
					<data:x65>0.0</data:x65>
					<data:x66>0.0</data:x66>
					<data:x67>0.0</data:x67>
					<data:x68>0.0</data:x68>
					<data:x69>0.0</data:x69>
					<data:x70>0.0</data:x70>
					<data:x71>1.0</data:x71>
					<data:x72>0.0</data:x72>
					<data:x73>0.0</data:x73>
					<data:x74>0.0</data:x74>
					<data:x75>0.0</data:x75>
					<data:x76>0.0</data:x76>
					<data:x77>0.0</data:x77>
					<data:x78>0.0</data:x78>
					<data:x79>0.0</data:x79>
					<data:x80>0.0</data:x80>
				</row>
				<row>
					<data:y>cutanea</data:y>
					<data:x1>1.199785993324843</data:x1>
					<data:x2>-1.0797470345115958</data:x2>
					<data:x3>-0.684841030503516</data:x3>
					<data:x4>0.8234779779299941</data:x4>
					<data:x5>-1.032044707883223</data:x5>
					<data:x6>-0.6750834799623175</data:x6>
					<data:x7>-0.3232299675777271</data:x7>
					<data:x8>-0.5007037301160365</data:x8>
					<data:x9>-0.38763264485529714</data:x9>
					<data:x10>-0.47237749297333015</data:x10>
					<data:x11>2.0701966780270626</data:x11>
					<data:x12>-0.38763264485529714</data:x12>
					<data:x13>-0.2833583787413383</data:x13>
					<data:x14>0.5887672798536031</data:x14>
					<data:x15>-0.2643473436074007</data:x15>
					<data:x16>-0.12656344905285888</data:x16>
					<data:x17>0.0</data:x17>
					<data:x18>-0.04751143381455799</data:x18>
					<data:x19>2.941457787057886</data:x19>
					<data:x20>-0.2544566789039913</data:x20>
					<data:x21>-0.14383899044561524</data:x21>
					<data:x22>-0.15179418517972906</data:x22>
					<data:x23>-0.3440754413205035</data:x23>
					<data:x24>0.0</data:x24>
					<data:x25>-0.2544566789039913</data:x25>
					<data:x26>-0.6155339044907598</data:x26>
					<data:x27>-0.2055566129482595</data:x27>
					<data:x28>-0.4066378372811135</data:x28>
					<data:x29>-0.13545709229571928</data:x29>
					<data:x30>0.6364458273405842</data:x30>
					<data:x31>-0.04751143381455799</data:x31>
					<data:x32>4.183300132670378</data:x32>
					<data:x33>-0.36421567954234185</data:x33>
					<data:x34>0.0</data:x34>
					<data:x35>-0.1593868157780935</data:x35>
					<data:x36>0.0</data:x36>
					<data:x37>0.0</data:x37>
					<data:x38>0.0</data:x38>
					<data:x39>1.0</data:x39>
					<data:x40>0.0</data:x40>
					<data:x41>0.0</data:x41>
					<data:x42>0.0</data:x42>
					<data:x43>0.0</data:x43>
					<data:x44>0.0</data:x44>
					<data:x45>0.0</data:x45>
					<data:x46>0.0</data:x46>
					<data:x47>0.0</data:x47>
					<data:x48>0.0</data:x48>
					<data:x49>0.0</data:x49>
					<data:x50>0.0</data:x50>
					<data:x51>0.0</data:x51>
					<data:x52>0.0</data:x52>
					<data:x53>0.0</data:x53>
					<data:x54>0.0</data:x54>
					<data:x55>0.0</data:x55>
					<data:x56>0.0</data:x56>
					<data:x57>0.0</data:x57>
					<data:x58>0.0</data:x58>
					<data:x59>0.0</data:x59>
					<data:x60>0.0</data:x60>
					<data:x61>0.0</data:x61>
					<data:x62>0.0</data:x62>
					<data:x63>0.0</data:x63>
					<data:x64>0.0</data:x64>
					<data:x65>0.0</data:x65>
					<data:x66>0.0</data:x66>
					<data:x67>0.0</data:x67>
					<data:x68>0.0</data:x68>
					<data:x69>0.0</data:x69>
					<data:x70>0.0</data:x70>
					<data:x71>0.0</data:x71>
					<data:x72>0.0</data:x72>
					<data:x73>0.0</data:x73>
					<data:x74>0.0</data:x74>
					<data:x75>1.0</data:x75>
					<data:x76>0.0</data:x76>
					<data:x77>0.0</data:x77>
					<data:x78>0.0</data:x78>
					<data:x79>0.0</data:x79>
					<data:x80>0.0</data:x80>
				</row>
				<row>
					<data:y>gastrointestinal</data:y>
					<data:x1>-0.006338492040206607</data:x1>
					<data:x2>-1.0797470345115958</data:x2>
					<data:x3>2.7075288193688656</data:x3>
					<data:x4>-0.597525606216595</data:x4>
					<data:x5>0.9689502715934191</data:x5>
					<data:x6>1.4812982833705526</data:x6>
					<data:x7>-0.3232299675777271</data:x7>
					<data:x8>1.9971890358561004</data:x8>
					<data:x9>-0.38763264485529714</data:x9>
					<data:x10>-0.47237749297333015</data:x10>
					<data:x11>-0.483045891539648</data:x11>
					<data:x12>-0.38763264485529714</data:x12>
					<data:x13>-0.2833583787413383</data:x13>
					<data:x14>-0.829304514036887</data:x14>
					<data:x15>-0.2643473436074007</data:x15>
					<data:x16>-0.12656344905285888</data:x16>
					<data:x17>0.0</data:x17>
					<data:x18>-0.04751143381455799</data:x18>
					<data:x19>-0.33996748292628837</data:x19>
					<data:x20>-0.2544566789039913</data:x20>
					<data:x21>-0.14383899044561524</data:x21>
					<data:x22>-0.15179418517972906</data:x22>
					<data:x23>-0.3440754413205035</data:x23>
					<data:x24>0.0</data:x24>
					<data:x25>-0.2544566789039913</data:x25>
					<data:x26>-0.6155339044907598</data:x26>
					<data:x27>-0.2055566129482595</data:x27>
					<data:x28>-0.4066378372811135</data:x28>
					<data:x29>-0.13545709229571928</data:x29>
					<data:x30>0.6364458273405842</data:x30>
					<data:x31>-0.04751143381455799</data:x31>
					<data:x32>-0.23904572186687872</data:x32>
					<data:x33>-0.36421567954234185</data:x33>
					<data:x34>0.0</data:x34>
					<data:x35>-0.1593868157780935</data:x35>
					<data:x36>0.0</data:x36>
					<data:x37>0.0</data:x37>
					<data:x38>1.0</data:x38>
					<data:x39>0.0</data:x39>
					<data:x40>0.0</data:x40>
					<data:x41>0.0</data:x41>
					<data:x42>0.0</data:x42>
					<data:x43>0.0</data:x43>
					<data:x44>0.0</data:x44>
					<data:x45>0.0</data:x45>
					<data:x46>0.0</data:x46>
					<data:x47>0.0</data:x47>
					<data:x48>0.0</data:x48>
					<data:x49>0.0</data:x49>
					<data:x50>0.0</data:x50>
					<data:x51>0.0</data:x51>
					<data:x52>0.0</data:x52>
					<data:x53>0.0</data:x53>
					<data:x54>0.0</data:x54>
					<data:x55>0.0</data:x55>
					<data:x56>0.0</data:x56>
					<data:x57>0.0</data:x57>
					<data:x58>0.0</data:x58>
					<data:x59>0.0</data:x59>
					<data:x60>0.0</data:x60>
					<data:x61>0.0</data:x61>
					<data:x62>0.0</data:x62>
					<data:x63>0.0</data:x63>
					<data:x64>0.0</data:x64>
					<data:x65>0.0</data:x65>
					<data:x66>0.0</data:x66>
					<data:x67>0.0</data:x67>
					<data:x68>0.0</data:x68>
					<data:x69>0.0</data:x69>
					<data:x70>0.0</data:x70>
					<data:x71>0.0</data:x71>
					<data:x72>1.0</data:x72>
					<data:x73>0.0</data:x73>
					<data:x74>0.0</data:x74>
					<data:x75>0.0</data:x75>
					<data:x76>0.0</data:x76>
					<data:x77>0.0</data:x77>
					<data:x78>0.0</data:x78>
					<data:x79>0.0</data:x79>
					<data:x80>0.0</data:x80>
				</row>
				<row>
					<data:y>nenhuma</data:y>
					<data:x1>-1.6145044725269393</data:x1>
					<data:x2>-1.0797470345115958</data:x2>
					<data:x3>-0.8921525213290504</data:x3>
					<data:x4>-0.17122453097261828</data:x4>
					<data:x5>-1.032044707883223</data:x5>
					<data:x6>-0.6750834799623175</data:x6>
					<data:x7>-0.3232299675777271</data:x7>
					<data:x8>-0.5007037301160365</data:x8>
					<data:x9>-0.38763264485529714</data:x9>
					<data:x10>-0.47237749297333015</data:x10>
					<data:x11>2.0701966780270626</data:x11>
					<data:x12>-0.38763264485529714</data:x12>
					<data:x13>-0.2833583787413383</data:x13>
					<data:x14>2.27272753509856</data:x14>
					<data:x15>-0.2643473436074007</data:x15>
					<data:x16>-0.12656344905285888</data:x16>
					<data:x17>0.0</data:x17>
					<data:x18>-0.04751143381455799</data:x18>
					<data:x19>2.941457787057886</data:x19>
					<data:x20>-0.2544566789039913</data:x20>
					<data:x21>-0.14383899044561524</data:x21>
					<data:x22>-0.15179418517972906</data:x22>
					<data:x23>-0.3440754413205035</data:x23>
					<data:x24>0.0</data:x24>
					<data:x25>-0.2544566789039913</data:x25>
					<data:x26>-0.6155339044907598</data:x26>
					<data:x27>-0.2055566129482595</data:x27>
					<data:x28>-0.4066378372811135</data:x28>
					<data:x29>-0.13545709229571928</data:x29>
					<data:x30>-1.571225636247067</data:x30>
					<data:x31>-0.04751143381455799</data:x31>
					<data:x32>-0.23904572186687872</data:x32>
					<data:x33>-0.36421567954234185</data:x33>
					<data:x34>0.0</data:x34>
					<data:x35>-0.1593868157780935</data:x35>
					<data:x36>0.0</data:x36>
					<data:x37>0.0</data:x37>
					<data:x38>0.0</data:x38>
					<data:x39>1.0</data:x39>
					<data:x40>0.0</data:x40>
					<data:x41>0.0</data:x41>
					<data:x42>0.0</data:x42>
					<data:x43>0.0</data:x43>
					<data:x44>0.0</data:x44>
					<data:x45>0.0</data:x45>
					<data:x46>0.0</data:x46>
					<data:x47>0.0</data:x47>
					<data:x48>0.0</data:x48>
					<data:x49>0.0</data:x49>
					<data:x50>0.0</data:x50>
					<data:x51>0.0</data:x51>
					<data:x52>0.0</data:x52>
					<data:x53>0.0</data:x53>
					<data:x54>0.0</data:x54>
					<data:x55>0.0</data:x55>
					<data:x56>0.0</data:x56>
					<data:x57>0.0</data:x57>
					<data:x58>0.0</data:x58>
					<data:x59>0.0</data:x59>
					<data:x60>0.0</data:x60>
					<data:x61>0.0</data:x61>
					<data:x62>0.0</data:x62>
					<data:x63>0.0</data:x63>
					<data:x64>0.0</data:x64>
					<data:x65>0.0</data:x65>
					<data:x66>0.0</data:x66>
					<data:x67>0.0</data:x67>
					<data:x68>0.0</data:x68>
					<data:x69>0.0</data:x69>
					<data:x70>0.0</data:x70>
					<data:x71>0.0</data:x71>
					<data:x72>0.0</data:x72>
					<data:x73>0.0</data:x73>
					<data:x74>1.0</data:x74>
					<data:x75>0.0</data:x75>
					<data:x76>0.0</data:x76>
					<data:x77>0.0</data:x77>
					<data:x78>0.0</data:x78>
					<data:x79>0.0</data:x79>
					<data:x80>0.0</data:x80>
				</row>
				<row>
					<data:y>neuro_musculoesqueletica</data:y>
					<data:x1>1.199785993324843</data:x1>
					<data:x2>-1.0797470345115958</data:x2>
					<data:x3>0.39883267153905044</data:x3>
					<data:x4>-1.0238266814605717</data:x4>
					<data:x5>-1.032044707883223</data:x5>
					<data:x6>-0.6750834799623175</data:x6>
					<data:x7>-0.3232299675777271</data:x7>
					<data:x8>-0.5007037301160365</data:x8>
					<data:x9>-0.38763264485529714</data:x9>
					<data:x10>2.116950987028628</data:x10>
					<data:x11>-0.483045891539648</data:x11>
					<data:x12>-0.38763264485529714</data:x12>
					<data:x13>-0.2833583787413383</data:x13>
					<data:x14>-1.050878231832276</data:x14>
					<data:x15>-0.2643473436074007</data:x15>
					<data:x16>-0.12656344905285888</data:x16>
					<data:x17>0.0</data:x17>
					<data:x18>-0.04751143381455799</data:x18>
					<data:x19>-0.33996748292628837</data:x19>
					<data:x20>-0.2544566789039913</data:x20>
					<data:x21>-0.14383899044561524</data:x21>
					<data:x22>-0.15179418517972906</data:x22>
					<data:x23>2.906339366047657</data:x23>
					<data:x24>0.0</data:x24>
					<data:x25>-0.2544566789039913</data:x25>
					<data:x26>-0.6155339044907598</data:x26>
					<data:x27>-0.2055566129482595</data:x27>
					<data:x28>2.4591907302238774</data:x28>
					<data:x29>-0.13545709229571928</data:x29>
					<data:x30>0.6364458273405842</data:x30>
					<data:x31>-0.04751143381455799</data:x31>
					<data:x32>-0.23904572186687872</data:x32>
					<data:x33>-0.36421567954234185</data:x33>
					<data:x34>0.0</data:x34>
					<data:x35>-0.1593868157780935</data:x35>
					<data:x36>0.0</data:x36>
					<data:x37>0.0</data:x37>
					<data:x38>1.0</data:x38>
					<data:x39>0.0</data:x39>
					<data:x40>0.0</data:x40>
					<data:x41>0.0</data:x41>
					<data:x42>0.0</data:x42>
					<data:x43>0.0</data:x43>
					<data:x44>0.0</data:x44>
					<data:x45>0.0</data:x45>
					<data:x46>0.0</data:x46>
					<data:x47>0.0</data:x47>
					<data:x48>0.0</data:x48>
					<data:x49>0.0</data:x49>
					<data:x50>0.0</data:x50>
					<data:x51>0.0</data:x51>
					<data:x52>0.0</data:x52>
					<data:x53>0.0</data:x53>
					<data:x54>0.0</data:x54>
					<data:x55>0.0</data:x55>
					<data:x56>0.0</data:x56>
					<data:x57>0.0</data:x57>
					<data:x58>0.0</data:x58>
					<data:x59>0.0</data:x59>
					<data:x60>0.0</data:x60>
					<data:x61>0.0</data:x61>
					<data:x62>0.0</data:x62>
					<data:x63>0.0</data:x63>
					<data:x64>0.0</data:x64>
					<data:x65>0.0</data:x65>
					<data:x66>0.0</data:x66>
					<data:x67>0.0</data:x67>
					<data:x68>0.0</data:x68>
					<data:x69>0.0</data:x69>
					<data:x70>0.0</data:x70>
					<data:x71>0.0</data:x71>
					<data:x72>0.0</data:x72>
					<data:x73>0.0</data:x73>
					<data:x74>0.0</data:x74>
					<data:x75>1.0</data:x75>
					<data:x76>0.0</data:x76>
					<data:x77>0.0</data:x77>
					<data:x78>0.0</data:x78>
					<data:x79>0.0</data:x79>
					<data:x80>0.0</data:x80>
				</row>
				<row>
					<data:y>cutanea</data:y>
					<data:x1>-0.810421482283573</data:x1>
					<data:x2>-1.0797470345115958</data:x2>
					<data:x3>1.576738869411405</data:x3>
					<data:x4>-0.17122453097261828</data:x4>
					<data:x5>-1.032044707883223</data:x5>
					<data:x6>-0.6750834799623175</data:x6>
					<data:x7>-0.3232299675777271</data:x7>
					<data:x8>-0.5007037301160365</data:x8>
					<data:x9>-0.38763264485529714</data:x9>
					<data:x10>2.116950987028628</data:x10>
					<data:x11>2.0701966780270626</data:x11>
					<data:x12>-0.38763264485529714</data:x12>
					<data:x13>-0.2833583787413383</data:x13>
					<data:x14>-1.2724519496276652</data:x14>
					<data:x15>-0.2643473436074007</data:x15>
					<data:x16>-0.12656344905285888</data:x16>
					<data:x17>0.0</data:x17>
					<data:x18>-0.04751143381455799</data:x18>
					<data:x19>-0.33996748292628837</data:x19>
					<data:x20>-0.2544566789039913</data:x20>
					<data:x21>-0.14383899044561524</data:x21>
					<data:x22>-0.15179418517972906</data:x22>
					<data:x23>-0.3440754413205035</data:x23>
					<data:x24>0.0</data:x24>
					<data:x25>-0.2544566789039913</data:x25>
					<data:x26>1.6246058790657756</data:x26>
					<data:x27>-0.2055566129482595</data:x27>
					<data:x28>-0.4066378372811135</data:x28>
					<data:x29>-0.13545709229571928</data:x29>
					<data:x30>0.6364458273405842</data:x30>
					<data:x31>-0.04751143381455799</data:x31>
					<data:x32>-0.23904572186687872</data:x32>
					<data:x33>-0.36421567954234185</data:x33>
					<data:x34>0.0</data:x34>
					<data:x35>-0.1593868157780935</data:x35>
					<data:x36>0.0</data:x36>
					<data:x37>0.0</data:x37>
					<data:x38>1.0</data:x38>
					<data:x39>0.0</data:x39>
					<data:x40>0.0</data:x40>
					<data:x41>0.0</data:x41>
					<data:x42>0.0</data:x42>
					<data:x43>0.0</data:x43>
					<data:x44>0.0</data:x44>
					<data:x45>0.0</data:x45>
					<data:x46>0.0</data:x46>
					<data:x47>0.0</data:x47>
					<data:x48>0.0</data:x48>
					<data:x49>0.0</data:x49>
					<data:x50>0.0</data:x50>
					<data:x51>0.0</data:x51>
					<data:x52>0.0</data:x52>
					<data:x53>0.0</data:x53>
					<data:x54>0.0</data:x54>
					<data:x55>0.0</data:x55>
					<data:x56>0.0</data:x56>
					<data:x57>0.0</data:x57>
					<data:x58>0.0</data:x58>
					<data:x59>0.0</data:x59>
					<data:x60>0.0</data:x60>
					<data:x61>0.0</data:x61>
					<data:x62>0.0</data:x62>
					<data:x63>0.0</data:x63>
					<data:x64>0.0</data:x64>
					<data:x65>0.0</data:x65>
					<data:x66>1.0</data:x66>
					<data:x67>0.0</data:x67>
					<data:x68>0.0</data:x68>
					<data:x69>0.0</data:x69>
					<data:x70>0.0</data:x70>
					<data:x71>0.0</data:x71>
					<data:x72>0.0</data:x72>
					<data:x73>0.0</data:x73>
					<data:x74>0.0</data:x74>
					<data:x75>0.0</data:x75>
					<data:x76>0.0</data:x76>
					<data:x77>0.0</data:x77>
					<data:x78>0.0</data:x78>
					<data:x79>0.0</data:x79>
					<data:x80>0.0</data:x80>
				</row>
				<row>
					<data:y>neuro_musculoesqueletica</data:y>
					<data:x1>2.0038689835682093</data:x1>
					<data:x2>-1.0797470345115958</data:x2>
					<data:x3>0.6344139111135214</data:x3>
					<data:x4>0.8234779779299941</data:x4>
					<data:x5>-1.032044707883223</data:x5>
					<data:x6>-0.6750834799623175</data:x6>
					<data:x7>-0.3232299675777271</data:x7>
					<data:x8>-0.5007037301160365</data:x8>
					<data:x9>-0.38763264485529714</data:x9>
					<data:x10>2.116950987028628</data:x10>
					<data:x11>-0.483045891539648</data:x11>
					<data:x12>-0.38763264485529714</data:x12>
					<data:x13>-0.2833583787413383</data:x13>
					<data:x14>-1.494025667423054</data:x14>
					<data:x15>-0.2643473436074007</data:x15>
					<data:x16>-0.12656344905285888</data:x16>
					<data:x17>0.0</data:x17>
					<data:x18>-0.04751143381455799</data:x18>
					<data:x19>-0.33996748292628837</data:x19>
					<data:x20>-0.2544566789039913</data:x20>
					<data:x21>-0.14383899044561524</data:x21>
					<data:x22>-0.15179418517972906</data:x22>
					<data:x23>2.906339366047657</data:x23>
					<data:x24>0.0</data:x24>
					<data:x25>-0.2544566789039913</data:x25>
					<data:x26>-0.6155339044907598</data:x26>
					<data:x27>-0.2055566129482595</data:x27>
					<data:x28>2.4591907302238774</data:x28>
					<data:x29>-0.13545709229571928</data:x29>
					<data:x30>0.6364458273405842</data:x30>
					<data:x31>-0.04751143381455799</data:x31>
					<data:x32>-0.23904572186687872</data:x32>
					<data:x33>-0.36421567954234185</data:x33>
					<data:x34>0.0</data:x34>
					<data:x35>-0.1593868157780935</data:x35>
					<data:x36>0.0</data:x36>
					<data:x37>0.0</data:x37>
					<data:x38>1.0</data:x38>
					<data:x39>0.0</data:x39>
					<data:x40>0.0</data:x40>
					<data:x41>0.0</data:x41>
					<data:x42>0.0</data:x42>
					<data:x43>0.0</data:x43>
					<data:x44>0.0</data:x44>
					<data:x45>0.0</data:x45>
					<data:x46>0.0</data:x46>
					<data:x47>0.0</data:x47>
					<data:x48>0.0</data:x48>
					<data:x49>0.0</data:x49>
					<data:x50>0.0</data:x50>
					<data:x51>0.0</data:x51>
					<data:x52>0.0</data:x52>
					<data:x53>0.0</data:x53>
					<data:x54>0.0</data:x54>
					<data:x55>0.0</data:x55>
					<data:x56>0.0</data:x56>
					<data:x57>0.0</data:x57>
					<data:x58>0.0</data:x58>
					<data:x59>0.0</data:x59>
					<data:x60>0.0</data:x60>
					<data:x61>0.0</data:x61>
					<data:x62>0.0</data:x62>
					<data:x63>0.0</data:x63>
					<data:x64>0.0</data:x64>
					<data:x65>0.0</data:x65>
					<data:x66>0.0</data:x66>
					<data:x67>0.0</data:x67>
					<data:x68>0.0</data:x68>
					<data:x69>0.0</data:x69>
					<data:x70>0.0</data:x70>
					<data:x71>0.0</data:x71>
					<data:x72>0.0</data:x72>
					<data:x73>0.0</data:x73>
					<data:x74>0.0</data:x74>
					<data:x75>1.0</data:x75>
					<data:x76>0.0</data:x76>
					<data:x77>0.0</data:x77>
					<data:x78>0.0</data:x78>
					<data:x79>0.0</data:x79>
					<data:x80>0.0</data:x80>
				</row>
				<row>
					<data:y>neuro_musculoesqueletica</data:y>
					<data:x1>1.199785993324843</data:x1>
					<data:x2>-1.0797470345115958</data:x2>
					<data:x3>0.39883267153905044</data:x3>
					<data:x4>-1.0238266814605717</data:x4>
					<data:x5>-1.032044707883223</data:x5>
					<data:x6>-0.6750834799623175</data:x6>
					<data:x7>-0.3232299675777271</data:x7>
					<data:x8>-0.5007037301160365</data:x8>
					<data:x9>-0.38763264485529714</data:x9>
					<data:x10>2.116950987028628</data:x10>
					<data:x11>-0.483045891539648</data:x11>
					<data:x12>-0.38763264485529714</data:x12>
					<data:x13>-0.2833583787413383</data:x13>
					<data:x14>-1.050878231832276</data:x14>
					<data:x15>-0.2643473436074007</data:x15>
					<data:x16>-0.12656344905285888</data:x16>
					<data:x17>0.0</data:x17>
					<data:x18>-0.04751143381455799</data:x18>
					<data:x19>-0.33996748292628837</data:x19>
					<data:x20>-0.2544566789039913</data:x20>
					<data:x21>-0.14383899044561524</data:x21>
					<data:x22>-0.15179418517972906</data:x22>
					<data:x23>2.906339366047657</data:x23>
					<data:x24>0.0</data:x24>
					<data:x25>-0.2544566789039913</data:x25>
					<data:x26>-0.6155339044907598</data:x26>
					<data:x27>-0.2055566129482595</data:x27>
					<data:x28>2.4591907302238774</data:x28>
					<data:x29>-0.13545709229571928</data:x29>
					<data:x30>0.6364458273405842</data:x30>
					<data:x31>-0.04751143381455799</data:x31>
					<data:x32>-0.23904572186687872</data:x32>
					<data:x33>-0.36421567954234185</data:x33>
					<data:x34>0.0</data:x34>
					<data:x35>-0.1593868157780935</data:x35>
					<data:x36>0.0</data:x36>
					<data:x37>0.0</data:x37>
					<data:x38>1.0</data:x38>
					<data:x39>0.0</data:x39>
					<data:x40>0.0</data:x40>
					<data:x41>0.0</data:x41>
					<data:x42>0.0</data:x42>
					<data:x43>0.0</data:x43>
					<data:x44>0.0</data:x44>
					<data:x45>0.0</data:x45>
					<data:x46>0.0</data:x46>
					<data:x47>0.0</data:x47>
					<data:x48>0.0</data:x48>
					<data:x49>0.0</data:x49>
					<data:x50>0.0</data:x50>
					<data:x51>0.0</data:x51>
					<data:x52>0.0</data:x52>
					<data:x53>0.0</data:x53>
					<data:x54>0.0</data:x54>
					<data:x55>0.0</data:x55>
					<data:x56>0.0</data:x56>
					<data:x57>0.0</data:x57>
					<data:x58>0.0</data:x58>
					<data:x59>0.0</data:x59>
					<data:x60>0.0</data:x60>
					<data:x61>0.0</data:x61>
					<data:x62>0.0</data:x62>
					<data:x63>0.0</data:x63>
					<data:x64>0.0</data:x64>
					<data:x65>0.0</data:x65>
					<data:x66>0.0</data:x66>
					<data:x67>0.0</data:x67>
					<data:x68>0.0</data:x68>
					<data:x69>0.0</data:x69>
					<data:x70>0.0</data:x70>
					<data:x71>0.0</data:x71>
					<data:x72>0.0</data:x72>
					<data:x73>0.0</data:x73>
					<data:x74>0.0</data:x74>
					<data:x75>1.0</data:x75>
					<data:x76>0.0</data:x76>
					<data:x77>0.0</data:x77>
					<data:x78>0.0</data:x78>
					<data:x79>0.0</data:x79>
					<data:x80>0.0</data:x80>
				</row>
				<row>
					<data:y>cutanea</data:y>
					<data:x1>-0.810421482283573</data:x1>
					<data:x2>0.9261428538697787</data:x2>
					<data:x3>-0.7790735263333043</data:x3>
					<data:x4>0.25507654427135845</data:x4>
					<data:x5>0.9689502715934191</data:x5>
					<data:x6>1.4812982833705526</data:x6>
					<data:x7>-0.3232299675777271</data:x7>
					<data:x8>-0.5007037301160365</data:x8>
					<data:x9>-0.38763264485529714</data:x9>
					<data:x10>-0.47237749297333015</data:x10>
					<data:x11>2.0701966780270626</data:x11>
					<data:x12>-0.38763264485529714</data:x12>
					<data:x13>-0.2833583787413383</data:x13>
					<data:x14>0.7217115105308365</data:x14>
					<data:x15>-0.2643473436074007</data:x15>
					<data:x16>-0.12656344905285888</data:x16>
					<data:x17>0.0</data:x17>
					<data:x18>-0.04751143381455799</data:x18>
					<data:x19>-0.33996748292628837</data:x19>
					<data:x20>-0.2544566789039913</data:x20>
					<data:x21>-0.14383899044561524</data:x21>
					<data:x22>-0.15179418517972906</data:x22>
					<data:x23>-0.3440754413205035</data:x23>
					<data:x24>0.0</data:x24>
					<data:x25>-0.2544566789039913</data:x25>
					<data:x26>-0.6155339044907598</data:x26>
					<data:x27>-0.2055566129482595</data:x27>
					<data:x28>-0.4066378372811135</data:x28>
					<data:x29>-0.13545709229571928</data:x29>
					<data:x30>0.6364458273405842</data:x30>
					<data:x31>-0.04751143381455799</data:x31>
					<data:x32>-0.23904572186687872</data:x32>
					<data:x33>-0.36421567954234185</data:x33>
					<data:x34>0.0</data:x34>
					<data:x35>-0.1593868157780935</data:x35>
					<data:x36>0.0</data:x36>
					<data:x37>0.0</data:x37>
					<data:x38>0.0</data:x38>
					<data:x39>1.0</data:x39>
					<data:x40>0.0</data:x40>
					<data:x41>0.0</data:x41>
					<data:x42>0.0</data:x42>
					<data:x43>0.0</data:x43>
					<data:x44>0.0</data:x44>
					<data:x45>0.0</data:x45>
					<data:x46>0.0</data:x46>
					<data:x47>0.0</data:x47>
					<data:x48>0.0</data:x48>
					<data:x49>0.0</data:x49>
					<data:x50>0.0</data:x50>
					<data:x51>0.0</data:x51>
					<data:x52>0.0</data:x52>
					<data:x53>0.0</data:x53>
					<data:x54>0.0</data:x54>
					<data:x55>0.0</data:x55>
					<data:x56>0.0</data:x56>
					<data:x57>0.0</data:x57>
					<data:x58>0.0</data:x58>
					<data:x59>0.0</data:x59>
					<data:x60>0.0</data:x60>
					<data:x61>0.0</data:x61>
					<data:x62>0.0</data:x62>
					<data:x63>0.0</data:x63>
					<data:x64>0.0</data:x64>
					<data:x65>0.0</data:x65>
					<data:x66>0.0</data:x66>
					<data:x67>0.0</data:x67>
					<data:x68>0.0</data:x68>
					<data:x69>0.0</data:x69>
					<data:x70>0.0</data:x70>
					<data:x71>1.0</data:x71>
					<data:x72>0.0</data:x72>
					<data:x73>0.0</data:x73>
					<data:x74>0.0</data:x74>
					<data:x75>0.0</data:x75>
					<data:x76>0.0</data:x76>
					<data:x77>0.0</data:x77>
					<data:x78>0.0</data:x78>
					<data:x79>0.0</data:x79>
					<data:x80>0.0</data:x80>
				</row>
				<row>
					<data:y>respiratoria</data:y>
					<data:x1>1.6018274884465262</data:x1>
					<data:x2>-1.0797470345115958</data:x2>
					<data:x3>1.1998088860922516</data:x3>
					<data:x4>-1.0238266814605717</data:x4>
					<data:x5>-1.032044707883223</data:x5>
					<data:x6>-0.6750834799623175</data:x6>
					<data:x7>-0.3232299675777271</data:x7>
					<data:x8>1.9971890358561004</data:x8>
					<data:x9>2.579762084726633</data:x9>
					<data:x10>-0.47237749297333015</data:x10>
					<data:x11>-0.483045891539648</data:x11>
					<data:x12>-0.38763264485529714</data:x12>
					<data:x13>-0.2833583787413383</data:x13>
					<data:x14>0.056990357144669324</data:x14>
					<data:x15>-0.2643473436074007</data:x15>
					<data:x16>-0.12656344905285888</data:x16>
					<data:x17>0.0</data:x17>
					<data:x18>-0.04751143381455799</data:x18>
					<data:x19>-0.33996748292628837</data:x19>
					<data:x20>-0.2544566789039913</data:x20>
					<data:x21>6.952217871538069</data:x21>
					<data:x22>-0.15179418517972906</data:x22>
					<data:x23>-0.3440754413205035</data:x23>
					<data:x24>0.0</data:x24>
					<data:x25>-0.2544566789039913</data:x25>
					<data:x26>-0.6155339044907598</data:x26>
					<data:x27>-0.2055566129482595</data:x27>
					<data:x28>-0.4066378372811135</data:x28>
					<data:x29>-0.13545709229571928</data:x29>
					<data:x30>-1.571225636247067</data:x30>
					<data:x31>21.04756517984919</data:x31>
					<data:x32>-0.23904572186687872</data:x32>
					<data:x33>-0.36421567954234185</data:x33>
					<data:x34>0.0</data:x34>
					<data:x35>-0.1593868157780935</data:x35>
					<data:x36>0.0</data:x36>
					<data:x37>0.0</data:x37>
					<data:x38>1.0</data:x38>
					<data:x39>0.0</data:x39>
					<data:x40>0.0</data:x40>
