<?xml version="1.0" encoding="UTF-8" standalone="yes"?>
<PMML xmlns="http://www.dmg.org/PMML-4_4" xmlns:data="http://jpmml.org/jpmml-model/InlineTable" version="4.4">
	<Header>
		<Application name="SkLearn2PMML package" version="0.123.1"/>
		<Timestamp>2025-11-12T23:28:08Z</Timestamp>
	</Header>
	<MiningBuildTask>
		<Extension name="repr">PMMLPipeline(steps=[('preprocessor', ColumnTransformer(transformers=[('num', StandardScaler(),
                                 ['idade', 'genero', 'duracao',
                                  'perda_de_apetite', 'vomito', 'diarreia',
                                  'tosse', 'dificuldade_para_respirar',
                                  'dificuldade_para_locomover',
                                  'problemas_na_pele', 'secrecao_nasal',
                                  'secrecao_ocular', 'batimento_cardiaco',
                                  'agitacao', 'andar_em_circulos',
                                  'aumento_apetite',
                                  'cera_excessiva_nas_orelhas', 'coceira',
                                  'desidratacao', 'desmaio',
                                  'dificuldade_para_urinar', 'dor',
                                  'espamos_musculares', 'espirros', 'febre',
                                  'fraqueza', 'inchaco', 'lambedura',
                                  'letargia', 'lingua_azulada', ...]),
                                ('cat',
                                 OneHotEncoder(handle_unknown='ignore',
                                               sparse_output=False),
                                 ['tipo_do_animal', 'raca', 'peso'])])),
       ('model', LinearDiscriminantAnalysis())])</Extension>
	</MiningBuildTask>
	<DataDictionary>
		<DataField name="classe_doenca" optype="categorical" dataType="string">
			<Value value="cardiovascular_hematologica"/>
			<Value value="cutanea"/>
			<Value value="gastrointestinal"/>
			<Value value="nenhuma"/>
			<Value value="neuro_musculoesqueletica"/>
			<Value value="respiratoria"/>
			<Value value="urogenital"/>
		</DataField>
		<DataField name="tipo_do_animal" optype="categorical" dataType="string">
			<Value value="cabra"/>
			<Value value="cachorro"/>
			<Value value="cavalo"/>
			<Value value="coelho"/>
			<Value value="gato"/>
			<Value value="ovelha"/>
			<Value value="porco"/>
			<Value value="vaca"/>
		</DataField>
		<DataField name="raca" optype="categorical" dataType="string">
			<Value value="aberdeen_angus"/>
			<Value value="abissinio"/>
			<Value value="akita"/>
			<Value value="alpina"/>
			<Value value="american_curl"/>
			<Value value="anao_nigeriano"/>
			<Value value="andaluz"/>
			<Value value="angora"/>
			<Value value="angora_ingles"/>
			<Value value="angus"/>
			<Value value="angus_vermelho"/>
			<Value value="appaloosa"/>
			<Value value="arabe"/>
			<Value value="ayrshire"/>
			<Value value="azul_russo"/>
			<Value value="beagle"/>
			<Value value="belga"/>
			<Value value="bengal"/>
			<Value value="berkshire"/>
			<Value value="boer"/>
			<Value value="border_collie"/>
			<Value value="boxer"/>
			<Value value="brahman"/>
			<Value value="britanico"/>
			<Value value="british_shorthair"/>
			<Value value="buldogue"/>
			<Value value="buldogue_frances"/>
			<Value value="burmes"/>
			<Value value="cavalier_king_charles_spaniel"/>
			<Value value="charoles"/>
			<Value value="chester_white"/>
			<Value value="cheviot"/>
			<Value value="chihuahua"/>
			<Value value="clydesdale"/>
			<Value value="cocker_spaniel"/>
			<Value value="corriedale"/>
			<Value value="crioulo"/>
			<Value value="dachshund"/>
			<Value value="dachshund_(salsicha)"/>
			<Value value="dalmata"/>
			<Value value="dexter"/>
			<Value value="doberman"/>
			<Value value="dorper"/>
			<Value value="dorset"/>
			<Value value="duroc"/>
			<Value value="english_lop"/>
			<Value value="finnsheep"/>
			<Value value="galloway_cintada"/>
			<Value value="gigante_de_flandres"/>
			<Value value="golden_retriever"/>
			<Value value="guernsey"/>
			<Value value="hampshire"/>
			<Value value="hereford"/>
			<Value value="himalaio"/>
			<Value value="holandes"/>
			<Value value="holandesa"/>
			<Value value="holland_lop"/>
			<Value value="husky"/>
			<Value value="husky_siberiano"/>
			<Value value="jersey"/>
			<Value value="karakul"/>
			<Value value="kiko"/>
			<Value value="labrador"/>
			<Value value="landrace"/>
			<Value value="large_white"/>
			<Value value="limousin"/>
			<Value value="lincoln"/>
			<Value value="lusitano"/>
			<Value value="maine_coon"/>
			<Value value="maltes"/>
			<Value value="mangalarga"/>
			<Value value="manx"/>
			<Value value="merino"/>
			<Value value="mini_lop"/>
			<Value value="mini_rex"/>
			<Value value="morgan"/>
			<Value value="mustangue"/>
			<Value value="nelore"/>
			<Value value="nubiana"/>
			<Value value="paint_horse"/>
			<Value value="pardo_suico"/>
			<Value value="pastor_alemao"/>
			<Value value="percheron"/>
			<Value value="persa"/>
			<Value value="pietrain"/>
			<Value value="pinto"/>
			<Value value="pit_bull"/>
			<Value value="poland_china"/>
			<Value value="ponei_gales"/>
			<Value value="ponei_shetland"/>
			<Value value="poodle"/>
			<Value value="pug"/>
			<Value value="puro-sangue"/>
			<Value value="puro-sangue_ingles"/>
			<Value value="quarto_de_milha"/>
			<Value value="quarto_de_milha_americano"/>
			<Value value="ragdoll"/>
			<Value value="rambouillet"/>
			<Value value="red_poll"/>
			<Value value="romney"/>
			<Value value="rottweiler"/>
			<Value value="saanen"/>
			<Value value="scottish_fold"/>
			<Value value="sem_raca_definida"/>
			<Value value="sem_raca_definida_(srd)"/>
			<Value value="shih_tzu"/>
			<Value value="shire"/>
			<Value value="shorthorn"/>
			<Value value="siames"/>
			<Value value="siberiano"/>
			<Value value="simental"/>
			<Value value="southdown"/>
			<Value value="sphynx"/>
			<Value value="standardbred"/>
			<Value value="suffolk"/>
			<Value value="tamworth"/>
			<Value value="texel"/>
			<Value value="toggenburg"/>
			<Value value="tunis"/>
			<Value value="wessex_saddleback"/>
			<Value value="yorkshire"/>
			<Value value="yorkshire_terrier"/>
		</DataField>
		<DataField name="idade" optype="continuous" dataType="double"/>
		<DataField name="genero" optype="continuous" dataType="double"/>
		<DataField name="peso" optype="categorical" dataType="string">
			<Value value="1"/>
			<Value value="1.1"/>
			<Value value="1.2"/>
			<Value value="1.3"/>
			<Value value="1.5"/>
			<Value value="1.9"/>
			<Value value="10"/>
			<Value value="100"/>
			<Value value="105"/>
			<Value value="11"/>
			<Value value="110"/>
			<Value value="115"/>
			<Value value="12"/>
			<Value value="120"/>
			<Value value="125"/>
			<Value value="13"/>
			<Value value="130"/>
			<Value value="140"/>
			<Value value="15"/>
			<Value value="150"/>
			<Value value="16"/>
			<Value value="160"/>
			<Value value="17"/>
			<Value value="17.5"/>
			<Value value="18"/>
			<Value value="2"/>
			<Value value="2.1"/>
			<Value value="2.2"/>
			<Value value="2.3"/>
			<Value value="2.4"/>
			<Value value="2.5"/>
			<Value value="2.6"/>
			<Value value="20"/>
			<Value value="22"/>
			<Value value="23"/>
			<Value value="25"/>
			<Value value="26"/>
			<Value value="27"/>
			<Value value="28"/>
			<Value value="3"/>
			<Value value="3,.4"/>
			<Value value="3.0"/>
			<Value value="3.1"/>
			<Value value="3.4"/>
			<Value value="3.5"/>
			<Value value="3.8"/>
			<Value value="30"/>
			<Value value="300"/>
			<Value value="32"/>
			<Value value="33"/>
			<Value value="35"/>
			<Value value="38"/>
			<Value value="4"/>
			<Value value="4.1"/>
			<Value value="4.2"/>
			<Value value="4.5"/>
			<Value value="4.8"/>
			<Value value="40"/>
			<Value value="400"/>
			<Value value="42"/>
			<Value value="45"/>
			<Value value="450"/>
			<Value value="460"/>
			<Value value="480"/>
			<Value value="490"/>
			<Value value="5"/>
			<Value value="5.1"/>
			<Value value="5.2"/>
			<Value value="5.5"/>
			<Value value="5.8"/>
			<Value value="500"/>
			<Value value="510"/>
			<Value value="520"/>
			<Value value="530"/>
			<Value value="540"/>
			<Value value="55"/>
			<Value value="550"/>
			<Value value="560"/>
			<Value value="570"/>
			<Value value="580"/>
			<Value value="590"/>
			<Value value="6"/>
			<Value value="6.1"/>
			<Value value="6.5"/>
			<Value value="60"/>
			<Value value="600"/>
			<Value value="610"/>
			<Value value="620"/>
			<Value value="630"/>
			<Value value="65"/>
			<Value value="650"/>
			<Value value="68"/>
			<Value value="680"/>
			<Value value="7"/>
			<Value value="7.1"/>
			<Value value="7.2"/>
			<Value value="7.5"/>
			<Value value="70"/>
			<Value value="700"/>
			<Value value="72"/>
			<Value value="720"/>
			<Value value="75"/>
			<Value value="750"/>
			<Value value="78"/>
			<Value value="8"/>
			<Value value="80"/>
			<Value value="800"/>
			<Value value="85"/>
			<Value value="850"/>
			<Value value="9"/>
			<Value value="9.1"/>
			<Value value="9.5"/>
			<Value value="90"/>
			<Value value="95"/>
		</DataField>
		<DataField name="duracao" optype="continuous" dataType="double"/>
		<DataField name="perda_de_apetite" optype="continuous" dataType="double"/>
		<DataField name="vomito" optype="continuous" dataType="double"/>
		<DataField name="diarreia" optype="continuous" dataType="double"/>
		<DataField name="tosse" optype="continuous" dataType="double"/>
		<DataField name="dificuldade_para_respirar" optype="continuous" dataType="double"/>
		<DataField name="dificuldade_para_locomover" optype="continuous" dataType="double"/>
		<DataField name="problemas_na_pele" optype="continuous" dataType="double"/>
		<DataField name="secrecao_nasal" optype="continuous" dataType="double"/>
		<DataField name="secrecao_ocular" optype="continuous" dataType="double"/>
		<DataField name="batimento_cardiaco" optype="continuous" dataType="double"/>
		<DataField name="agitacao" optype="continuous" dataType="double"/>
		<DataField name="andar_em_circulos" optype="continuous" dataType="double"/>
		<DataField name="aumento_apetite" optype="continuous" dataType="double"/>
		<DataField name="cera_excessiva_nas_orelhas" optype="continuous" dataType="double"/>
		<DataField name="coceira" optype="continuous" dataType="double"/>
		<DataField name="desidratacao" optype="continuous" dataType="double"/>
		<DataField name="desmaio" optype="continuous" dataType="double"/>
		<DataField name="dificuldade_para_urinar" optype="continuous" dataType="double"/>
		<DataField name="dor" optype="continuous" dataType="double"/>
		<DataField name="espamos_musculares" optype="continuous" dataType="double"/>
		<DataField name="espirros" optype="continuous" dataType="double"/>
		<DataField name="febre" optype="continuous" dataType="double"/>
		<DataField name="fraqueza" optype="continuous" dataType="double"/>
		<DataField name="inchaco" optype="continuous" dataType="double"/>
		<DataField name="lambedura" optype="continuous" dataType="double"/>
		<DataField name="letargia" optype="continuous" dataType="double"/>
		<DataField name="lingua_azulada" optype="continuous" dataType="double"/>
		<DataField name="perda_de_pelos" optype="continuous" dataType="double"/>
		<DataField name="perda_de_peso" optype="continuous" dataType="double"/>
		<DataField name="ranger_de_dentes" optype="continuous" dataType="double"/>
		<DataField name="ronco" optype="continuous" dataType="double"/>
		<DataField name="salivacao" optype="continuous" dataType="double"/>
		<DataField name="suor_alterado" optype="continuous" dataType="double"/>
	</DataDictionary>
	<MiningModel functionName="classification" algorithmName="sklearn.discriminant_analysis.LinearDiscriminantAnalysis">
		<MiningSchema>
			<MiningField name="classe_doenca" usageType="target"/>
			<MiningField name="tipo_do_animal" invalidValueTreatment="asIs"/>
			<MiningField name="raca" invalidValueTreatment="asIs"/>
			<MiningField name="peso" invalidValueTreatment="asIs"/>
			<MiningField name="aumento_apetite"/>
			<MiningField name="espamos_musculares"/>
			<MiningField name="idade"/>
			<MiningField name="genero"/>
			<MiningField name="duracao"/>
			<MiningField name="perda_de_apetite"/>
			<MiningField name="vomito"/>
			<MiningField name="diarreia"/>
			<MiningField name="tosse"/>
			<MiningField name="dificuldade_para_respirar"/>
			<MiningField name="dificuldade_para_locomover"/>
			<MiningField name="problemas_na_pele"/>
			<MiningField name="secrecao_nasal"/>
			<MiningField name="secrecao_ocular"/>
			<MiningField name="batimento_cardiaco"/>
			<MiningField name="agitacao"/>
			<MiningField name="andar_em_circulos"/>
			<MiningField name="cera_excessiva_nas_orelhas"/>
			<MiningField name="coceira"/>
			<MiningField name="desidratacao"/>
			<MiningField name="desmaio"/>
			<MiningField name="dificuldade_para_urinar"/>
			<MiningField name="dor"/>
			<MiningField name="espirros"/>
			<MiningField name="febre"/>
			<MiningField name="fraqueza"/>
			<MiningField name="inchaco"/>
			<MiningField name="lambedura"/>
			<MiningField name="letargia"/>
			<MiningField name="lingua_azulada"/>
			<MiningField name="perda_de_pelos"/>
			<MiningField name="perda_de_peso"/>
			<MiningField name="ranger_de_dentes"/>
			<MiningField name="ronco"/>
			<MiningField name="salivacao"/>
			<MiningField name="suor_alterado"/>
		</MiningSchema>
		<LocalTransformations>
			<DerivedField name="standardScaler(idade)" optype="continuous" dataType="double">
				<Apply function="/">
					<Apply function="-">
						<FieldRef field="idade"/>
						<Constant dataType="double">5.126271186440678</Constant>
					</Apply>
					<Constant dataType="double">2.685520748229248</Constant>
				</Apply>
			</DerivedField>
			<DerivedField name="standardScaler(genero)" optype="continuous" dataType="double">
				<Apply function="/">
					<Apply function="-">
						<FieldRef field="genero"/>
						<Constant dataType="double">0.5279661016949152</Constant>
					</Apply>
					<Constant dataType="double">0.49921728451245523</Constant>
				</Apply>
			</DerivedField>
			<DerivedField name="standardScaler(duracao)" optype="continuous" dataType="double">
				<Apply function="/">
					<Apply function="-">
						<FieldRef field="duracao"/>
						<Constant dataType="double">7.840677966101695</Constant>
					</Apply>
					<Constant dataType="double">6.987764576575981</Constant>
				</Apply>
			</DerivedField>
			<DerivedField name="standardScaler(perda_de_apetite)" optype="continuous" dataType="double">
				<Apply function="/">
					<Apply function="-">
						<FieldRef field="perda_de_apetite"/>
						<Constant dataType="double">0.635593220338983</Constant>
					</Apply>
					<Constant dataType="double">0.48126341913561643</Constant>
				</Apply>
			</DerivedField>
			<DerivedField name="standardScaler(vomito)" optype="continuous" dataType="double">
				<Apply function="/">
					<Apply function="-">
						<FieldRef field="vomito"/>
						<Constant dataType="double">0.27372881355932205</Constant>
					</Apply>
					<Constant dataType="double">0.44587145029338665</Constant>
				</Apply>
			</DerivedField>
			<DerivedField name="standardScaler(diarreia)" optype="continuous" dataType="double">
				<Apply function="/">
					<Apply function="-">
						<FieldRef field="diarreia"/>
						<Constant dataType="double">0.1483050847457627</Constant>
					</Apply>
					<Constant dataType="double">0.35540214769232176</Constant>
				</Apply>
			</DerivedField>
			<DerivedField name="standardScaler(tosse)" optype="continuous" dataType="double">
				<Apply function="/">
					<Apply function="-">
						<FieldRef field="tosse"/>
						<Constant dataType="double">0.2457627118644068</Constant>
					</Apply>
					<Constant dataType="double">0.43053850155527246</Constant>
				</Apply>
			</DerivedField>
			<DerivedField name="standardScaler(dificuldade_para_respirar)" optype="continuous" dataType="double">
				<Apply function="/">
					<Apply function="-">
						<FieldRef field="dificuldade_para_respirar"/>
						<Constant dataType="double">0.11610169491525424</Constant>
					</Apply>
					<Constant dataType="double">0.320346829784625</Constant>
				</Apply>
			</DerivedField>
			<DerivedField name="standardScaler(dificuldade_para_locomover)" optype="continuous" dataType="double">
				<Apply function="/">
					<Apply function="-">
						<FieldRef field="dificuldade_para_locomover"/>
						<Constant dataType="double">0.15338983050847457</Constant>
					</Apply>
					<Constant dataType="double">0.3603628593585305</Constant>
				</Apply>
			</DerivedField>
			<DerivedField name="standardScaler(problemas_na_pele)" optype="continuous" dataType="double">
				<Apply function="/">
					<Apply function="-">
						<FieldRef field="problemas_na_pele"/>
						<Constant dataType="double">0.11186440677966102</Constant>
					</Apply>
					<Constant dataType="double">0.3151995578605648</Constant>
				</Apply>
			</DerivedField>
			<DerivedField name="standardScaler(secrecao_nasal)" optype="continuous" dataType="double">
				<Apply function="/">
					<Apply function="-">
						<FieldRef field="secrecao_nasal"/>
						<Constant dataType="double">0.15084745762711865</Constant>
					</Apply>
					<Constant dataType="double">0.35790012874341537</Constant>
				</Apply>
			</DerivedField>
			<DerivedField name="standardScaler(secrecao_ocular)" optype="continuous" dataType="double">
				<Apply function="/">
					<Apply function="-">
						<FieldRef field="secrecao_ocular"/>
						<Constant dataType="double">0.03728813559322034</Constant>
					</Apply>
					<Constant dataType="double">0.1894669642370457</Constant>
				</Apply>
			</DerivedField>
			<DerivedField name="standardScaler(batimento_cardiaco)" optype="continuous" dataType="double">
				<Apply function="/">
					<Apply function="-">
						<FieldRef field="batimento_cardiaco"/>
						<Constant dataType="double">120.94745762711864</Constant>
					</Apply>
					<Constant dataType="double">33.64390722755519</Constant>
				</Apply>
			</DerivedField>
			<DerivedField name="standardScaler(agitacao)" optype="continuous" dataType="double">
				<Apply function="/">
					<Apply function="-">
						<FieldRef field="agitacao"/>
						<Constant dataType="double">0.06694915254237288</Constant>
					</Apply>
					<Constant dataType="double">0.2499339182988795</Constant>
				</Apply>
			</DerivedField>
			<DerivedField name="standardScaler(andar_em_circulos)" optype="continuous" dataType="double">
				<Apply function="/">
					<Apply function="-">
						<FieldRef field="andar_em_circulos"/>
						<Constant dataType="double">0.005932203389830509</Constant>
					</Apply>
					<Constant dataType="double">0.07679200708909874</Constant>
				</Apply>
			</DerivedField>
			<DerivedField name="standardScaler(cera_excessiva_nas_orelhas)" optype="continuous" dataType="double">
				<Apply function="/">
					<Apply function="-">
						<FieldRef field="cera_excessiva_nas_orelhas"/>
						<Constant dataType="double">0.001694915254237288</Constant>
					</Apply>
					<Constant dataType="double">0.04113444440512406</Constant>
				</Apply>
			</DerivedField>
			<DerivedField name="standardScaler(coceira)" optype="continuous" dataType="double">
				<Apply function="/">
					<Apply function="-">
						<FieldRef field="coceira"/>
						<Constant dataType="double">0.044915254237288135</Constant>
					</Apply>
					<Constant dataType="double">0.20711801991639428</Constant>
				</Apply>
			</DerivedField>
			<DerivedField name="standardScaler(desidratacao)" optype="continuous" dataType="double">
				<Apply function="/">
					<Apply function="-">
						<FieldRef field="desidratacao"/>
						<Constant dataType="double">0.0711864406779661</Constant>
					</Apply>
					<Constant dataType="double">0.25713601720017465</Constant>
				</Apply>
			</DerivedField>
			<DerivedField name="standardScaler(desmaio)" optype="continuous" dataType="double">
				<Apply function="/">
					<Apply function="-">
						<FieldRef field="desmaio"/>
						<Constant dataType="double">0.01864406779661017</Constant>
					</Apply>
					<Constant dataType="double">0.13526443188290693</Constant>
				</Apply>
			</DerivedField>
			<DerivedField name="standardScaler(dificuldade_para_urinar)" optype="continuous" dataType="double">
				<Apply function="/">
					<Apply function="-">
						<FieldRef field="dificuldade_para_urinar"/>
						<Constant dataType="double">0.01864406779661017</Constant>
					</Apply>
					<Constant dataType="double">0.13526443188290693</Constant>
				</Apply>
			</DerivedField>
			<DerivedField name="standardScaler(dor)" optype="continuous" dataType="double">
				<Apply function="/">
					<Apply function="-">
						<FieldRef field="dor"/>
						<Constant dataType="double">0.025423728813559324</Constant>
					</Apply>
					<Constant dataType="double">0.15740826797463311</Constant>
				</Apply>
			</DerivedField>
			<DerivedField name="standardScaler(espirros)" optype="continuous" dataType="double">
				<Apply function="/">
					<Apply function="-">
						<FieldRef field="espirros"/>
						<Constant dataType="double">0.08305084745762711</Constant>
					</Apply>
					<Constant dataType="double">0.27595906253318997</Constant>
				</Apply>
			</DerivedField>
			<DerivedField name="standardScaler(febre)" optype="continuous" dataType="double">
				<Apply function="/">
					<Apply function="-">
						<FieldRef field="febre"/>
						<Constant dataType="double">0.45084745762711864</Constant>
					</Apply>
					<Constant dataType="double">0.4975781622803418</Constant>
				</Apply>
			</DerivedField>
			<DerivedField name="standardScaler(fraqueza)" optype="continuous" dataType="double">
				<Apply function="/">
					<Apply function="-">
						<FieldRef field="fraqueza"/>
						<Constant dataType="double">0.03728813559322034</Constant>
					</Apply>
					<Constant dataType="double">0.1894669642370457</Constant>
				</Apply>
			</DerivedField>
			<DerivedField name="standardScaler(inchaco)" optype="continuous" dataType="double">
				<Apply function="/">
					<Apply function="-">
						<FieldRef field="inchaco"/>
						<Constant dataType="double">0.13813559322033897</Constant>
					</Apply>
					<Constant dataType="double">0.34504224539323297</Constant>
				</Apply>
			</DerivedField>
			<DerivedField name="standardScaler(lambedura)" optype="continuous" dataType="double">
				<Apply function="/">
					<Apply function="-">
						<FieldRef field="lambedura"/>
						<Constant dataType="double">0.009322033898305085</Constant>
					</Apply>
					<Constant dataType="double">0.09609960240450494</Constant>
				</Apply>
			</DerivedField>
			<DerivedField name="standardScaler(letargia)" optype="continuous" dataType="double">
				<Apply function="/">
					<Apply function="-">
						<FieldRef field="letargia"/>
						<Constant dataType="double">0.6237288135593221</Constant>
					</Apply>
					<Constant dataType="double">0.48444935823592805</Constant>
				</Apply>
			</DerivedField>
			<DerivedField name="standardScaler(lingua_azulada)" optype="continuous" dataType="double">
				<Apply function="/">
					<Apply function="-">
						<FieldRef field="lingua_azulada"/>
						<Constant dataType="double">8.47457627118644E-4</Constant>
					</Apply>
					<Constant dataType="double">0.029098787649812535</Constant>
				</Apply>
			</DerivedField>
			<DerivedField name="standardScaler(perda_de_pelos)" optype="continuous" dataType="double">
				<Apply function="/">
					<Apply function="-">
						<FieldRef field="perda_de_pelos"/>
						<Constant dataType="double">0.019491525423728815</Constant>
					</Apply>
					<Constant dataType="double">0.13824473176358273</Constant>
				</Apply>
			</DerivedField>
			<DerivedField name="standardScaler(perda_de_peso)" optype="continuous" dataType="double">
				<Apply function="/">
					<Apply function="-">
						<FieldRef field="perda_de_peso"/>
						<Constant dataType="double">0.1228813559322034</Constant>
					</Apply>
					<Constant dataType="double">0.3283009721223294</Constant>
				</Apply>
			</DerivedField>
			<DerivedField name="standardScaler(ranger_de_dentes)" optype="continuous" dataType="double">
				<Apply function="/">
					<Apply function="-">
						<FieldRef field="ranger_de_dentes"/>
						<Constant dataType="double">0.003389830508474576</Constant>
					</Apply>
					<Constant dataType="double">0.058123485421973715</Constant>
				</Apply>
			</DerivedField>
			<DerivedField name="standardScaler(ronco)" optype="continuous" dataType="double">
				<Apply function="/">
					<Apply function="-">
						<FieldRef field="ronco"/>
						<Constant dataType="double">0.022033898305084745</Constant>
					</Apply>
					<Constant dataType="double">0.1467937520147432</Constant>
				</Apply>
			</DerivedField>
			<DerivedField name="standardScaler(salivacao)" optype="continuous" dataType="double">
				<Apply function="/">
					<Apply function="-">
						<FieldRef field="salivacao"/>
						<Constant dataType="double">0.003389830508474576</Constant>
					</Apply>
					<Constant dataType="double">0.058123485421973715</Constant>
				</Apply>
			</DerivedField>
			<DerivedField name="standardScaler(suor_alterado)" optype="continuous" dataType="double">
				<Apply function="/">
					<Apply function="-">
						<FieldRef field="suor_alterado"/>
						<Constant dataType="double">0.011864406779661017</Constant>
					</Apply>
					<Constant dataType="double">0.10827577121141992</Constant>
				</Apply>
			</DerivedField>
		</LocalTransformations>
		<Segmentation multipleModelMethod="modelChain" missingPredictionTreatment="returnMissing">
			<Segment id="1">
				<True/>
				<RegressionModel functionName="regression">
					<MiningSchema>
						<MiningField name="tipo_do_animal"/>
						<MiningField name="raca"/>
						<MiningField name="peso"/>
						<MiningField name="aumento_apetite"/>
						<MiningField name="espamos_musculares"/>
						<MiningField name="standardScaler(idade)"/>
						<MiningField name="standardScaler(genero)"/>
						<MiningField name="standardScaler(duracao)"/>
						<MiningField name="standardScaler(perda_de_apetite)"/>
						<MiningField name="standardScaler(vomito)"/>
						<MiningField name="standardScaler(diarreia)"/>
						<MiningField name="standardScaler(tosse)"/>
						<MiningField name="standardScaler(dificuldade_para_respirar)"/>
						<MiningField name="standardScaler(dificuldade_para_locomover)"/>
						<MiningField name="standardScaler(problemas_na_pele)"/>
						<MiningField name="standardScaler(secrecao_nasal)"/>
						<MiningField name="standardScaler(secrecao_ocular)"/>
						<MiningField name="standardScaler(batimento_cardiaco)"/>
						<MiningField name="standardScaler(agitacao)"/>
						<MiningField name="standardScaler(andar_em_circulos)"/>
						<MiningField name="standardScaler(cera_excessiva_nas_orelhas)"/>
						<MiningField name="standardScaler(coceira)"/>
						<MiningField name="standardScaler(desidratacao)"/>
						<MiningField name="standardScaler(desmaio)"/>
						<MiningField name="standardScaler(dificuldade_para_urinar)"/>
						<MiningField name="standardScaler(dor)"/>
						<MiningField name="standardScaler(espirros)"/>
						<MiningField name="standardScaler(febre)"/>
						<MiningField name="standardScaler(fraqueza)"/>
						<MiningField name="standardScaler(inchaco)"/>
						<MiningField name="standardScaler(lambedura)"/>
						<MiningField name="standardScaler(letargia)"/>
						<MiningField name="standardScaler(lingua_azulada)"/>
						<MiningField name="standardScaler(perda_de_pelos)"/>
						<MiningField name="standardScaler(perda_de_peso)"/>
						<MiningField name="standardScaler(ranger_de_dentes)"/>
						<MiningField name="standardScaler(ronco)"/>
						<MiningField name="standardScaler(salivacao)"/>
						<MiningField name="standardScaler(suor_alterado)"/>
					</MiningSchema>
					<Output>
						<OutputField name="decisionFunction(cardiovascular_hematologica)" optype="continuous" dataType="double" isFinalResult="false"/>
					</Output>
					<RegressionTable intercept="-23.79344330776778">
						<NumericPredictor name="standardScaler(idade)" coefficient="-1.1933553104959673"/>
						<NumericPredictor name="standardScaler(genero)" coefficient="-0.7520235772613209"/>
						<NumericPredictor name="standardScaler(duracao)" coefficient="-0.7268581601964559"/>
						<NumericPredictor name="standardScaler(perda_de_apetite)" coefficient="9.399083602052388"/>
						<NumericPredictor name="standardScaler(vomito)" coefficient="1.6029182517449136"/>
						<NumericPredictor name="standardScaler(diarreia)" coefficient="5.31597146616088"/>
						<NumericPredictor name="standardScaler(tosse)" coefficient="6.737750498192847"/>
						<NumericPredictor name="standardScaler(dificuldade_para_respirar)" coefficient="5.125078375115514"/>
						<NumericPredictor name="standardScaler(dificuldade_para_locomover)" coefficient="10.293273647549047"/>
						<NumericPredictor name="standardScaler(problemas_na_pele)" coefficient="0.858606997170862"/>
						<NumericPredictor name="standardScaler(secrecao_nasal)" coefficient="4.8300808681595"/>
						<NumericPredictor name="standardScaler(secrecao_ocular)" coefficient="2.3290591668800595"/>
						<NumericPredictor name="standardScaler(batimento_cardiaco)" coefficient="9.88145904831471"/>
						<NumericPredictor name="standardScaler(agitacao)" coefficient="-3.832009682530059"/>
						<NumericPredictor name="standardScaler(andar_em_circulos)" coefficient="0.10407205065178393"/>
						<NumericPredictor name="aumento_apetite" coefficient="-3.338637500175751E-14"/>
						<NumericPredictor name="standardScaler(cera_excessiva_nas_orelhas)" coefficient="0.2845052380994454"/>
						<NumericPredictor name="standardScaler(coceira)" coefficient="0.9736305005913393"/>
						<NumericPredictor name="standardScaler(desidratacao)" coefficient="2.661709924730175"/>
						<NumericPredictor name="standardScaler(desmaio)" coefficient="5.013158355147217"/>
						<NumericPredictor name="standardScaler(dificuldade_para_urinar)" coefficient="-1.2435537292859635"/>
						<NumericPredictor name="standardScaler(dor)" coefficient="1.014719547676004"/>
						<NumericPredictor name="espamos_musculares" coefficient="-8.533193093254538E-15"/>
						<NumericPredictor name="standardScaler(espirros)" coefficient="-4.499266460518639"/>
						<NumericPredictor name="standardScaler(febre)" coefficient="6.462593824413185"/>
						<NumericPredictor name="standardScaler(fraqueza)" coefficient="10.162963796235347"/>
						<NumericPredictor name="standardScaler(inchaco)" coefficient="0.9023178096621831"/>
						<NumericPredictor name="standardScaler(lambedura)" coefficient="-1.746888348081054"/>
						<NumericPredictor name="standardScaler(letargia)" coefficient="7.880947429990266"/>
						<NumericPredictor name="standardScaler(lingua_azulada)" coefficient="-0.27860475587382855"/>
						<NumericPredictor name="standardScaler(perda_de_pelos)" coefficient="1.1300034202087774"/>
						<NumericPredictor name="standardScaler(perda_de_peso)" coefficient="3.9002420506128304"/>
						<NumericPredictor name="standardScaler(ranger_de_dentes)" coefficient="-0.22136325835465226"/>
						<NumericPredictor name="standardScaler(ronco)" coefficient="-1.8836241234478728"/>
						<NumericPredictor name="standardScaler(salivacao)" coefficient="0.030455990039693587"/>
						<NumericPredictor name="standardScaler(suor_alterado)" coefficient="-0.3362621784556428"/>
						<CategoricalPredictor name="tipo_do_animal" value="cabra" coefficient="5.674748197282126"/>
						<CategoricalPredictor name="tipo_do_animal" value="cachorro" coefficient="-10.423639870346511"/>
						<CategoricalPredictor name="tipo_do_animal" value="cavalo" coefficient="19.278772053022628"/>
						<CategoricalPredictor name="tipo_do_animal" value="coelho" coefficient="5.028105924660587"/>
						<CategoricalPredictor name="tipo_do_animal" value="gato" coefficient="3.531003926722081"/>
						<CategoricalPredictor name="tipo_do_animal" value="ovelha" coefficient="-11.071906609536894"/>
						<CategoricalPredictor name="tipo_do_animal" value="porco" coefficient="-9.391042694376086"/>
						<CategoricalPredictor name="tipo_do_animal" value="vaca" coefficient="-7.32491877350843"/>
						<CategoricalPredictor name="raca" value="aberdeen_angus" coefficient="-10.153727989495337"/>
						<CategoricalPredictor name="raca" value="abissinio" coefficient="1.1988757073817498"/>
						<CategoricalPredictor name="raca" value="akita" coefficient="7.4190834796272735"/>
						<CategoricalPredictor name="raca" value="alpina" coefficient="5.90969368634154"/>
						<CategoricalPredictor name="raca" value="american_curl" coefficient="21.82725078831716"/>
						<CategoricalPredictor name="raca" value="anao_nigeriano" coefficient="0.15345578763536571"/>
						<CategoricalPredictor name="raca" value="andaluz" coefficient="-40.27966501600968"/>
						<CategoricalPredictor name="raca" value="angora" coefficient="6.308867576467381"/>
						<CategoricalPredictor name="raca" value="angora_ingles" coefficient="-6.0403140232922246"/>
						<CategoricalPredictor name="raca" value="angus" coefficient="3.465551293891875"/>
						<CategoricalPredictor name="raca" value="angus_vermelho" coefficient="35.506639992969035"/>
						<CategoricalPredictor name="raca" value="appaloosa" coefficient="-16.869820600950543"/>
						<CategoricalPredictor name="raca" value="arabe" coefficient="-21.894469961142914"/>
						<CategoricalPredictor name="raca" value="ayrshire" coefficient="-7.80082725003157"/>
						<CategoricalPredictor name="raca" value="azul_russo" coefficient="5.727150208636638"/>
						<CategoricalPredictor name="raca" value="beagle" coefficient="-5.623049771303195"/>
						<CategoricalPredictor name="raca" value="belga" coefficient="32.31912612726098"/>
						<CategoricalPredictor name="raca" value="bengal" coefficient="16.405896675253047"/>
						<CategoricalPredictor name="raca" value="berkshire" coefficient="-10.700522357693222"/>
						<CategoricalPredictor name="raca" value="boer" coefficient="2.2759442395990104"/>
						<CategoricalPredictor name="raca" value="border_collie" coefficient="-3.468302618113495"/>
						<CategoricalPredictor name="raca" value="boxer" coefficient="-1.1927007181970597"/>
						<CategoricalPredictor name="raca" value="brahman" coefficient="-1.6838106411526261"/>
						<CategoricalPredictor name="raca" value="britanico" coefficient="-6.0291087579593645"/>
						<CategoricalPredictor name="raca" value="british_shorthair" coefficient="-20.37813915506581"/>
						<CategoricalPredictor name="raca" value="buldogue" coefficient="-13.071831379373291"/>
						<CategoricalPredictor name="raca" value="buldogue_frances" coefficient="-9.872798587570557"/>
						<CategoricalPredictor name="raca" value="burmes" coefficient="-32.911767950447754"/>
						<CategoricalPredictor name="raca" value="cavalier_king_charles_spaniel" coefficient="-23.836067160882966"/>
						<CategoricalPredictor name="raca" value="charoles" coefficient="2.9126823690206964"/>
						<CategoricalPredictor name="raca" value="chester_white" coefficient="13.778923107474734"/>
						<CategoricalPredictor name="raca" value="cheviot" coefficient="6.5991877679716415"/>
						<CategoricalPredictor name="raca" value="chihuahua" coefficient="22.877117498714956"/>
						<CategoricalPredictor name="raca" value="clydesdale" coefficient="-26.616882562405422"/>
						<CategoricalPredictor name="raca" value="cocker_spaniel" coefficient="-6.164271075056996"/>
						<CategoricalPredictor name="raca" value="corriedale" coefficient="25.856941106209586"/>
						<CategoricalPredictor name="raca" value="crioulo" coefficient="-8.125579889803637"/>
						<CategoricalPredictor name="raca" value="dachshund" coefficient="-1.775383578547848"/>
						<CategoricalPredictor name="raca" value="dachshund_(salsicha)" coefficient="6.401116601105639"/>
						<CategoricalPredictor name="raca" value="dalmata" coefficient="16.720306612784352"/>
						<CategoricalPredictor name="raca" value="dexter" coefficient="-1.981257994424392"/>
						<CategoricalPredictor name="raca" value="doberman" coefficient="9.229698458533065"/>
						<CategoricalPredictor name="raca" value="dorper" coefficient="2.227860580853102"/>
						<CategoricalPredictor name="raca" value="dorset" coefficient="7.984055296256334"/>
						<CategoricalPredictor name="raca" value="duroc" coefficient="8.729740159326838"/>
						<CategoricalPredictor name="raca" value="english_lop" coefficient="11.899684117673315"/>
						<CategoricalPredictor name="raca" value="finnsheep" coefficient="22.262322747214395"/>
						<CategoricalPredictor name="raca" value="galloway_cintada" coefficient="-0.5728150392636356"/>
						<CategoricalPredictor name="raca" value="gigante_de_flandres" coefficient="2.855939890261459"/>
						<CategoricalPredictor name="raca" value="golden_retriever" coefficient="-0.8065119245699439"/>
						<CategoricalPredictor name="raca" value="guernsey" coefficient="-1.8392575306331627"/>
						<CategoricalPredictor name="raca" value="hampshire" coefficient="7.612289393324841"/>
						<CategoricalPredictor name="raca" value="hereford" coefficient="0.7241349154525192"/>
						<CategoricalPredictor name="raca" value="himalaio" coefficient="40.54815932361876"/>
						<CategoricalPredictor name="raca" value="holandes" coefficient="57.606411440564614"/>
						<CategoricalPredictor name="raca" value="holandesa" coefficient="3.6391147322996265"/>
						<CategoricalPredictor name="raca" value="holland_lop" coefficient="0.14537688529090126"/>
						<CategoricalPredictor name="raca" value="husky" coefficient="1.241803603050619"/>
						<CategoricalPredictor name="raca" value="husky_siberiano" coefficient="48.403732591593986"/>
						<CategoricalPredictor name="raca" value="jersey" coefficient="1.8408004539438438"/>
						<CategoricalPredictor name="raca" value="karakul" coefficient="21.547398921836248"/>
						<CategoricalPredictor name="raca" value="kiko" coefficient="4.458190532080441"/>
						<CategoricalPredictor name="raca" value="labrador" coefficient="0.42775151831545966"/>
						<CategoricalPredictor name="raca" value="landrace" coefficient="7.043304665460966"/>
						<CategoricalPredictor name="raca" value="large_white" coefficient="-4.548457122576451"/>
						<CategoricalPredictor name="raca" value="limousin" coefficient="-4.433490727879651"/>
						<CategoricalPredictor name="raca" value="lincoln" coefficient="30.68260354917231"/>
						<CategoricalPredictor name="raca" value="lusitano" coefficient="-8.93485614565653"/>
						<CategoricalPredictor name="raca" value="maine_coon" coefficient="6.553687312279948"/>
						<CategoricalPredictor name="raca" value="maltes" coefficient="-6.3315043880669775"/>
						<CategoricalPredictor name="raca" value="mangalarga" coefficient="-20.01723718441732"/>
						<CategoricalPredictor name="raca" value="manx" coefficient="36.018129514197355"/>
						<CategoricalPredictor name="raca" value="merino" coefficient="20.87959193728321"/>
						<CategoricalPredictor name="raca" value="mini_lop" coefficient="-25.91234425118182"/>
						<CategoricalPredictor name="raca" value="mini_rex" coefficient="4.314521431338911"/>
						<CategoricalPredictor name="raca" value="morgan" coefficient="-40.2956611813625"/>
						<CategoricalPredictor name="raca" value="mustangue" coefficient="-36.782169417286916"/>
						<CategoricalPredictor name="raca" value="nelore" coefficient="6.152168907626829"/>
						<CategoricalPredictor name="raca" value="nubiana" coefficient="5.348899542390287"/>
						<CategoricalPredictor name="raca" value="paint_horse" coefficient="-19.866141470789053"/>
						<CategoricalPredictor name="raca" value="pardo_suico" coefficient="-1.093547987073675"/>
						<CategoricalPredictor name="raca" value="pastor_alemao" coefficient="-16.481107225760606"/>
						<CategoricalPredictor name="raca" value="percheron" coefficient="19.7897041904765"/>
						<CategoricalPredictor name="raca" value="persa" coefficient="5.1836807901126924"/>
						<CategoricalPredictor name="raca" value="pietrain" coefficient="-5.76421249615959"/>
						<CategoricalPredictor name="raca" value="pinto" coefficient="-25.229352734179727"/>
						<CategoricalPredictor name="raca" value="pit_bull" coefficient="-3.6904760465707587"/>
						<CategoricalPredictor name="raca" value="poland_china" coefficient="18.34185697817304"/>
						<CategoricalPredictor name="raca" value="ponei_gales" coefficient="-25.591209797658415"/>
						<CategoricalPredictor name="raca" value="ponei_shetland" coefficient="-8.549891146158167"/>
						<CategoricalPredictor name="raca" value="poodle" coefficient="-1.5982852796163145"/>
						<CategoricalPredictor name="raca" value="pug" coefficient="0.40117027105546227"/>
						<CategoricalPredictor name="raca" value="puro-sangue" coefficient="-21.159639402833626"/>
						<CategoricalPredictor name="raca" value="puro-sangue_ingles" coefficient="-22.783165497712005"/>
						<CategoricalPredictor name="raca" value="quarto_de_milha" coefficient="-2.9885866472948956"/>
						<CategoricalPredictor name="raca" value="quarto_de_milha_americano" coefficient="-49.08671228645239"/>
						<CategoricalPredictor name="raca" value="ragdoll" coefficient="5.756472329879531"/>
						<CategoricalPredictor name="raca" value="rambouillet" coefficient="5.460872524199822"/>
						<CategoricalPredictor name="raca" value="red_poll" coefficient="55.05557100896398"/>
						<CategoricalPredictor name="raca" value="romney" coefficient="11.60065785129561"/>
						<CategoricalPredictor name="raca" value="rottweiler" coefficient="-3.3226850320214067"/>
						<CategoricalPredictor name="raca" value="saanen" coefficient="11.824695767919883"/>
						<CategoricalPredictor name="raca" value="scottish_fold" coefficient="-20.57311018072112"/>
						<CategoricalPredictor name="raca" value="sem_raca_definida" coefficient="-9.86850034682784"/>
						<CategoricalPredictor name="raca" value="sem_raca_definida_(srd)" coefficient="6.506061094748782"/>
						<CategoricalPredictor name="raca" value="shih_tzu" coefficient="-1.1261717221114875"/>
						<CategoricalPredictor name="raca" value="shire" coefficient="28.497560932345827"/>
						<CategoricalPredictor name="raca" value="shorthorn" coefficient="-2.3998033674695116"/>
						<CategoricalPredictor name="raca" value="siames" coefficient="10.273696194288766"/>
						<CategoricalPredictor name="raca" value="siberiano" coefficient="14.832825890368477"/>
						<CategoricalPredictor name="raca" value="simental" coefficient="1.4046626245342761"/>
						<CategoricalPredictor name="raca" value="southdown" coefficient="-3.890456210459158"/>
						<CategoricalPredictor name="raca" value="sphynx" coefficient="-8.631392438291524"/>
						<CategoricalPredictor name="raca" value="standardbred" coefficient="-25.30316194254704"/>
						<CategoricalPredictor name="raca" value="suffolk" coefficient="15.603747355271997"/>
						<CategoricalPredictor name="raca" value="tamworth" coefficient="6.626261463434072"/>
						<CategoricalPredictor name="raca" value="texel" coefficient="15.186134417909932"/>
						<CategoricalPredictor name="raca" value="toggenburg" coefficient="3.1394502864962694"/>
						<CategoricalPredictor name="raca" value="tunis" coefficient="27.363346434293806"/>
						<CategoricalPredictor name="raca" value="wessex_saddleback" coefficient="22.268187758200693"/>
						<CategoricalPredictor name="raca" value="yorkshire" coefficient="1.1083358987381469"/>
						<CategoricalPredictor name="raca" value="yorkshire_terrier" coefficient="52.54686648935329"/>
						<CategoricalPredictor name="peso" value="1" coefficient="12.266591322893836"/>
						<CategoricalPredictor name="peso" value="1.1" coefficient="6.834769052418947"/>
						<CategoricalPredictor name="peso" value="1.2" coefficient="-4.5318428532445765"/>
						<CategoricalPredictor name="peso" value="1.3" coefficient="-35.481924188268074"/>
						<CategoricalPredictor name="peso" value="1.5" coefficient="-9.583931806567486"/>
						<CategoricalPredictor name="peso" value="1.9" coefficient="-4.1861309437581795"/>
						<CategoricalPredictor name="peso" value="10" coefficient="12.432445806578576"/>
						<CategoricalPredictor name="peso" value="100" coefficient="1.4140916441497053"/>
						<CategoricalPredictor name="peso" value="105" coefficient="-3.9106837042174525"/>
						<CategoricalPredictor name="peso" value="11" coefficient="14.692980347018498"/>
						<CategoricalPredictor name="peso" value="110" coefficient="-2.3938485070986752"/>
						<CategoricalPredictor name="peso" value="115" coefficient="21.754936524065016"/>
						<CategoricalPredictor name="peso" value="12" coefficient="8.086112975051947"/>
						<CategoricalPredictor name="peso" value="120" coefficient="-0.2702488961264838"/>
						<CategoricalPredictor name="peso" value="125" coefficient="0.10151700680491367"/>
						<CategoricalPredictor name="peso" value="13" coefficient="17.871989381876766"/>
						<CategoricalPredictor name="peso" value="130" coefficient="-6.491174865662345"/>
						<CategoricalPredictor name="peso" value="140" coefficient="-1.065491472087829"/>
						<CategoricalPredictor name="peso" value="15" coefficient="2.214149759877349"/>
						<CategoricalPredictor name="peso" value="150" coefficient="-13.643836509703101"/>
						<CategoricalPredictor name="peso" value="16" coefficient="40.89045153893827"/>
						<CategoricalPredictor name="peso" value="160" coefficient="-6.387156169521249"/>
						<CategoricalPredictor name="peso" value="17" coefficient="2.696387054970179"/>
						<CategoricalPredictor name="peso" value="17.5" coefficient="1.049033766416708"/>
						<CategoricalPredictor name="peso" value="18" coefficient="-0.8706119073452073"/>
						<CategoricalPredictor name="peso" value="2" coefficient="-22.165158417472078"/>
						<CategoricalPredictor name="peso" value="2.1" coefficient="-20.153681478117807"/>
						<CategoricalPredictor name="peso" value="2.2" coefficient="-0.7124885747557003"/>
						<CategoricalPredictor name="peso" value="2.3" coefficient="17.777377530303728"/>
						<CategoricalPredictor name="peso" value="2.4" coefficient="9.650982053188612"/>
						<CategoricalPredictor name="peso" value="2.5" coefficient="-10.075910281454105"/>
						<CategoricalPredictor name="peso" value="2.6" coefficient="17.892214562989356"/>
						<CategoricalPredictor name="peso" value="20" coefficient="7.0624218486519315"/>
						<CategoricalPredictor name="peso" value="22" coefficient="26.913988447029045"/>
						<CategoricalPredictor name="peso" value="23" coefficient="12.056996991624395"/>
						<CategoricalPredictor name="peso" value="25" coefficient="9.750453404342375"/>
						<CategoricalPredictor name="peso" value="26" coefficient="-9.574445479539579"/>
						<CategoricalPredictor name="peso" value="27" coefficient="4.196865377707895"/>
						<CategoricalPredictor name="peso" value="28" coefficient="0.2933679154806244"/>
						<CategoricalPredictor name="peso" value="3" coefficient="5.4500714998212665"/>
						<CategoricalPredictor name="peso" value="3,.4" coefficient="52.579401434470014"/>
						<CategoricalPredictor name="peso" value="3.0" coefficient="-18.65170753063743"/>
						<CategoricalPredictor name="peso" value="3.1" coefficient="6.63679820441809"/>
						<CategoricalPredictor name="peso" value="3.4" coefficient="-57.288460456165595"/>
						<CategoricalPredictor name="peso" value="3.5" coefficient="-17.45004042151646"/>
						<CategoricalPredictor name="peso" value="3.8" coefficient="-26.873578045051342"/>
						<CategoricalPredictor name="peso" value="30" coefficient="6.481557233612797"/>
						<CategoricalPredictor name="peso" value="300" coefficient="-8.549891146158318"/>
						<CategoricalPredictor name="peso" value="32" coefficient="33.94257402415506"/>
						<CategoricalPredictor name="peso" value="33" coefficient="5.8072157268656674"/>
						<CategoricalPredictor name="peso" value="35" coefficient="2.6553937374561314"/>
						<CategoricalPredictor name="peso" value="38" coefficient="9.229698458533035"/>
						<CategoricalPredictor name="peso" value="4" coefficient="-21.74020264346268"/>
						<CategoricalPredictor name="peso" value="4.1" coefficient="-2.95864731048177"/>
						<CategoricalPredictor name="peso" value="4.2" coefficient="-15.395143398266518"/>
						<CategoricalPredictor name="peso" value="4.5" coefficient="1.5296912708259134"/>
						<CategoricalPredictor name="peso" value="4.8" coefficient="-0.3456726866244199"/>
						<CategoricalPredictor name="peso" value="40" coefficient="10.332603999532493"/>
						<CategoricalPredictor name="peso" value="400" coefficient="5.003590424597853"/>
						<CategoricalPredictor name="peso" value="42" coefficient="11.513934468003836"/>
						<CategoricalPredictor name="peso" value="45" coefficient="14.93893443092304"/>
						<CategoricalPredictor name="peso" value="450" coefficient="9.429927401382974"/>
						<CategoricalPredictor name="peso" value="460" coefficient="14.76302595160775"/>
						<CategoricalPredictor name="peso" value="480" coefficient="13.670158453202037"/>
						<CategoricalPredictor name="peso" value="490" coefficient="2.9665840617505883"/>
						<CategoricalPredictor name="peso" value="5" coefficient="-24.269763514139434"/>
						<CategoricalPredictor name="peso" value="5.1" coefficient="-26.416726693076825"/>
						<CategoricalPredictor name="peso" value="5.2" coefficient="-12.09280415670134"/>
						<CategoricalPredictor name="peso" value="5.5" coefficient="-16.977240472747884"/>
						<CategoricalPredictor name="peso" value="5.8" coefficient="-5.9947157615228885"/>
						<CategoricalPredictor name="peso" value="500" coefficient="5.586343554574391"/>
						<CategoricalPredictor name="peso" value="510" coefficient="-1.318469703484836"/>
						<CategoricalPredictor name="peso" value="520" coefficient="32.486199224643094"/>
						<CategoricalPredictor name="peso" value="530" coefficient="42.41540220475583"/>
						<CategoricalPredictor name="peso" value="540" coefficient="10.758897132583886"/>
						<CategoricalPredictor name="peso" value="55" coefficient="0.15345578763523926"/>
						<CategoricalPredictor name="peso" value="550" coefficient="18.389108431330715"/>
						<CategoricalPredictor name="peso" value="560" coefficient="4.75328328822235"/>
						<CategoricalPredictor name="peso" value="570" coefficient="9.757194689704617"/>
						<CategoricalPredictor name="peso" value="580" coefficient="10.600383193585136"/>
						<CategoricalPredictor name="peso" value="590" coefficient="11.788281972903436"/>
						<CategoricalPredictor name="peso" value="6" coefficient="-14.39775875414717"/>
						<CategoricalPredictor name="peso" value="6.1" coefficient="-12.105421139659162"/>
						<CategoricalPredictor name="peso" value="6.5" coefficient="1.4502898612458655"/>
						<CategoricalPredictor name="peso" value="60" coefficient="-1.3097144230729614"/>
						<CategoricalPredictor name="peso" value="600" coefficient="13.611835489845186"/>
						<CategoricalPredictor name="peso" value="610" coefficient="13.647905769421342"/>
						<CategoricalPredictor name="peso" value="620" coefficient="15.392065612122416"/>
						<CategoricalPredictor name="peso" value="630" coefficient="23.85233594533107"/>
						<CategoricalPredictor name="peso" value="65" coefficient="-1.9116120701372632"/>
						<CategoricalPredictor name="peso" value="650" coefficient="6.286937260963425"/>
						<CategoricalPredictor name="peso" value="68" coefficient="-4.878551245087561"/>
						<CategoricalPredictor name="peso" value="680" coefficient="-48.21442054176742"/>
						<CategoricalPredictor name="peso" value="7" coefficient="-2.9010677984406485"/>
						<CategoricalPredictor name="peso" value="7.1" coefficient="-30.40824133331705"/>
						<CategoricalPredictor name="peso" value="7.2" coefficient="-17.435797719113634"/>
						<CategoricalPredictor name="peso" value="7.5" coefficient="-33.74605581431368"/>
						<CategoricalPredictor name="peso" value="70" coefficient="-2.3352101996754637"/>
						<CategoricalPredictor name="peso" value="700" coefficient="2.410232010378884"/>
						<CategoricalPredictor name="peso" value="72" coefficient="-7.538379830736484"/>
						<CategoricalPredictor name="peso" value="720" coefficient="13.409770583752687"/>
						<CategoricalPredictor name="peso" value="75" coefficient="-4.489474662566685"/>
						<CategoricalPredictor name="peso" value="750" coefficient="0.19326058437066132"/>
						<CategoricalPredictor name="peso" value="78" coefficient="11.600657851295464"/>
						<CategoricalPredictor name="peso" value="8" coefficient="8.778157423087233"/>
						<CategoricalPredictor name="peso" value="80" coefficient="-1.2799386244581943"/>
						<CategoricalPredictor name="peso" value="800" coefficient="-0.8664793710310449"/>
						<CategoricalPredictor name="peso" value="85" coefficient="-10.809302257182827"/>
						<CategoricalPredictor name="peso" value="850" coefficient="8.795037342529538"/>
						<CategoricalPredictor name="peso" value="9" coefficient="-2.2863656690728154"/>
						<CategoricalPredictor name="peso" value="9.1" coefficient="-31.881302380877763"/>
						<CategoricalPredictor name="peso" value="9.5" coefficient="-4.828750742513848"/>
						<CategoricalPredictor name="peso" value="90" coefficient="2.6428741246165326"/>
						<CategoricalPredictor name="peso" value="95" coefficient="-6.212515532470816"/>
					</RegressionTable>
				</RegressionModel>
			</Segment>
			<Segment id="2">
				<True/>
				<RegressionModel functionName="regression">
					<MiningSchema>
						<MiningField name="tipo_do_animal"/>
						<MiningField name="raca"/>
						<MiningField name="peso"/>
						<MiningField name="aumento_apetite"/>
						<MiningField name="espamos_musculares"/>
						<MiningField name="standardScaler(idade)"/>
						<MiningField name="standardScaler(genero)"/>
						<MiningField name="standardScaler(duracao)"/>
						<MiningField name="standardScaler(perda_de_apetite)"/>
						<MiningField name="standardScaler(vomito)"/>
						<MiningField name="standardScaler(diarreia)"/>
						<MiningField name="standardScaler(tosse)"/>
						<MiningField name="standardScaler(dificuldade_para_respirar)"/>
						<MiningField name="standardScaler(dificuldade_para_locomover)"/>
						<MiningField name="standardScaler(problemas_na_pele)"/>
						<MiningField name="standardScaler(secrecao_nasal)"/>
						<MiningField name="standardScaler(secrecao_ocular)"/>
						<MiningField name="standardScaler(batimento_cardiaco)"/>
						<MiningField name="standardScaler(agitacao)"/>
						<MiningField name="standardScaler(andar_em_circulos)"/>
						<MiningField name="standardScaler(cera_excessiva_nas_orelhas)"/>
						<MiningField name="standardScaler(coceira)"/>
						<MiningField name="standardScaler(desidratacao)"/>
						<MiningField name="standardScaler(desmaio)"/>
						<MiningField name="standardScaler(dificuldade_para_urinar)"/>
						<MiningField name="standardScaler(dor)"/>
						<MiningField name="standardScaler(espirros)"/>
						<MiningField name="standardScaler(febre)"/>
						<MiningField name="standardScaler(fraqueza)"/>
						<MiningField name="standardScaler(inchaco)"/>
						<MiningField name="standardScaler(lambedura)"/>
						<MiningField name="standardScaler(letargia)"/>
						<MiningField name="standardScaler(lingua_azulada)"/>
						<MiningField name="standardScaler(perda_de_pelos)"/>
						<MiningField name="standardScaler(perda_de_peso)"/>
						<MiningField name="standardScaler(ranger_de_dentes)"/>
						<MiningField name="standardScaler(ronco)"/>
						<MiningField name="standardScaler(salivacao)"/>
						<MiningField name="standardScaler(suor_alterado)"/>
					</MiningSchema>
					<Output>
						<OutputField name="decisionFunction(cutanea)" optype="continuous" dataType="double" isFinalResult="false"/>
					</Output>
					<RegressionTable intercept="-65.49694410297907">
						<NumericPredictor name="standardScaler(idade)" coefficient="4.621463947368488"/>
						<NumericPredictor name="standardScaler(genero)" coefficient="2.0745452879017057"/>
						<NumericPredictor name="standardScaler(duracao)" coefficient="0.4512848285043103"/>
						<NumericPredictor name="standardScaler(perda_de_apetite)" coefficient="2.649386149712897"/>
						<NumericPredictor name="standardScaler(vomito)" coefficient="-3.6048614571731727"/>
						<NumericPredictor name="standardScaler(diarreia)" coefficient="2.0622585862857403"/>
						<NumericPredictor name="standardScaler(tosse)" coefficient="4.686176439146466"/>
						<NumericPredictor name="standardScaler(dificuldade_para_respirar)" coefficient="-4.384238554562124"/>
						<NumericPredictor name="standardScaler(dificuldade_para_locomover)" coefficient="-0.6324005079766933"/>
						<NumericPredictor name="standardScaler(problemas_na_pele)" coefficient="36.90951638172523"/>
						<NumericPredictor name="standardScaler(secrecao_nasal)" coefficient="1.6545088056796273"/>
						<NumericPredictor name="standardScaler(secrecao_ocular)" coefficient="-2.4187760576475013"/>
						<NumericPredictor name="standardScaler(batimento_cardiaco)" coefficient="3.3485864258135205"/>
						<NumericPredictor name="standardScaler(agitacao)" coefficient="0.39027111275912635"/>
						<NumericPredictor name="standardScaler(andar_em_circulos)" coefficient="3.6429065661671545"/>
						<NumericPredictor name="aumento_apetite" coefficient="-1.2121378194437124E-14"/>
						<NumericPredictor name="standardScaler(cera_excessiva_nas_orelhas)" coefficient="1.4406457655221607"/>
						<NumericPredictor name="standardScaler(coceira)" coefficient="-12.218307335322638"/>
						<NumericPredictor name="standardScaler(desidratacao)" coefficient="2.77468473223203"/>
						<NumericPredictor name="standardScaler(desmaio)" coefficient="-3.582124377198321"/>
						<NumericPredictor name="standardScaler(dificuldade_para_urinar)" coefficient="-1.4357434364701454"/>
						<NumericPredictor name="standardScaler(dor)" coefficient="0.585163197006416"/>
						<NumericPredictor name="espamos_musculares" coefficient="-1.1369899413821656E-14"/>
						<NumericPredictor name="standardScaler(espirros)" coefficient="2.1752976675648306"/>
						<NumericPredictor name="standardScaler(febre)" coefficient="0.6112459599802267"/>
						<NumericPredictor name="standardScaler(fraqueza)" coefficient="4.483986694136869"/>
						<NumericPredictor name="standardScaler(inchaco)" coefficient="1.0225498830726825"/>
						<NumericPredictor name="standardScaler(lambedura)" coefficient="-2.3132205433719775"/>
						<NumericPredictor name="standardScaler(letargia)" coefficient="6.545902639106691"/>
						<NumericPredictor name="standardScaler(lingua_azulada)" coefficient="0.7692861518777733"/>
						<NumericPredictor name="standardScaler(perda_de_pelos)" coefficient="10.492745896138716"/>
						<NumericPredictor name="standardScaler(perda_de_peso)" coefficient="0.8247725746454702"/>
						<NumericPredictor name="standardScaler(ranger_de_dentes)" coefficient="-0.5771219186304393"/>
						<NumericPredictor name="standardScaler(ronco)" coefficient="6.0750947038486895"/>
						<NumericPredictor name="standardScaler(salivacao)" coefficient="0.24686553619887022"/>
						<NumericPredictor name="standardScaler(suor_alterado)" coefficient="0.054097416521578755"/>
						<CategoricalPredictor name="tipo_do_animal" value="cabra" coefficient="11.52125004387716"/>
						<CategoricalPredictor name="tipo_do_animal" value="cachorro" coefficient="-11.705926394281168"/>
						<CategoricalPredictor name="tipo_do_animal" value="cavalo" coefficient="8.260801600172165"/>
						<CategoricalPredictor name="tipo_do_animal" value="coelho" coefficient="25.18168327397418"/>
						<CategoricalPredictor name="tipo_do_animal" value="gato" coefficient="3.507602432960246"/>
						<CategoricalPredictor name="tipo_do_animal" value="ovelha" coefficient="-28.326203006182194"/>
						<CategoricalPredictor name="tipo_do_animal" value="porco" coefficient="-8.517936498314448"/>
						<CategoricalPredictor name="tipo_do_animal" value="vaca" coefficient="3.0736246355100585"/>
						<CategoricalPredictor name="raca" value="aberdeen_angus" coefficient="-29.48794132102947"/>
						<CategoricalPredictor name="raca" value="abissinio" coefficient="-6.636270466272838"/>
						<CategoricalPredictor name="raca" value="akita" coefficient="8.44989149914228"/>
						<CategoricalPredictor name="raca" value="alpina" coefficient="-9.27326609204109"/>
						<CategoricalPredictor name="raca" value="american_curl" coefficient="-16.977073244861145"/>
						<CategoricalPredictor name="raca" value="anao_nigeriano" coefficient="-5.1367871783438055"/>
						<CategoricalPredictor name="raca" value="andaluz" coefficient="-21.984817463593764"/>
						<CategoricalPredictor name="raca" value="angora" coefficient="26.263947257035355"/>
						<CategoricalPredictor name="raca" value="angora_ingles" coefficient="57.92262235561443"/>
						<CategoricalPredictor name="raca" value="angus" coefficient="-24.5687697466819"/>
						<CategoricalPredictor name="raca" value="angus_vermelho" coefficient="-16.972875133695663"/>
						<CategoricalPredictor name="raca" value="appaloosa" coefficient="-46.470293378936674"/>
						<CategoricalPredictor name="raca" value="arabe" coefficient="-11.11990405118586"/>
						<CategoricalPredictor name="raca" value="ayrshire" coefficient="-31.356938518631107"/>
						<CategoricalPredictor name="raca" value="azul_russo" coefficient="-7.59298503185066"/>
						<CategoricalPredictor name="raca" value="beagle" coefficient="-2.080968115185398"/>
						<CategoricalPredictor name="raca" value="belga" coefficient="-12.391790543766279"/>
						<CategoricalPredictor name="raca" value="bengal" coefficient="-6.752508246814267"/>
						<CategoricalPredictor name="raca" value="berkshire" coefficient="151.48928453891514"/>
						<CategoricalPredictor name="raca" value="boer" coefficient="46.78593634408731"/>
						<CategoricalPredictor name="raca" value="border_collie" coefficient="21.72807208433147"/>
						<CategoricalPredictor name="raca" value="boxer" coefficient="-5.518456944111619"/>
						<CategoricalPredictor name="raca" value="brahman" coefficient="-26.30650189617453"/>
						<CategoricalPredictor name="raca" value="britanico" coefficient="-19.23740239590161"/>
						<CategoricalPredictor name="raca" value="british_shorthair" coefficient="-3.964073782301132"/>
						<CategoricalPredictor name="raca" value="buldogue" coefficient="21.529144585242673"/>
						<CategoricalPredictor name="raca" value="buldogue_frances" coefficient="-21.542891709282845"/>
						<CategoricalPredictor name="raca" value="burmes" coefficient="-23.657133954290984"/>
						<CategoricalPredictor name="raca" value="cavalier_king_charles_spaniel" coefficient="16.92744516112715"/>
						<CategoricalPredictor name="raca" value="charoles" coefficient="-36.307307018563634"/>
						<CategoricalPredictor name="raca" value="chester_white" coefficient="-118.66082634177123"/>
						<CategoricalPredictor name="raca" value="cheviot" coefficient="12.988794610809686"/>
						<CategoricalPredictor name="raca" value="chihuahua" coefficient="2.932775103697598"/>
						<CategoricalPredictor name="raca" value="clydesdale" coefficient="-32.58031755277276"/>
						<CategoricalPredictor name="raca" value="cocker_spaniel" coefficient="3.640935439891232"/>
						<CategoricalPredictor name="raca" value="corriedale" coefficient="1.1417390802018612"/>
						<CategoricalPredictor name="raca" value="crioulo" coefficient="-14.4274489517703"/>
						<CategoricalPredictor name="raca" value="dachshund" coefficient="11.785954093840461"/>
						<CategoricalPredictor name="raca" value="dachshund_(salsicha)" coefficient="19.902332182675824"/>
						<CategoricalPredictor name="raca" value="dalmata" coefficient="1.854584602020676"/>
						<CategoricalPredictor name="raca" value="dexter" coefficient="-19.809624079772036"/>
						<CategoricalPredictor name="raca" value="doberman" coefficient="-15.707590068424103"/>
						<CategoricalPredictor name="raca" value="dorper" coefficient="145.60832676342267"/>
						<CategoricalPredictor name="raca" value="dorset" coefficient="4.264641870216009"/>
						<CategoricalPredictor name="raca" value="duroc" coefficient="-1.0970642134493511"/>
						<CategoricalPredictor name="raca" value="english_lop" coefficient="124.41406256908573"/>
						<CategoricalPredictor name="raca" value="finnsheep" coefficient="44.69855942676104"/>
						<CategoricalPredictor name="raca" value="galloway_cintada" coefficient="-23.68489315278138"/>
						<CategoricalPredictor name="raca" value="gigante_de_flandres" coefficient="-2.699432682521586"/>
						<CategoricalPredictor name="raca" value="golden_retriever" coefficient="-10.230771898708845"/>
						<CategoricalPredictor name="raca" value="guernsey" coefficient="-28.000397619283063"/>
						<CategoricalPredictor name="raca" value="hampshire" coefficient="0.1960626145956824"/>
						<CategoricalPredictor name="raca" value="hereford" coefficient="-33.16396864156413"/>
						<CategoricalPredictor name="raca" value="himalaio" coefficient="-53.41585666653893"/>
						<CategoricalPredictor name="raca" value="holandes" coefficient="-73.55292314072979"/>
						<CategoricalPredictor name="raca" value="holandesa" coefficient="-23.299015662750968"/>
						<CategoricalPredictor name="raca" value="holland_lop" coefficient="-27.159929946272143"/>
						<CategoricalPredictor name="raca" value="husky" coefficient="-2.3531162169465465"/>
						<CategoricalPredictor name="raca" value="husky_siberiano" coefficient="-115.54482191524923"/>
						<CategoricalPredictor name="raca" value="jersey" coefficient="-22.131572460283056"/>
						<CategoricalPredictor name="raca" value="karakul" coefficient="13.11594530521972"/>
						<CategoricalPredictor name="raca" value="kiko" coefficient="2.1733234817653413"/>
						<CategoricalPredictor name="raca" value="labrador" coefficient="4.582517441692802"/>
						<CategoricalPredictor name="raca" value="landrace" coefficient="1.1317359259504423"/>
						<CategoricalPredictor name="raca" value="large_white" coefficient="-13.471355611714205"/>
						<CategoricalPredictor name="raca" value="limousin" coefficient="-32.337862698866445"/>
						<CategoricalPredictor name="raca" value="lincoln" coefficient="-7.8901031214229125"/>
						<CategoricalPredictor name="raca" value="lusitano" coefficient="18.872508941747718"/>
						<CategoricalPredictor name="raca" value="maine_coon" coefficient="0.7492212207646849"/>
						<CategoricalPredictor name="raca" value="maltes" coefficient="-16.936082676375563"/>
						<CategoricalPredictor name="raca" value="mangalarga" coefficient="-6.511686361294807"/>
						<CategoricalPredictor name="raca" value="manx" coefficient="-3.22675990749755"/>
						<CategoricalPredictor name="raca" value="merino" coefficient="47.46653511079497"/>
						<CategoricalPredictor name="raca" value="mini_lop" coefficient="97.49336883617049"/>
						<CategoricalPredictor name="raca" value="mini_rex" coefficient="-37.250486083968845"/>
						<CategoricalPredictor name="raca" value="morgan" coefficient="-14.993985262112622"/>
						<CategoricalPredictor name="raca" value="mustangue" coefficient="-25.1946726138403"/>
						<CategoricalPredictor name="raca" value="nelore" coefficient="-34.77636822535423"/>
						<CategoricalPredictor name="raca" value="nubiana" coefficient="4.6287472554494125"/>
						<CategoricalPredictor name="raca" value="paint_horse" coefficient="-30.685187102062283"/>
						<CategoricalPredictor name="raca" value="pardo_suico" coefficient="-25.267683209788576"/>
						<CategoricalPredictor name="raca" value="pastor_alemao" coefficient="32.153138305035775"/>
						<CategoricalPredictor name="raca" value="percheron" coefficient="-23.746523612633304"/>
						<CategoricalPredictor name="raca" value="persa" coefficient="11.635146642512357"/>
						<CategoricalPredictor name="raca" value="pietrain" coefficient="150.1286973414461"/>
						<CategoricalPredictor name="raca" value="pinto" coefficient="-14.543863030763536"/>
						<CategoricalPredictor name="raca" value="pit_bull" coefficient="5.609163374819243"/>
						<CategoricalPredictor name="raca" value="poland_china" coefficient="3.2677330449792152"/>
						<CategoricalPredictor name="raca" value="ponei_gales" coefficient="-15.831474188927233"/>
						<CategoricalPredictor name="raca" value="ponei_shetland" coefficient="-11.858365153938571"/>
						<CategoricalPredictor name="raca" value="poodle" coefficient="-4.923882142854685"/>
						<CategoricalPredictor name="raca" value="pug" coefficient="0.16021135433122038"/>
						<CategoricalPredictor name="raca" value="puro-sangue" coefficient="-1.937748955968965"/>
						<CategoricalPredictor name="raca" value="puro-sangue_ingles" coefficient="-4.432984073916587"/>
						<CategoricalPredictor name="raca" value="quarto_de_milha" coefficient="-11.013757441336308"/>
						<CategoricalPredictor name="raca" value="quarto_de_milha_americano" coefficient="12.596295671291353"/>
						<CategoricalPredictor name="raca" value="ragdoll" coefficient="11.986001707024679"/>
						<CategoricalPredictor name="raca" value="rambouillet" coefficient="17.889056431529777"/>
						<CategoricalPredictor name="raca" value="red_poll" coefficient="-29.62037182129087"/>
						<CategoricalPredictor name="raca" value="romney" coefficient="5.316144827255787"/>
						<CategoricalPredictor name="raca" value="rottweiler" coefficient="-1.8031377081349214"/>
						<CategoricalPredictor name="raca" value="saanen" coefficient="-51.80226998757694"/>
						<CategoricalPredictor name="raca" value="scottish_fold" coefficient="-13.452723117617793"/>
						<CategoricalPredictor name="raca" value="sem_raca_definida" coefficient="-17.973832598710086"/>
						<CategoricalPredictor name="raca" value="sem_raca_definida_(srd)" coefficient="-8.417588510710557"/>
						<CategoricalPredictor name="raca" value="shih_tzu" coefficient="50.10810050806873"/>
						<CategoricalPredictor name="raca" value="shire" coefficient="-42.23993493761306"/>
						<CategoricalPredictor name="raca" value="shorthorn" coefficient="-46.71379015271852"/>
						<CategoricalPredictor name="raca" value="siames" coefficient="2.3799525964121195"/>
						<CategoricalPredictor name="raca" value="siberiano" coefficient="10.735085472295879"/>
						<CategoricalPredictor name="raca" value="simental" coefficient="-29.30922199879025"/>
						<CategoricalPredictor name="raca" value="southdown" coefficient="176.62710042717612"/>
						<CategoricalPredictor name="raca" value="sphynx" coefficient="-11.77602317886681"/>
						<CategoricalPredictor name="raca" value="standardbred" coefficient="-13.90839470915942"/>
						<CategoricalPredictor name="raca" value="suffolk" coefficient="3.3094518759507303"/>
						<CategoricalPredictor name="raca" value="tamworth" coefficient="-2.161774806573967"/>
						<CategoricalPredictor name="raca" value="texel" coefficient="-8.128573117893062"/>
						<CategoricalPredictor name="raca" value="toggenburg" coefficient="39.63165465905339"/>
						<CategoricalPredictor name="raca" value="tunis" coefficient="-3.013856794103133"/>
						<CategoricalPredictor name="raca" value="wessex_saddleback" coefficient="18.603340894556613"/>
						<CategoricalPredictor name="raca" value="yorkshire" coefficient="-5.293104797003401"/>
						<CategoricalPredictor name="raca" value="yorkshire_terrier" coefficient="28.829254286774017"/>
						<CategoricalPredictor name="peso" value="1" coefficient="25.021736913929182"/>
						<CategoricalPredictor name="peso" value="1.1" coefficient="24.104435818536988"/>
						<CategoricalPredictor name="peso" value="1.2" coefficient="45.246849376624205"/>
						<CategoricalPredictor name="peso" value="1.3" coefficient="23.38361595824042"/>
						<CategoricalPredictor name="peso" value="1.5" coefficient="-36.693261634616185"/>
						<CategoricalPredictor name="peso" value="1.9" coefficient="59.21365689691208"/>
						<CategoricalPredictor name="peso" value="10" coefficient="4.28505569740756"/>
						<CategoricalPredictor name="peso" value="100" coefficient="-27.961259287485042"/>
						<CategoricalPredictor name="peso" value="105" coefficient="-7.294170379970749"/>
						<CategoricalPredictor name="peso" value="11" coefficient="-27.455528511623182"/>
						<CategoricalPredictor name="peso" value="110" coefficient="0.5908752886121081"/>
						<CategoricalPredictor name="peso" value="115" coefficient="10.39825401528558"/>
						<CategoricalPredictor name="peso" value="12" coefficient="1.2080059312968912"/>
						<CategoricalPredictor name="peso" value="120" coefficient="-5.191656829529268"/>
						<CategoricalPredictor name="peso" value="125" coefficient="-1.1230775739090189"/>
						<CategoricalPredictor name="peso" value="13" coefficient="7.402154976857759"/>
						<CategoricalPredictor name="peso" value="130" coefficient="-7.588623031941769"/>
						<CategoricalPredictor name="peso" value="140" coefficient="-14.616407779756628"/>
						<CategoricalPredictor name="peso" value="15" coefficient="8.400850667492419"/>
						<CategoricalPredictor name="peso" value="150" coefficient="108.9104285032559"/>
						<CategoricalPredictor name="peso" value="16" coefficient="25.553799930977714"/>
						<CategoricalPredictor name="peso" value="160" coefficient="-7.653205177427009"/>
						<CategoricalPredictor name="peso" value="17" coefficient="1.3628447211267913"/>
						<CategoricalPredictor name="peso" value="17.5" coefficient="1.6775372915359585"/>
						<CategoricalPredictor name="peso" value="18" coefficient="11.035807949789808"/>
						<CategoricalPredictor name="peso" value="2" coefficient="-9.262307820432286"/>
						<CategoricalPredictor name="peso" value="2.1" coefficient="1.0427208953112987"/>
						<CategoricalPredictor name="peso" value="2.2" coefficient="53.17851421653708"/>
						<CategoricalPredictor name="peso" value="2.3" coefficient="26.421341774571136"/>
						<CategoricalPredictor name="peso" value="2.4" coefficient="13.06302374114356"/>
						<CategoricalPredictor name="peso" value="2.5" coefficient="-5.212347989444199"/>
						<CategoricalPredictor name="peso" value="2.6" coefficient="26.92812396936488"/>
						<CategoricalPredictor name="peso" value="20" coefficient="-0.8601930429507842"/>
						<CategoricalPredictor name="peso" value="22" coefficient="-48.40292397952848"/>
						<CategoricalPredictor name="peso" value="23" coefficient="-8.789621994056601"/>
						<CategoricalPredictor name="peso" value="25" coefficient="-8.641229757521637"/>
						<CategoricalPredictor name="peso" value="26" coefficient="26.437051644065495"/>
						<CategoricalPredictor name="peso" value="27" coefficient="-0.6846485680267218"/>
						<CategoricalPredictor name="peso" value="28" coefficient="9.124946984739129"/>
						<CategoricalPredictor name="peso" value="3" coefficient="7.2299903035900925"/>
						<CategoricalPredictor name="peso" value="3,.4" coefficient="16.876077159775853"/>
						<CategoricalPredictor name="peso" value="3.0" coefficient="159.631113483806"/>
						<CategoricalPredictor name="peso" value="3.1" coefficient="-7.583762052276963"/>
						<CategoricalPredictor name="peso" value="3.4" coefficient="30.739425995734095"/>
						<CategoricalPredictor name="peso" value="3.5" coefficient="-16.606794425785743"/>
						<CategoricalPredictor name="peso" value="3.8" coefficient="-9.102461898272626"/>
						<CategoricalPredictor name="peso" value="30" coefficient="8.408286458868078"/>
						<CategoricalPredictor name="peso" value="300" coefficient="-11.85836515393873"/>
						<CategoricalPredictor name="peso" value="32" coefficient="8.630069352271914"/>
						<CategoricalPredictor name="peso" value="33" coefficient="4.7852148976601185"/>
						<CategoricalPredictor name="peso" value="35" coefficient="-10.43377389465082"/>
						<CategoricalPredictor name="peso" value="38" coefficient="-15.707590068424265"/>
						<CategoricalPredictor name="peso" value="4" coefficient="-17.974094399166443"/>
						<CategoricalPredictor name="peso" value="4.1" coefficient="-11.181638165096134"/>
						<CategoricalPredictor name="peso" value="4.2" coefficient="4.3557270089990965"/>
						<CategoricalPredictor name="peso" value="4.5" coefficient="-4.499725970337558"/>
						<CategoricalPredictor name="peso" value="4.8" coefficient="-0.9557602960670413"/>
						<CategoricalPredictor name="peso" value="40" coefficient="10.03235351132501"/>
						<CategoricalPredictor name="peso" value="400" coefficient="15.955919777248898"/>
						<CategoricalPredictor name="peso" value="42" coefficient="-2.835811908824386"/>
						<CategoricalPredictor name="peso" value="45" coefficient="-44.44920962447828"/>
						<CategoricalPredictor name="peso" value="450" coefficient="-5.89541755578576"/>
						<CategoricalPredictor name="peso" value="460" coefficient="-2.2235787145165404"/>
						<CategoricalPredictor name="peso" value="480" coefficient="-10.404306087275616"/>
						<CategoricalPredictor name="peso" value="490" coefficient="-10.598395226942307"/>
						<CategoricalPredictor name="peso" value="5" coefficient="10.505038875924244"/>
						<CategoricalPredictor name="peso" value="5.1" coefficient="-47.39299285178562"/>
						<CategoricalPredictor name="peso" value="5.2" coefficient="10.688003747509562"/>
						<CategoricalPredictor name="peso" value="5.5" coefficient="-10.179710511479163"/>
						<CategoricalPredictor name="peso" value="5.8" coefficient="-0.5209879576843706"/>
						<CategoricalPredictor name="peso" value="500" coefficient="2.0101857613075187"/>
						<CategoricalPredictor name="peso" value="510" coefficient="30.381861210871005"/>
						<CategoricalPredictor name="peso" value="520" coefficient="-35.732367683272855"/>
						<CategoricalPredictor name="peso" value="530" coefficient="-5.307092787894136"/>
						<CategoricalPredictor name="peso" value="540" coefficient="-10.469087832607501"/>
						<CategoricalPredictor name="peso" value="55" coefficient="-5.136787178343621"/>
						<CategoricalPredictor name="peso" value="550" coefficient="3.91829396723476"/>
						<CategoricalPredictor name="peso" value="560" coefficient="-0.06436379260730267"/>
						<CategoricalPredictor name="peso" value="570" coefficient="11.958037518359465"/>
						<CategoricalPredictor name="peso" value="580" coefficient="4.536047288502221"/>
						<CategoricalPredictor name="peso" value="590" coefficient="0.19903793179262308"/>
						<CategoricalPredictor name="peso" value="6" coefficient="0.26328590021720355"/>
						<CategoricalPredictor name="peso" value="6.1" coefficient="-71.16817850601582"/>
						<CategoricalPredictor name="peso" value="6.5" coefficient="-11.627547819264107"/>
						<CategoricalPredictor name="peso" value="60" coefficient="-45.56153872565114"/>
						<CategoricalPredictor name="peso" value="600" coefficient="12.86434138732511"/>
						<CategoricalPredictor name="peso" value="610" coefficient="33.71523617288053"/>
						<CategoricalPredictor name="peso" value="620" coefficient="9.627188831931232"/>
						<CategoricalPredictor name="peso" value="630" coefficient="8.696849884101393"/>
						<CategoricalPredictor name="peso" value="65" coefficient="-87.52475784511391"/>
						<CategoricalPredictor name="peso" value="650" coefficient="7.828137773817401"/>
						<CategoricalPredictor name="peso" value="68" coefficient="-84.79293629328066"/>
						<CategoricalPredictor name="peso" value="680" coefficient="9.279795781302273"/>
						<CategoricalPredictor name="peso" value="7" coefficient="-14.604321748720928"/>
						<CategoricalPredictor name="peso" value="7.1" coefficient="-29.818967339827573"/>
						<CategoricalPredictor name="peso" value="7.2" coefficient="-13.878601954693028"/>
						<CategoricalPredictor name="peso" value="7.5" coefficient="-18.611967815448025"/>
						<CategoricalPredictor name="peso" value="70" coefficient="-42.79445161297307"/>
						<CategoricalPredictor name="peso" value="700" coefficient="20.151252204862008"/>
						<CategoricalPredictor name="peso" value="72" coefficient="-17.785057897914896"/>
						<CategoricalPredictor name="peso" value="720" coefficient="8.926993667604215"/>
						<CategoricalPredictor name="peso" value="75" coefficient="-8.297448206855233"/>
						<CategoricalPredictor name="peso" value="750" coefficient="9.124286727840085"/>
						<CategoricalPredictor name="peso" value="78" coefficient="5.316144827255637"/>
						<CategoricalPredictor name="peso" value="8" coefficient="-11.569950449892307"/>
						<CategoricalPredictor name="peso" value="80" coefficient="-12.868137208585022"/>
						<CategoricalPredictor name="peso" value="800" coefficient="18.193108520814597"/>
						<CategoricalPredictor name="peso" value="85" coefficient="71.78852154482522"/>
						<CategoricalPredictor name="peso" value="850" coefficient="20.41806535622391"/>
						<CategoricalPredictor name="peso" value="9" coefficient="-36.54404159750998"/>
						<CategoricalPredictor name="peso" value="9.1" coefficient="-33.49123244231321"/>
						<CategoricalPredictor name="peso" value="9.5" coefficient="-28.053283207074138"/>
						<CategoricalPredictor name="peso" value="90" coefficient="-10.213999560012898"/>
						<CategoricalPredictor name="peso" value="95" coefficient="12.502113067276923"/>
					</RegressionTable>
				</RegressionModel>
			</Segment>
			<Segment id="3">
				<True/>
				<RegressionModel functionName="regression">
					<MiningSchema>
						<MiningField name="tipo_do_animal"/>
						<MiningField name="raca"/>
						<MiningField name="peso"/>
						<MiningField name="aumento_apetite"/>
						<MiningField name="espamos_musculares"/>
						<MiningField name="standardScaler(idade)"/>
						<MiningField name="standardScaler(genero)"/>
						<MiningField name="standardScaler(duracao)"/>
						<MiningField name="standardScaler(perda_de_apetite)"/>
						<MiningField name="standardScaler(vomito)"/>
						<MiningField name="standardScaler(diarreia)"/>
						<MiningField name="standardScaler(tosse)"/>
						<MiningField name="standardScaler(dificuldade_para_respirar)"/>
						<MiningField name="standardScaler(dificuldade_para_locomover)"/>
						<MiningField name="standardScaler(problemas_na_pele)"/>
						<MiningField name="standardScaler(secrecao_nasal)"/>
						<MiningField name="standardScaler(secrecao_ocular)"/>
						<MiningField name="standardScaler(batimento_cardiaco)"/>
						<MiningField name="standardScaler(agitacao)"/>
						<MiningField name="standardScaler(andar_em_circulos)"/>
						<MiningField name="standardScaler(cera_excessiva_nas_orelhas)"/>
						<MiningField name="standardScaler(coceira)"/>
						<MiningField name="standardScaler(desidratacao)"/>
						<MiningField name="standardScaler(desmaio)"/>
						<MiningField name="standardScaler(dificuldade_para_urinar)"/>
						<MiningField name="standardScaler(dor)"/>
						<MiningField name="standardScaler(espirros)"/>
						<MiningField name="standardScaler(febre)"/>
						<MiningField name="standardScaler(fraqueza)"/>
						<MiningField name="standardScaler(inchaco)"/>
						<MiningField name="standardScaler(lambedura)"/>
						<MiningField name="standardScaler(letargia)"/>
						<MiningField name="standardScaler(lingua_azulada)"/>
						<MiningField name="standardScaler(perda_de_pelos)"/>
						<MiningField name="standardScaler(perda_de_peso)"/>
						<MiningField name="standardScaler(ranger_de_dentes)"/>
						<MiningField name="standardScaler(ronco)"/>
						<MiningField name="standardScaler(salivacao)"/>
						<MiningField name="standardScaler(suor_alterado)"/>
					</MiningSchema>
					<Output>
						<OutputField name="decisionFunction(gastrointestinal)" optype="continuous" dataType="double" isFinalResult="false"/>
					</Output>
					<RegressionTable intercept="-26.37391190242371">
						<NumericPredictor name="standardScaler(idade)" coefficient="-2.7707879232174375"/>
						<NumericPredictor name="standardScaler(genero)" coefficient="-1.3819753012850968"/>
						<NumericPredictor name="standardScaler(duracao)" coefficient="1.0206288009635078"/>
						<NumericPredictor name="standardScaler(perda_de_apetite)" coefficient="12.24127341564091"/>
						<NumericPredictor name="standardScaler(vomito)" coefficient="6.376264760620614"/>
						<NumericPredictor name="standardScaler(diarreia)" coefficient="20.84555340056775"/>
						<NumericPredictor name="standardScaler(tosse)" coefficient="7.570302149820603"/>
						<NumericPredictor name="standardScaler(dificuldade_para_respirar)" coefficient="2.387994024963902"/>
						<NumericPredictor name="standardScaler(dificuldade_para_locomover)" coefficient="2.978505108353757"/>
						<NumericPredictor name="standardScaler(problemas_na_pele)" coefficient="-3.225963865763741"/>
						<NumericPredictor name="standardScaler(secrecao_nasal)" coefficient="5.324869164291553"/>
						<NumericPredictor name="standardScaler(secrecao_ocular)" coefficient="3.169878442503266"/>
						<NumericPredictor name="standardScaler(batimento_cardiaco)" coefficient="-1.2075740604512677"/>
						<NumericPredictor name="standardScaler(agitacao)" coefficient="-1.0783101291395063"/>
						<NumericPredictor name="standardScaler(andar_em_circulos)" coefficient="-0.41240573352906973"/>
						<NumericPredictor name="aumento_apetite" coefficient="-2.2544326503079217E-15"/>
						<NumericPredictor name="standardScaler(cera_excessiva_nas_orelhas)" coefficient="-1.1073143600836606"/>
						<NumericPredictor name="standardScaler(coceira)" coefficient="3.2216028842493736"/>
						<NumericPredictor name="standardScaler(desidratacao)" coefficient="0.34131369518369037"/>
						<NumericPredictor name="standardScaler(desmaio)" coefficient="5.130112712673474"/>
						<NumericPredictor name="standardScaler(dificuldade_para_urinar)" coefficient="1.0140125089635552"/>
						<NumericPredictor name="standardScaler(dor)" coefficient="4.30833844714511"/>
						<NumericPredictor name="espamos_musculares" coefficient="2.6359542754120034E-14"/>
						<NumericPredictor name="standardScaler(espirros)" coefficient="-0.634105240591541"/>
						<NumericPredictor name="standardScaler(febre)" coefficient="12.876881210500246"/>
						<NumericPredictor name="standardScaler(fraqueza)" coefficient="4.599481957124802"/>
						<NumericPredictor name="standardScaler(inchaco)" coefficient="3.917267273593289"/>
						<NumericPredictor name="standardScaler(lambedura)" coefficient="-1.0543332223461896"/>
						<NumericPredictor name="standardScaler(letargia)" coefficient="11.33976504870471"/>
						<NumericPredictor name="standardScaler(lingua_azulada)" coefficient="0.024873055314803685"/>
						<NumericPredictor name="standardScaler(perda_de_pelos)" coefficient="1.4918962772885698"/>
						<NumericPredictor name="standardScaler(perda_de_peso)" coefficient="8.486245093564905"/>
						<NumericPredictor name="standardScaler(ranger_de_dentes)" coefficient="-0.2939105241823489"/>
						<NumericPredictor name="standardScaler(ronco)" coefficient="0.08982797482740137"/>
						<NumericPredictor name="standardScaler(salivacao)" coefficient="-0.0927859807501488"/>
						<NumericPredictor name="standardScaler(suor_alterado)" coefficient="-1.0084752203869671"/>
						<CategoricalPredictor name="tipo_do_animal" value="cabra" coefficient="-26.020848197839246"/>
						<CategoricalPredictor name="tipo_do_animal" value="cachorro" coefficient="7.307335794981771"/>
						<CategoricalPredictor name="tipo_do_animal" value="cavalo" coefficient="8.70624683785487"/>
						<CategoricalPredictor name="tipo_do_animal" value="coelho" coefficient="-0.784584892170996"/>
						<CategoricalPredictor name="tipo_do_animal" value="gato" coefficient="-10.532543941884052"/>
						<CategoricalPredictor name="tipo_do_animal" value="ovelha" coefficient="8.24886921494921"/>
						<CategoricalPredictor name="tipo_do_animal" value="porco" coefficient="29.339950264492877"/>
						<CategoricalPredictor name="tipo_do_animal" value="vaca" coefficient="-2.3541140767292665"/>
						<CategoricalPredictor name="raca" value="aberdeen_angus" coefficient="-15.202559284091377"/>
						<CategoricalPredictor name="raca" value="abissinio" coefficient="22.246369866455133"/>
						<CategoricalPredictor name="raca" value="akita" coefficient="29.780142550706753"/>
						<CategoricalPredictor name="raca" value="alpina" coefficient="-22.779869653131296"/>
						<CategoricalPredictor name="raca" value="american_curl" coefficient="41.996328345535446"/>
						<CategoricalPredictor name="raca" value="anao_nigeriano" coefficient="2.129940386516374"/>
						<CategoricalPredictor name="raca" value="andaluz" coefficient="-9.821027692191375"/>
						<CategoricalPredictor name="raca" value="angora" coefficient="-22.700771402692205"/>
						<CategoricalPredictor name="raca" value="angora_ingles" coefficient="-7.519392393573785"/>
						<CategoricalPredictor name="raca" value="angus" coefficient="-1.4139273827811283"/>
						<CategoricalPredictor name="raca" value="angus_vermelho" coefficient="-58.476751699058994"/>
						<CategoricalPredictor name="raca" value="appaloosa" coefficient="4.770530755587692"/>
						<CategoricalPredictor name="raca" value="arabe" coefficient="-15.297558469229791"/>
						<CategoricalPredictor name="raca" value="ayrshire" coefficient="1.075461904637815"/>
						<CategoricalPredictor name="raca" value="azul_russo" coefficient="12.471155941587964"/>
						<CategoricalPredictor name="raca" value="beagle" coefficient="-4.78063469298254"/>
						<CategoricalPredictor name="raca" value="belga" coefficient="12.150252384028642"/>
						<CategoricalPredictor name="raca" value="bengal" coefficient="2.1277613390735586"/>
						<CategoricalPredictor name="raca" value="berkshire" coefficient="-62.32310603230006"/>
						<CategoricalPredictor name="raca" value="boer" coefficient="-21.567390286849797"/>
						<CategoricalPredictor name="raca" value="border_collie" coefficient="4.405311500437219"/>
						<CategoricalPredictor name="raca" value="boxer" coefficient="10.38691462651997"/>
						<CategoricalPredictor name="raca" value="brahman" coefficient="-7.819028465236847"/>
						<CategoricalPredictor name="raca" value="britanico" coefficient="5.762570242074471"/>
						<CategoricalPredictor name="raca" value="british_shorthair" coefficient="5.340796154271029"/>
						<CategoricalPredictor name="raca" value="buldogue" coefficient="-13.036317033899826"/>
						<CategoricalPredictor name="raca" value="buldogue_frances" coefficient="-5.3780487516402715"/>
						<CategoricalPredictor name="raca" value="burmes" coefficient="10.585683273833178"/>
						<CategoricalPredictor name="raca" value="cavalier_king_charles_spaniel" coefficient="-38.127202638276046"/>
						<CategoricalPredictor name="raca" value="charoles" coefficient="-2.436843052500051"/>
						<CategoricalPredictor name="raca" value="chester_white" coefficient="7.339515826890654"/>
						<CategoricalPredictor name="raca" value="cheviot" coefficient="-17.134817249379303"/>
						<CategoricalPredictor name="raca" value="chihuahua" coefficient="6.2943354685211155"/>
						<CategoricalPredictor name="raca" value="clydesdale" coefficient="4.846837404710909"/>
						<CategoricalPredictor name="raca" value="cocker_spaniel" coefficient="-3.6628321848256546"/>
						<CategoricalPredictor name="raca" value="corriedale" coefficient="-18.57658927314223"/>
						<CategoricalPredictor name="raca" value="crioulo" coefficient="6.764669649935184"/>
						<CategoricalPredictor name="raca" value="dachshund" coefficient="4.539725430787015"/>
						<CategoricalPredictor name="raca" value="dachshund_(salsicha)" coefficient="12.224327585836695"/>
						<CategoricalPredictor name="raca" value="dalmata" coefficient="30.57844107756134"/>
						<CategoricalPredictor name="raca" value="dexter" coefficient="8.752455422234968"/>
						<CategoricalPredictor name="raca" value="doberman" coefficient="-2.203442268673643"/>
						<CategoricalPredictor name="raca" value="dorper" coefficient="-65.63342134483692"/>
						<CategoricalPredictor name="raca" value="dorset" coefficient="-10.30665858477898"/>
						<CategoricalPredictor name="raca" value="duroc" coefficient="-7.139620870468433"/>
						<CategoricalPredictor name="raca" value="english_lop" coefficient="-12.538533370880376"/>
						<CategoricalPredictor name="raca" value="finnsheep" coefficient="-35.813495517986965"/>
						<CategoricalPredictor name="raca" value="galloway_cintada" coefficient="-4.988214528457083"/>
						<CategoricalPredictor name="raca" value="gigante_de_flandres" coefficient="-28.683766665119567"/>
						<CategoricalPredictor name="raca" value="golden_retriever" coefficient="10.820711007503997"/>
						<CategoricalPredictor name="raca" value="guernsey" coefficient="-9.325860767363361"/>
						<CategoricalPredictor name="raca" value="hampshire" coefficient="-8.355812000781361"/>
						<CategoricalPredictor name="raca" value="hereford" coefficient="9.335314802191236"/>
						<CategoricalPredictor name="raca" value="himalaio" coefficient="16.12483220940879"/>
						<CategoricalPredictor name="raca" value="holandes" coefficient="17.83610129362519"/>
						<CategoricalPredictor name="raca" value="holandesa" coefficient="-0.7462661053670459"/>
						<CategoricalPredictor name="raca" value="holland_lop" coefficient="10.941068533612441"/>
						<CategoricalPredictor name="raca" value="husky" coefficient="4.803856100450518"/>
						<CategoricalPredictor name="raca" value="husky_siberiano" coefficient="44.06030066823708"/>
						<CategoricalPredictor name="raca" value="jersey" coefficient="17.30322982950157"/>
						<CategoricalPredictor name="raca" value="karakul" coefficient="-4.343174114295529"/>
						<CategoricalPredictor name="raca" value="kiko" coefficient="-18.849120328906906"/>
						<CategoricalPredictor name="raca" value="labrador" coefficient="28.995282033476546"/>
						<CategoricalPredictor name="raca" value="landrace" coefficient="-10.85514532668231"/>
						<CategoricalPredictor name="raca" value="large_white" coefficient="-33.93274114114932"/>
						<CategoricalPredictor name="raca" value="limousin" coefficient="14.327387543861851"/>
						<CategoricalPredictor name="raca" value="lincoln" coefficient="-26.496944527131735"/>
						<CategoricalPredictor name="raca" value="lusitano" coefficient="-17.883633090402984"/>
						<CategoricalPredictor name="raca" value="maine_coon" coefficient="3.8679587614898625"/>
						<CategoricalPredictor name="raca" value="maltes" coefficient="-28.95735950603206"/>
						<CategoricalPredictor name="raca" value="mangalarga" coefficient="-1.5729334720351298"/>
						<CategoricalPredictor name="raca" value="manx" coefficient="44.68738206436519"/>
						<CategoricalPredictor name="raca" value="merino" coefficient="2.4914908779680554"/>
						<CategoricalPredictor name="raca" value="mini_lop" coefficient="-18.571275385917556"/>
						<CategoricalPredictor name="raca" value="mini_rex" coefficient="15.068282871874684"/>
						<CategoricalPredictor name="raca" value="morgan" coefficient="-6.487904553276593"/>
						<CategoricalPredictor name="raca" value="mustangue" coefficient="-5.255040603475416"/>
						<CategoricalPredictor name="raca" value="nelore" coefficient="2.6375462501488696"/>
						<CategoricalPredictor name="raca" value="nubiana" coefficient="-11.700271301677192"/>
						<CategoricalPredictor name="raca" value="paint_horse" coefficient="-6.960364869163072"/>
						<CategoricalPredictor name="raca" value="pardo_suico" coefficient="2.2824153067641237"/>
						<CategoricalPredictor name="raca" value="pastor_alemao" coefficient="4.166843675476702"/>
						<CategoricalPredictor name="raca" value="percheron" coefficient="2.7499744340466483"/>
						<CategoricalPredictor name="raca" value="persa" coefficient="23.586358642076124"/>
						<CategoricalPredictor name="raca" value="pietrain" coefficient="-42.860116478055836"/>
						<CategoricalPredictor name="raca" value="pinto" coefficient="9.986364207993645"/>
						<CategoricalPredictor name="raca" value="pit_bull" coefficient="-4.4499630038210585"/>
						<CategoricalPredictor name="raca" value="poland_china" coefficient="-33.809609621573216"/>
						<CategoricalPredictor name="raca" value="ponei_gales" coefficient="-16.432265614935393"/>
						<CategoricalPredictor name="raca" value="ponei_shetland" coefficient="-0.40154632232353854"/>
						<CategoricalPredictor name="raca" value="poodle" coefficient="-1.8577298168107501"/>
						<CategoricalPredictor name="raca" value="pug" coefficient="-14.397719168516495"/>
						<CategoricalPredictor name="raca" value="puro-sangue" coefficient="-0.19043130652241544"/>
						<CategoricalPredictor name="raca" value="puro-sangue_ingles" coefficient="-6.346512531242995"/>
						<CategoricalPredictor name="raca" value="quarto_de_milha" coefficient="-4.134237380711374"/>
						<CategoricalPredictor name="raca" value="quarto_de_milha_americano" coefficient="-10.83129112647913"/>
						<CategoricalPredictor name="raca" value="ragdoll" coefficient="5.642187863455115"/>
						<CategoricalPredictor name="raca" value="rambouillet" coefficient="-22.51593620878169"/>
						<CategoricalPredictor name="raca" value="red_poll" coefficient="-3.4071280098428685"/>
						<CategoricalPredictor name="raca" value="romney" coefficient="-11.92534142012053"/>
						<CategoricalPredictor name="raca" value="rottweiler" coefficient="-1.0351865825040751"/>
						<CategoricalPredictor name="raca" value="saanen" coefficient="-13.69886273566206"/>
						<CategoricalPredictor name="raca" value="scottish_fold" coefficient="32.70391149869039"/>
						<CategoricalPredictor name="raca" value="sem_raca_definida" coefficient="1.960629083717266"/>
						<CategoricalPredictor name="raca" value="sem_raca_definida_(srd)" coefficient="11.361011944870157"/>
						<CategoricalPredictor name="raca" value="shih_tzu" coefficient="-24.13862251430557"/>
						<CategoricalPredictor name="raca" value="shire" coefficient="-14.675152346903882"/>
						<CategoricalPredictor name="raca" value="shorthorn" coefficient="16.47198884540018"/>
						<CategoricalPredictor name="raca" value="siames" coefficient="15.81636548089836"/>
						<CategoricalPredictor name="raca" value="siberiano" coefficient="11.564217618058853"/>
						<CategoricalPredictor name="raca" value="simental" coefficient="11.03202639776972"/>
						<CategoricalPredictor name="raca" value="southdown" coefficient="-47.1734641714902"/>
						<CategoricalPredictor name="raca" value="sphynx" coefficient="5.562015926458844"/>
						<CategoricalPredictor name="raca" value="standardbred" coefficient="10.043121407183213"/>
						<CategoricalPredictor name="raca" value="suffolk" coefficient="-8.657163880317565"/>
						<CategoricalPredictor name="raca" value="tamworth" coefficient="-18.64476073737627"/>
						<CategoricalPredictor name="raca" value="texel" coefficient="-22.908967077578613"/>
						<CategoricalPredictor name="raca" value="toggenburg" coefficient="-49.52909945546141"/>
						<CategoricalPredictor name="raca" value="tunis" coefficient="-15.808305112799575"/>
						<CategoricalPredictor name="raca" value="wessex_saddleback" coefficient="-13.377685033097123"/>
						<CategoricalPredictor name="raca" value="yorkshire" coefficient="15.149070807459488"/>
						<CategoricalPredictor name="raca" value="yorkshire_terrier" coefficient="-18.871125281906412"/>
						<CategoricalPredictor name="peso" value="1" coefficient="-1.8206943278648593"/>
						<CategoricalPredictor name="peso" value="1.1" coefficient="20.116404670919895"/>
						<CategoricalPredictor name="peso" value="1.2" coefficient="-3.5637147358710948"/>
